<?xml version="1.0"?>
<opencv_storage>
<opencv_ml_ann_mlp>
  <format>3</format>
  <layer_sizes>
    512 40 5</layer_sizes>
  <activation_function>SIGMOID_SYM</activation_function>
  <f_param1>6.6666666666666663e-01</f_param1>
  <f_param2>1.7159000000000000e+00</f_param2>
  <min_val>-9.4999999999999996e-01</min_val>
  <max_val>9.4999999999999996e-01</max_val>
  <min_val1>-9.7999999999999998e-01</min_val1>
  <max_val1>9.7999999999999998e-01</max_val1>
  <training_params>
    <train_method>BACKPROP</train_method>
    <dw_scale>1.0000000000000001e-01</dw_scale>
    <moment_scale>1.0000000000000001e-01</moment_scale>
    <term_criteria>
      <iterations>30000</iterations></term_criteria></training_params>
  <input_scale>
    4.7519315967624269e+00 -2.4566015655686888e+00
    2.1112598219152940e+02 -1.2245548720053969e+00
    8.5617012013352948e+01 -1.0389866760669764e+00
    3.1713112573040883e+02 -7.0469496702856593e-01
    7.2303900746532679e+02 -2.1013675367851441e+00
    2.5839566485619266e+03 -8.9292748154322299e-01
    2.7652019986760945e+02 -1.7104957708640267e+00
    1.9907856705960626e+02 -6.0500378244157027e-01
    6.3731515079567764e+01 -8.0400825960330757e-01
    4.4045845662583019e+02 -6.5651007960748975e-01
    1.1682164782409858e+02 -9.7386924950887954e-01
    1.3747838929733191e+03 -1.1065210445237899e+00
    4.8248458549976067e+02 -1.4223675072014998e+00
    1.3959012760402659e+03 -7.0564120917471596e-01
    6.1270571970081555e+01 -1.1792052460169324e+00
    5.3726383879688584e+01 -9.3917319473945604e-01
    1.9940635000926349e+02 -9.4499193637053225e-01
    1.3248696890283363e+03 -1.0365966030588907e+00
    1.3761043491294222e+03 -6.3372213912937547e-01
    6.0448944675960074e+03 -9.4818429308967123e-01
    3.7487844924034930e+03 -1.0735172191257758e+00
    1.0129092691055404e+04 -7.4343604572089828e-01
    1.1267093908642812e+03 -7.6257461653432879e-01
    3.1734621220919776e+03 -1.1748264324166091e+00
    3.3761692554060988e+02 -8.6727123943386786e-01
    3.4468983404770015e+03 -1.1905966259800820e+00
    7.5929083598981310e+02 -8.7212581535268008e-01
    3.2459381993179768e+03 -1.0437070147489955e+00
    4.2266057344187578e+02 -6.9150296315760340e-01
    3.4327350972055488e+03 -1.0723718408622380e+00
    6.2552186020205710e+01 -9.9428393768689483e-01
    1.9784688266033217e+02 -1.7751180484258617e+00
    2.1082968399203210e+01 -3.1075425046763980e+00
    1.9587309707760235e+02 -2.5382462937108241e+00
    1.1470291902648908e+02 -1.6703080166774178e+00
    2.7309384929014215e+02 -1.3255372915263302e+00
    4.2872511009838917e+02 -2.1493973889946894e+00
    1.3361015167986407e+03 -1.2313366535798029e+00
    2.5419332853714664e+02 -1.7609265458998664e+00
    1.9089726993478118e+02 -8.8672331404112048e-01
    1.0869604409333806e+02 -1.5998002210140121e+00
    7.3083535518610620e+02 -1.1346591989866990e+00
    2.3552965001713767e+02 -1.4053321285408786e+00
    1.4587110845137247e+03 -1.6629700582341995e+00
    3.9458390186735375e+02 -2.8152607602710358e+00
    1.3804237383305554e+03 -1.3769941281817408e+00
    7.5192823791154225e+01 -1.2241173975948216e+00
    1.1966561675059978e+02 -7.6266395709861767e-01
    2.0836369341055888e+02 -1.9935343724737418e+00
    8.3887846971618080e+02 -1.2616515530031660e+00
    3.7898307746007714e+02 -1.1580172547086800e+00
    2.2648668430398975e+03 -1.6472582083894396e+00
    1.5177737424694953e+03 -1.1153925352543446e+00
    4.9077545864020785e+03 -9.5872771122008649e-01
    7.9116510575265931e+02 -1.5478521577577260e+00
    2.1439028868711612e+03 -1.2616667194044708e+00
    3.1709947999871366e+02 -1.7231736710836254e+00
    1.9453910855742549e+03 -1.3661661350328687e+00
    6.9867826069328339e+02 -1.7306803547251404e+00
    2.2995682106807681e+03 -1.5119688135891212e+00
    3.7248244917417645e+02 -1.6593380372896294e+00
    2.2796061762620830e+03 -1.2152618447738581e+00
    2.2855168800477319e+01 -1.0453303581387285e+00
    2.5043789609588862e+02 -1.3861684641709906e+00
    1.9677326498844799e+01 -2.9047362822480163e+00
    2.1464522256579312e+02 -2.1828852933229812e+00
    9.1006752323033055e+01 -1.4579586893968721e+00
    2.5926801528036577e+02 -1.5717137711300391e+00
    3.7179882001028682e+02 -1.8718938885308081e+00
    1.3059661136826132e+03 -1.2145293563338437e+00
    1.8697621764190143e+02 -1.3198868286684649e+00
    1.7273894346592672e+02 -8.2034385713616842e-01
    1.1943022493975680e+02 -2.0639548648185264e+00
    8.5681964449261602e+02 -1.4367673631392230e+00
    2.2699260549487016e+02 -1.0311434048993755e+00
    1.2289323046809425e+03 -1.2579113894099219e+00
    4.6798301371094186e+02 -1.9124532315963889e+00
    1.6624414239552964e+03 -1.2620634469229011e+00
    7.6268730035182230e+01 -6.2678815483987427e-01
    1.3368061482428385e+02 -6.5760588978410528e-01
    2.5886628532198392e+02 -1.7201319542350788e+00
    9.6994034065872404e+02 -9.2660974758513392e-01
    7.7795125787949701e+02 -1.0098853382404629e+00
    2.3290826301540455e+03 -1.2067720302829683e+00
    1.3551228448689897e+03 -1.1935632981742255e+00
    4.1375732717247511e+03 -8.8486136168274954e-01
    1.0339999686533986e+03 -1.2443889555065828e+00
    1.9608719466846737e+03 -1.0480201813061987e+00
    2.8902459504206354e+02 -2.2729740928544420e+00
    1.7452473316156336e+03 -1.2659409350014674e+00
    8.9853028794219699e+02 -1.6705767421343536e+00
    2.4756153624209837e+03 -1.2273922283021310e+00
    3.1726404139710229e+02 -2.0531497184792573e+00
    2.1004190505365891e+03 -1.2488422028608075e+00
    7.9027030053459256e+01 -8.0479009865714923e-01
    6.6590408223359907e+02 -1.6092983346863461e+00
    4.3396160312538399e+00 -2.1628730953180044e+00
    3.0586007927470069e+02 -1.6687772242094876e+00
    8.1222020307615296e+01 -9.8433488716856232e-01
    2.6762000542597610e+02 -1.4556027831136373e+00
    1.9471431695976418e+02 -9.2403514609630988e-01
    2.8573607301476804e+03 -9.1684894049771526e-01
    1.9792656784426404e+02 -8.5427203104558913e-01
    2.3040023976612557e+02 -5.8198240890177566e-01
    1.0632325370030746e+02 -1.1015805161875301e+00
    2.4766405180301044e+03 -1.1174486956984233e+00
    2.1235284936460587e+02 -6.2665940380904384e-01
    1.6477887992797475e+03 -1.0159163334218662e+00
    3.7026775753672564e+02 -8.2026868753719140e-01
    2.8062916527256739e+03 -4.7763025201952797e-01
    9.7673151607257509e+01 -4.8743242771476519e-01
    1.5701375418571763e+02 -3.7436189736589082e-01
    6.3126000102730825e+02 -1.9485832794379465e+00
    2.9544217943376607e+03 -7.5005691787720075e-01
    1.0074272895331802e+03 -5.5477328025469919e-01
    6.1083440431138042e+03 -9.0531891289663580e-01
    4.2737265766924138e+03 -1.2847569306955353e+00
    1.4106643649426014e+04 -5.4377297022845472e-01
    1.5488650021760363e+03 -5.4281937541889291e-01
    5.3341876249145171e+03 -6.6018541514495088e-01
    2.8983783933843205e+02 -1.4124032063709562e+00
    4.4160884195501849e+03 -9.6448287060017901e-01
    8.4546285504628418e+02 -8.7730238140566308e-01
    4.2921697125943201e+03 -1.1514863425682909e+00
    3.6864575972454094e+02 -8.2274427714776477e-01
    5.4545018194868780e+03 -6.7689240216755087e-01
    8.7397241594319951e+01 -3.6496814238662612e-01
    6.7950846898475243e+02 -6.3715215573126760e-01
    2.4110070490771729e+01 -3.6741101864503483e+00
    2.9033046028201005e+02 -2.5645358375879170e+00
    8.2501445284063664e+01 -1.5929183595772998e+00
    2.2782412169660552e+02 -1.1669413367722306e+00
    3.8132286607430871e+02 -1.8354283352410963e+00
    1.3296090390580446e+03 -1.4315537447668485e+00
    2.2923781603433727e+02 -2.7107643352491042e+00
    1.8494588216467861e+02 -1.6728758769104692e+00
    1.0012900535044480e+02 -1.8138163864480246e+00
    2.4623847041169157e+02 -9.8321423425485521e-01
    2.5931569609805581e+02 -1.6775042489431524e+00
    1.0956712244054311e+03 -1.8089154920091550e+00
    4.6670848202193451e+02 -1.9021534828256415e+00
    4.1896548645778341e+02 -1.0054664614300848e+00
    9.4867964936644483e+01 -1.3380627734944828e+00
    2.7159428149132253e+01 -1.0657695559282450e+00
    2.7377434311569289e+02 -2.3842197067288580e+00
    1.1321841622558472e+03 -1.3304054742632074e+00
    1.3082572625142780e+03 -1.4647856041539686e+00
    2.6853869400836325e+03 -1.1409286797669635e+00
    1.7617925154119303e+03 -1.1729891774756827e+00
    4.8730066681477028e+03 -1.0588399691876784e+00
    1.0538872245804096e+03 -1.1524920856398071e+00
    1.9137222301086813e+03 -1.2882532455427178e+00
    2.2048623781268935e+02 -1.4681152152513102e+00
    1.5546746533581493e+03 -1.5136085110374993e+00
    8.8474739700181192e+02 -1.3386287043309648e+00
    2.3337655934150271e+03 -1.3167595646888026e+00
    3.7400439263431883e+02 -1.1138610128125062e+00
    2.1904192701934267e+03 -1.4678739511616468e+00
    9.5769784056990673e+01 -6.9367961027717440e-01
    3.8365395282389755e+02 -1.7391403213628860e+00
    3.3541385250383492e+01 -4.6553444673724629e+00
    2.2830446206936656e+02 -2.7182379111541182e+00
    7.3842089940443728e+01 -1.5784219975135585e+00
    1.9398226426072813e+02 -1.5036074445600938e+00
    1.9397999223797234e+02 -1.4457355614234082e+00
    7.5537009507161554e+02 -1.2373966130890695e+00
    2.0328446859936034e+02 -2.0455451252752979e+00
    1.5415219926279511e+02 -1.1989613420606389e+00
    8.9526269653362164e+01 -1.6090498689039634e+00
    6.5384914521801466e+02 -1.6203487062754725e+00
    1.9193376261085385e+02 -1.0304628022362430e+00
    1.2591732463481947e+03 -2.0679468244985819e+00
    4.6461673379719798e+02 -2.2184889993371937e+00
    1.0042842270868266e+03 -1.2416147715754839e+00
    8.4732196884786745e+01 -9.7808018166874877e-01
    9.6351942784303745e+01 -9.6648439131302388e-01
    2.0381779698256025e+02 -1.9829149882028825e+00
    4.9996863546873846e+02 -9.2606436885389321e-01
    7.3849671841757868e+02 -1.5307782897052897e+00
    1.6099361454397085e+03 -1.3209020486930172e+00
    1.0743651248952397e+03 -1.1573448335636427e+00
    2.3017918162750293e+03 -9.3699168378298769e-01
    8.7866326490075551e+02 -1.3187503911958727e+00
    1.3335747022818016e+03 -1.4478129117117888e+00
    2.2073509453660631e+02 -1.5841005293341133e+00
    1.2562917979901306e+03 -1.5678227281000019e+00
    8.9186873233239908e+02 -1.7609904028923342e+00
    1.5669924478775145e+03 -1.4833695872694082e+00
    3.7395386974100433e+02 -1.2938337920990259e+00
    1.4889748592640246e+03 -1.2653695927197648e+00
    8.3940721732977494e+01 -8.0735693035102285e-01
    2.0514342706264179e+02 -9.9787361568869259e-01
    3.0089345934131025e+01 -4.4412036114927096e+00
    1.8196817109882338e+02 -2.1452497751932533e+00
    7.6687340989255176e+01 -1.4654669076335831e+00
    2.4703243294321422e+02 -1.5578155694884817e+00
    2.7228243274897852e+02 -1.8379815455183592e+00
    9.4726426284173590e+02 -1.3116493692813700e+00
    1.9817009148605132e+02 -1.9096809910981398e+00
    1.7565124655034361e+02 -9.7639863712029384e-01
    7.9987981493478131e+01 -1.6627275065064233e+00
    4.3797208497170163e+02 -1.3707609615405763e+00
    1.4523851225258136e+02 -7.4568889084843215e-01
    1.0302343640267318e+03 -1.4318539783004389e+00
    3.5630219099677009e+02 -2.0969455750072732e+00
    1.0188399797097649e+03 -1.3277490843151678e+00
    6.5810321118735772e+01 -8.7398069494076069e-01
    1.0397013417322486e+02 -7.6551437768823072e-01
    2.0293500920578600e+02 -2.1101576683637968e+00
    5.9338872906772872e+02 -1.0746430632810049e+00
    5.0404069428721806e+02 -1.2300152561588054e+00
    1.5853698310074374e+03 -1.3576621296420075e+00
    1.1870300594238465e+03 -1.3537225026722237e+00
    3.3198138056412163e+03 -9.8433897213913146e-01
    6.6990376056540993e+02 -1.2574688770057645e+00
    1.5354277186483521e+03 -1.3927229810585871e+00
    2.4222605115385312e+02 -1.9143994098688160e+00
    1.1932544899064849e+03 -1.4893506390540625e+00
    8.0846314259640837e+02 -1.9872406340595639e+00
    1.9248296318626515e+03 -1.5605194017315618e+00
    3.3263644262440693e+02 -1.4658872997915338e+00
    1.7564036422304337e+03 -1.3843909676755743e+00
    7.7556000967966924e+01 -8.5466143660764926e-01
    3.0541083054853448e+02 -1.4446137066306197e+00
    2.5264910053186725e+01 -3.6983877486380279e+00
    1.9594233173048826e+02 -2.1867551438877375e+00
    7.4009919173747917e+01 -1.6882416852594211e+00
    2.1119930068600561e+02 -2.3166219148728762e+00
    2.6537694999812584e+02 -2.0762850193910700e+00
    8.4939133083882950e+02 -1.6005979191427833e+00
    2.2712886578257263e+02 -2.4121883757222218e+00
    9.4824185143586007e+01 -1.7673354011844655e+00
    9.6480385383901336e+01 -1.6534452267398192e+00
    7.7501119838962120e+02 -1.2820905521447294e+00
    1.7936168186580375e+02 -9.4440021665948337e-01
    9.4588251082830868e+02 -1.6132355018701698e+00
    3.7884534503849210e+02 -1.9485165846493548e+00
    1.1107885388898280e+03 -1.1425330855593974e+00
    5.9058894517907333e+01 -7.3765203142785352e-01
    8.1439068825983540e+01 -8.4690513535875667e-01
    3.0943479757911871e+02 -2.1035552875892027e+00
    1.1634032738796238e+03 -1.1127064760208794e+00
    8.8809399498979076e+02 -1.3435195660313581e+00
    2.4518572590816893e+03 -1.3355868764675654e+00
    1.5502555924319374e+03 -1.2533694651576348e+00
    3.2881685918240528e+03 -9.1591078078438881e-01
    1.1585203796319508e+03 -1.2541220269807791e+00
    1.6031438804951038e+03 -1.2993481622687204e+00
    2.8048643403615358e+02 -1.8087695468156628e+00
    1.6701960257305118e+03 -1.3078587425199935e+00
    8.1329569304551273e+02 -1.5839242271622997e+00
    2.0121968492845806e+03 -1.3885322149553971e+00
    3.7902707435307030e+02 -1.2197250695941517e+00
    2.0002720459139714e+03 -1.0986630674374609e+00
    9.5165218074449541e+01 -8.0521604177705608e-01
    4.6471124609498884e+02 -1.6289466329147362e+00
    2.0886917036148603e+01 -3.2670264566398082e+00
    2.8647225090965213e+02 -2.2772061598093671e+00
    6.9954871965873721e+01 -1.4704685737008780e+00
    3.2535628005795388e+02 -2.4301232027595745e+00
    3.0676709269803428e+02 -1.6535616142491079e+00
    1.2017640398775591e+03 -1.3682612984667795e+00
    2.5541331595767562e+02 -1.7504360239703620e+00
    1.5000860993466148e+02 -1.4802390078857166e+00
    7.7410325686963489e+01 -1.4856417035464129e+00
    7.7735427521076883e+02 -1.1859763054918366e+00
    2.0519493502714460e+02 -1.0809729537012482e+00
    1.2719670507105971e+03 -1.6284997993861960e+00
    2.0921691686845966e+02 -1.1188238107394493e+00
    1.4482281404768230e+03 -1.2061407019864652e+00
    6.4080406647446068e+01 -6.9941869095399278e-01
    9.8083087143747690e+01 -6.7399359350457033e-01
    2.3919176675353827e+02 -1.8997432828363838e+00
    1.2288307502145547e+03 -1.0837423822874150e+00
    1.1300932332362611e+03 -1.4900387337095220e+00
    2.3250797607283012e+03 -1.1634142172283877e+00
    1.5318303210892841e+03 -1.2300071840692430e+00
    5.1091207056883559e+03 -9.9173059018622123e-01
    1.3008561385968505e+03 -1.0962941645503019e+00
    2.0889122801451899e+03 -1.2228493346221609e+00
    2.0831524293344168e+02 -1.8282182920020618e+00
    2.0422405079388091e+03 -1.2297593415723744e+00
    6.8781343848056349e+02 -1.2622004600136369e+00
    1.9740278801608351e+03 -1.0624094995844813e+00
    3.0727021808843278e+02 -1.2841385339578044e+00
    2.7958240474918071e+03 -1.1873249372040464e+00
    8.0725272574085423e+01 -8.4917850482535051e-01
    6.2303864249285675e+02 -1.3206401889381960e+00
    2.7726977503183189e+01 -3.8570758112368364e+00
    2.1104544395607596e+02 -2.4681422316367692e+00
    8.1297344425708999e+01 -1.6751202938034009e+00
    2.7663428092100025e+02 -1.7184068257152554e+00
    2.2892574096086179e+02 -1.7956148535911391e+00
    8.7273407620434341e+02 -1.3752490823416745e+00
    1.7899494745827337e+02 -1.7704802952643977e+00
    1.4166378875002519e+02 -9.9153271824494604e-01
    7.6406705841632601e+01 -1.5272006054085592e+00
    5.6555015322150120e+02 -1.3825680071969222e+00
    2.2077581428265790e+02 -1.1718043755946335e+00
    9.6470464201271147e+02 -1.6958499377097562e+00
    3.0384136523822286e+02 -1.9574952095308684e+00
    1.1789109012825006e+03 -1.5729034543216225e+00
    6.2679049630752019e+01 -9.8743261229931290e-01
    9.5134951411087883e+01 -8.0165298333541135e-01
    1.9383524453988613e+02 -1.8600212987762919e+00
    5.4726237948435107e+02 -9.6296725368802638e-01
    6.8244341918381303e+02 -1.5496442717458323e+00
    1.3279431459224090e+03 -1.2789909613863468e+00
    1.1218847052054898e+03 -1.2684622457645089e+00
    2.1749433850237360e+03 -9.1925715132551611e-01
    8.9815382780834216e+02 -1.7322869404625574e+00
    1.5084773531015469e+03 -1.6045634862164615e+00
    1.7467648976821039e+02 -1.6315638730345949e+00
    1.1495512082848306e+03 -1.3092154893876884e+00
    8.0145781246789045e+02 -1.9230289210648024e+00
    1.7608404022921841e+03 -1.5155059771855492e+00
    3.8732866715548221e+02 -1.7728831528542464e+00
    1.6992052943230399e+03 -1.3664532351401608e+00
    5.7105171599305699e+01 -8.6682088502237620e-01
    3.0932508185401190e+02 -1.5568860626483823e+00
    2.2746621360479903e+01 -3.4995970338017881e+00
    1.9024084803857554e+02 -1.9934166449856987e+00
    9.0721109972023314e+01 -1.6214402376644081e+00
    1.9258506785395747e+02 -1.1193762560601792e+00
    1.7954689836811878e+02 -1.3409553333017978e+00
    9.1258824082051103e+02 -1.4012314004176178e+00
    1.7917885618803521e+02 -1.4758844884751188e+00
    1.3401792105264565e+02 -9.3354828211038132e-01
    5.5852869449686246e+01 -1.2605970460183960e+00
    7.0440762643436460e+02 -1.4968187634251138e+00
    1.9296475413246358e+02 -1.0574569225064276e+00
    1.0641224698907781e+03 -1.6482215145932255e+00
    3.8997264589091378e+02 -2.3278449860787718e+00
    1.2831838300404509e+03 -1.2631951676535316e+00
    6.2379643739261482e+01 -8.9432822042991444e-01
    6.4829656595762046e+01 -6.7072629111288340e-01
    2.3869548407273376e+02 -2.0466959850186983e+00
    7.2723670272912830e+02 -1.0940115762004705e+00
    7.7223149619051128e+02 -1.4920798399930544e+00
    1.6769916567158323e+03 -1.3541839160981950e+00
    1.0930754476110608e+03 -1.1729228970982750e+00
    3.0843558950171614e+03 -1.0473129939636998e+00
    9.0039254854851674e+02 -1.2694744995946772e+00
    1.7258201253050584e+03 -1.4361396254845196e+00
    1.5791973982471885e+02 -1.4214770442137277e+00
    1.2486153008131671e+03 -1.3501522723120150e+00
    6.7822552297067591e+02 -1.5623632780360937e+00
    1.9165695715316849e+03 -1.4442344817228079e+00
    3.2769150394246998e+02 -1.5899025435291529e+00
    1.6169179827063467e+03 -1.2507480917714742e+00
    5.8614287921342971e+01 -7.9240845499391388e-01
    1.9459641999829387e+02 -9.4580042692082589e-01
    2.7653982434032887e+01 -3.8658058860529869e+00
    2.1668943488117941e+02 -2.3569947990503763e+00
    8.2510974370358824e+01 -1.8449830259820237e+00
    2.2381942125920111e+02 -1.5758498559127505e+00
    2.1479326465997238e+02 -1.5486734671438107e+00
    7.2080959751764829e+02 -1.3828981074815010e+00
    1.5136154960843550e+02 -2.6562952435419751e+00
    7.7445101094742000e+01 -1.7687044671048986e+00
    6.2325338121492798e+01 -1.3398587904480053e+00
    2.8294607452115707e+02 -1.3609761182536806e+00
    1.5457388947097792e+02 -1.1225200313369594e+00
    7.0009958659147742e+02 -1.7928669597669555e+00
    1.4223475834900719e+02 -1.0809769525528570e+00
    6.6566673351714735e+02 -1.4595877010025422e+00
    5.1865471688124003e+01 -1.5754043072091859e+00
    1.8584854334663000e+01 -1.2132795509275707e+00
    3.2018431639491399e+02 -2.3286601665816966e+00
    1.1540327104815210e+03 -1.3610053440101983e+00
    1.0823249135185279e+03 -1.7056131841759445e+00
    1.9548850008767922e+03 -1.3929118435583421e+00
    1.5111872022125997e+03 -1.2468654331311855e+00
    3.0533263291631297e+03 -9.6955818248029235e-01
    9.5873509409955818e+02 -1.4587456265376526e+00
    1.1808045500976868e+03 -1.2863872039022040e+00
    1.5397786364084064e+02 -1.1960226268245586e+00
    1.3634582787847869e+03 -1.5829373198335546e+00
    6.5326560405036503e+02 -1.4420686966367335e+00
    1.5005056623269545e+03 -1.5035237814503264e+00
    2.0386987960538440e+02 -9.6799023424701824e-01
    1.2610074986074937e+03 -1.3307025851356058e+00
    6.7650009954179410e+01 -9.8086290685009569e-01
    2.4895947082395199e+02 -2.3783301414621283e+00
    4.3994043589045528e+00 -2.2063010437931285e+00
    2.0851539022792062e+02 -1.2088207709852177e+00
    7.8520125060105727e+01 -9.5392065842749896e-01
    3.8894583552764414e+02 -1.4455498246448872e+00
    3.1287611353300696e+02 -1.2033316257901727e+00
    2.5712685460758271e+03 -9.7795192689048638e-01
    2.6586783238543842e+02 -9.1343337447966200e-01
    2.3432285343669790e+02 -6.1247756705622936e-01
    1.0252598820058891e+02 -1.2625345886230621e+00
    2.2664303769870889e+03 -1.2741626311008656e+00
    1.2488799073957716e+02 -5.6343702762639603e-01
    1.3554885180697861e+03 -1.0522465620058656e+00
    2.5584284299113429e+02 -7.6999489729672699e-01
    3.5934794452788778e+03 -6.4202838154145569e-01
    4.8343969725301513e+01 -4.6263620328732741e-01
    1.3565907717919211e+02 -4.7556563632859927e-01
    5.8304797017090596e+02 -1.7770063251739068e+00
    3.3355504545908625e+03 -9.8433397346120699e-01
    1.0015232152239499e+03 -5.5710812979580648e-01
    6.0083469478286233e+03 -7.9342770339780233e-01
    3.8566575287382707e+03 -1.1130270082129419e+00
    1.4461771247709243e+04 -6.7485873912345140e-01
    2.2258249164872640e+02 -3.5919580559989522e-01
    5.7574513243117317e+03 -8.2300693197367103e-01
    2.4423177380439859e+02 -1.4210085061117352e+00
    4.3705538789512193e+03 -1.0883130461400703e+00
    6.3560126016550430e+02 -7.9004340586723909e-01
    4.1241014303565662e+03 -9.3791950338319041e-01
    2.4530727688152660e+02 -7.2624951989290643e-01
    6.1554432403240162e+03 -8.7032310248044198e-01
    2.1895632549942839e+01 -3.8957986747974854e-01
    3.4978703490851132e+02 -5.3620228179134799e-01
    2.0598217293788704e+01 -2.8276696021702925e+00
    2.5604332027124792e+02 -2.2823867540984226e+00
    1.1609439574834720e+02 -1.7712259663442815e+00
    3.8098994158766402e+02 -1.7360372097514858e+00
    2.9793467447725880e+02 -2.1336089094531401e+00
    1.4559566676804293e+03 -1.5132673808896651e+00
    1.8138173537001103e+02 -1.5620190577300144e+00
    1.3478592183157454e+02 -9.5056513604596637e-01
    7.3538392168137335e+01 -1.7296804787232245e+00
    8.1392393388062078e+02 -1.7540834386571278e+00
    2.1145372418014225e+02 -1.0705116068428315e+00
    1.0486590716955759e+03 -1.2776755012826537e+00
    2.9045194599521830e+02 -1.9862437675832574e+00
    1.7494811598471174e+03 -1.6428680552313397e+00
    6.8292142699323932e+01 -8.8310578202309920e-01
    1.1904232125696851e+02 -1.0210395486767725e+00
    1.9467684773056109e+02 -1.7872112792940080e+00
    9.8906139656822700e+02 -1.1407328359109357e+00
    7.4098577940572102e+02 -1.1784643782476867e+00
    2.4979621263778836e+03 -1.0979434491747189e+00
    9.8601462808255030e+02 -1.4908216212557368e+00
    3.8192257624815861e+03 -9.6067078890634894e-01
    8.2888327255441754e+02 -1.4144593486428407e+00
    2.0428388967979936e+03 -1.2622733055600877e+00
    1.8592293502450812e+02 -2.6905525017315259e+00
    1.4502336530360080e+03 -1.3496911980523776e+00
    4.6182174166224257e+02 -1.3948170103014494e+00
    2.0132018662770370e+03 -1.4244700635661107e+00
    1.7763685613352504e+02 -2.5809661062607803e+00
    1.9482435978872063e+03 -1.1981318749990200e+00
    5.7184208982756751e+01 -1.1435728612203482e+00
    5.4939452966393310e+02 -1.8839298861542721e+00
    2.4830676685505228e+01 -3.2600382447993108e+00
    2.8760976704731297e+02 -2.6081385154632235e+00
    8.3077523367951571e+01 -1.1546677496111142e+00
    2.6214821423452656e+02 -1.1926036568554375e+00
    2.5993893143317814e+02 -1.7186091587950618e+00
    1.2013487915379512e+03 -1.2509160461961588e+00
    1.5503279573686527e+02 -1.4242918080425053e+00
    1.4529927338418474e+02 -9.4908939006311632e-01
    9.1050878870767050e+01 -2.1041488325034177e+00
    6.8906104058252686e+02 -1.1088293479261331e+00
    1.8288802852501831e+02 -1.1037425662488132e+00
    9.9213119565455634e+02 -1.2189971103790229e+00
    2.2528905609371859e+02 -2.3861775109737007e+00
    1.3181131219056588e+03 -1.2938770098979606e+00
    5.2819457995081308e+01 -1.5011248174377034e+00
    8.1519437388135486e+01 -8.9825148712539471e-01
    2.6088981062785643e+02 -2.7398806505491904e+00
    1.1493558072314574e+03 -1.4119665743783034e+00
    5.1853285768762521e+02 -1.4286886319905792e+00
    1.9780213436091353e+03 -1.3102931271199296e+00
    9.9037264125127388e+02 -1.3035353094581361e+00
    2.5119891477100450e+03 -9.2112293160054859e-01
    7.6529430851305324e+02 -2.1243007956904116e+00
    1.3798775152437288e+03 -1.2543900478490639e+00
    1.8200920295837656e+02 -2.2325446741131323e+00
    1.7526957490005570e+03 -1.5059846525386920e+00
    3.3937721731391724e+02 -1.3938557261871134e+00
    1.6629804801828309e+03 -1.3581031693210861e+00
    1.5922786909510228e+02 -2.0602692705320038e+00
    1.6271009912897050e+03 -1.3865256191115725e+00
    2.1083831772844405e+01 -1.5603495699341812e+00
    1.5456273371933753e+02 -1.7120494568257689e+00
    4.5549865837778132e+00 -2.2096390274443052e+00
    1.8886408999270881e+02 -1.3085161165749317e+00
    5.3762759087497770e+01 -7.6314943554023718e-01
    1.3404496703371916e+02 -6.4892911361953343e-01
    7.1841611461156094e+02 -2.0418347333260072e+00
    1.8620504023204737e+03 -8.6939281553931080e-01
    1.5794610365645906e+02 -1.3646999627033412e+00
    8.3388842574529960e+01 -6.1334717176366382e-01
    1.0113495118977100e+02 -1.1130687568408457e+00
    4.4164669446552028e+02 -9.0532352811461669e-01
    1.9466207089912831e+02 -1.0456797556536390e+00
    1.1541680045130256e+03 -1.2534397497507048e+00
    4.9048549492085175e+02 -1.7054820532879100e+00
    9.3032389717141052e+02 -8.4665575896639156e-01
    5.3513900400361038e+01 -1.7469730524754421e+00
    5.1846575489193135e+01 -1.2262366192741021e+00
    1.3252182702215600e+02 -8.9469598257677785e-01
    4.6376027384678008e+02 -7.2277123073152671e-01
    1.5628854878927709e+03 -1.0932855381610955e+00
    4.5784664984852006e+03 -1.1445049292645579e+00
    3.9399922476642732e+03 -1.0849614178060147e+00
    6.8997326002793825e+03 -8.0554246954163200e-01
    1.8483515665568855e+03 -1.2993867910417087e+00
    2.7150262924100630e+03 -1.1586656726353322e+00
    2.7123147381041292e+02 -1.0652811782513811e+00
    1.4076599199228986e+03 -9.4144765700998101e-01
    9.5630372825808865e+02 -1.4449227799347835e+00
    2.4834938213239648e+03 -1.3008767317954526e+00
    4.4344581815483275e+02 -8.1335162164316011e-01
    1.6846808678101186e+03 -8.9499765104875728e-01
    5.3498766991877957e+01 -1.0600449048471285e+00
    2.2386257012460524e+02 -1.8266797760414193e+00</input_scale>
  <output_scale>
    5.2631578947368418e-01 4.9999999999999994e-01 5.2631578947368418e-01
    4.9999999999999994e-01 5.2631578947368418e-01 4.9999999999999994e-01
    5.2631578947368418e-01 4.9999999999999994e-01 5.2631578947368418e-01
    4.9999999999999994e-01</output_scale>
  <inv_output_scale>
    1.8999999999999999e+00 -9.4999999999999996e-01
    1.8999999999999999e+00 -9.4999999999999996e-01
    1.8999999999999999e+00 -9.4999999999999996e-01
    1.8999999999999999e+00 -9.4999999999999996e-01
    1.8999999999999999e+00 -9.4999999999999996e-01</inv_output_scale>
  <weights>
    <_>
      -1.2356558649426445e-01 -9.4773868878023387e-02
      8.3897500278209705e-02 1.2659491830958400e-01
      -1.2340878627337702e-01 1.2960050160323974e-01
      -8.9792267496716385e-02 8.1369497767136353e-02
      -1.2300693382258389e-01 6.6714753916285702e-02
      -1.8100646322630753e-01 -1.0496632458971362e-01
      1.4180097886290169e-01 1.5117508766551501e-02
      9.5522422096960533e-02 6.9725651815051720e-02
      1.3530623989186516e-01 -8.1091029832510236e-02
      -1.1497365180477352e-01 -1.2970979023133564e-01
      4.8792667616360648e-02 -1.0467450749196022e-01
      1.2978759120405983e-01 6.0548781180426073e-02
      -1.3613913371989181e-01 -1.2311944334854828e-01
      -1.0823981255416419e-01 1.0616994434637197e-01
      3.3971150233544321e-02 8.2516014601676693e-02
      1.2612511818656438e-01 -9.7138733880646408e-02
      -1.2382074752367513e-01 7.1582338100968534e-02
      -9.5695198313316132e-02 1.4224319915376829e-01
      -1.3667547367947808e-01 1.4784121069380576e-01
      1.1448418152403798e-01 8.5930976259726025e-02
      4.5802336387360913e-02 2.0881159364590202e-02
      -9.0189157204146872e-02 -7.4243452411473107e-02
      4.5071096212693056e-02 -7.2599709034469717e-02
      -6.9774985420031507e-02 7.7314905094118827e-02
      2.7049347789961174e-02 8.9622065254168562e-02
      1.5035732869902416e-01 2.9939809397675082e-02
      -3.3560024332162702e-01 3.1647090548716221e-02
      7.6524445738113595e-02 1.8791179269286368e-01
      -2.2906169978420269e-02 1.7110988436802139e-03
      -1.2628926479831909e-02 -4.6493311600269711e-02
      4.7460848946487277e-01 6.3846671212321265e-02
      -7.0864511417871867e-02 -5.0541815266600476e-03
      1.0320286175642943e-01 1.3559922075952186e-02
      -7.2760167189325542e-02 -7.9281230230380945e-02
      -1.0497425765295620e-01 2.1446215253660206e-01
      -3.5569080831828394e-02 -3.2304400608872928e-02
      -4.0280653623184649e-02 1.5300967376685759e-01
      -9.7945579857216716e-03 -1.0248087671077423e-01
      1.2409331671923482e-01 -1.1716658608030817e-01
      -2.8859970975605991e-02 1.1880903333085550e-01
      5.5198601874711678e-02 1.3285908560879764e-01
      -1.4328478633332400e-01 -1.0025041841362835e-01
      6.4051484695312064e-02 -7.6526232165208014e-02
      1.1461153929863746e-01 -4.1954410436797089e-02
      6.8630998216454478e-02 6.6011435605606544e-02
      1.4344790784942466e-01 7.1890133346325685e-02
      -1.8857679074404132e-01 -2.8288708525880243e-03
      -4.6966230846662974e-02 2.7021189139500734e-01
      -4.8860607552929640e-02 6.1009531090775282e-02
      6.2935008101626555e-02 1.0196867224345596e-01
      -6.7606171389153452e-02 9.2093857169867094e-02
      -7.8079738587767109e-02 -3.8505638748074708e-02
      1.0279196205639689e-01 9.2786049662827330e-02
      -4.8571586867235998e-02 -9.2913020326737372e-02
      -1.2245127884547664e-01 8.8878268531574545e-02
      -1.0960796085894960e-01 3.4863446726774418e-02
      6.0079144215140707e-03 4.9870867512011162e-02
      8.3486677675850163e-02 -9.5854932629933387e-02
      8.5009083188931314e-02 -1.0348810205968589e-01
      -9.2776539598645472e-02 9.8487138335394145e-02
      -3.4357693023764541e-02 1.7252415528779508e-01
      -1.6398430648636669e-01 -2.7758617730993498e-02
      6.2748395068070464e-02 -5.5938445907786793e-02
      6.9498573559030483e-02 -8.0493636629473866e-03
      -1.4603043880001970e-02 -9.8043981862147064e-02
      -1.6159383307065224e-03 1.0950625199618451e-02
      -2.1537839169329109e-02 -2.4363371719981095e-01
      -1.0179266259556254e-02 9.5384404094369366e-04
      -1.0235138160924173e-01 -8.2411615131333595e-04
      4.3574383100714503e-04 -4.2973567565847805e-03
      -2.1259213164921209e-01 1.2933792925258801e-02
      -1.1696119215736054e-02 1.8601696149984590e-01
      5.4734101139170939e-02 2.9374269605865495e-02
      2.6530330685258993e-02 -5.4459413679769614e-02
      2.1382134246055739e-02 -8.9566520561073656e-02
      -3.1490172522706243e-02 9.8709819817941608e-02
      2.0610383278335789e-01 9.5306475867097201e-02
      -2.8415657322946701e-02 -6.7472244458688074e-02
      3.3990227476536981e-02 -7.4946010878056302e-02
      -2.2873274628973775e-02 -5.1422197998985841e-02
      -7.5007160028200209e-02 -2.2270573775403944e-02
      6.6610800789646318e-02 1.4321491246741165e-04
      -2.7583768088877605e-03 6.6910560541730404e-02
      5.6415243821649676e-02 1.0105097679387322e-01
      -7.9379509484073449e-02 9.6172645310845878e-02
      -7.6730241883255475e-03 -3.4326301280399783e-02
      -1.2776237546783317e-01 -1.7944226423470444e-01
      9.9157494310866623e-02 3.5634840322532052e-01
      5.3349513316416318e-02 -4.6669105136320624e-02
      -1.1024690690662740e-01 -1.1302027286566309e-01
      5.1476128411881539e-02 -3.0135530065066911e-02
      2.9149540260336882e-02 -9.6867314443693023e-02
      5.2590308457784313e-02 -5.7694785134254148e-02
      1.4940698272978151e-01 -3.6799653641373740e-02
      -2.1066001033837575e-01 -1.7951204016947919e-01
      3.6017844463417398e-03 -8.5547813231378278e-02
      -8.4017250244489035e-03 6.4568904624580231e-02
      -8.1931485553679587e-02 6.3026738856805778e-02
      1.7531913016942170e-02 -4.4855403478283075e-02
      3.6513885044136628e-02 6.0345869629686889e-02
      -1.0069262879406567e-01 -1.0492331655161416e-01
      -2.8139816343706218e-02 7.9291537978122120e-02
      -2.1676457995712349e-02 4.5401703368077924e-02
      -1.8545352999032114e-01 1.4947370412449643e-01
      -9.3290479144048144e-02 -4.4710884227433800e-02
      -4.7937306025636013e-02 -6.3397327332305881e-02
      1.9958138651281351e-01 -1.2443342380276459e-01
      1.0966465502719364e-01 -1.4081439175492147e-01
      9.5476116932243199e-02 -6.8745368628031309e-02
      -1.1472245058061324e-01 -1.3349135505776052e-01
      4.2131180061315499e-02 -5.0991936649143872e-02
      4.1601198201504944e-02 -9.0494803438129448e-02
      -5.8863780500952728e-04 -6.8432283413956033e-02
      9.6816591657966113e-03 2.0018901316235908e-02
      2.6700260880877275e-01 -2.9103916227102988e-01
      7.5535013776054150e-02 4.1314583486469124e-02
      -7.4170277738199184e-03 -8.6836719795711434e-02
      -9.5149444968354022e-02 3.0179954167268395e-02
      -7.8510193087608149e-02 -2.9873942186548774e-02
      6.7121063989527302e-02 -7.4314614183430369e-02
      3.5491203992528329e-02 1.7149987549000426e-01
      -1.4318810068018581e-01 -5.0966933193508271e-02
      7.6053495107356747e-02 -5.9165706646731445e-02
      1.6968892619082962e-01 -9.3418658407920602e-02
      9.9741583525747607e-02 2.2259350354282195e-01
      4.3528542674481682e-02 6.6516264044627196e-02
      -2.6411075932628630e-01 -7.7471932018417219e-02
      -1.3086168469373580e-01 4.5506661569694512e-01
      -1.3914648629779250e-01 6.6364503217632625e-02
      9.6514336567053632e-02 8.3027878193734347e-02
      1.4728630589325309e-02 8.9968115146167774e-02
      -5.3339298397938890e-02 -1.7563630698601826e-01
      7.1712305871750176e-02 8.4012827769681470e-02
      6.1575596355794508e-02 -8.3189929251752406e-02
      -2.3570897547265485e-01 -2.8660380181992684e-01
      -8.6678389040357906e-02 9.5701814948744329e-02
      -1.0568203991120156e-01 1.2440052857552002e-01
      4.9787622263179038e-02 -1.0343842410134960e-01
      9.5289700922591106e-02 -4.2982254929051292e-02
      -8.2721975882284665e-02 1.3969384418683438e-02
      -2.8218664741884173e-02 3.0077601422632810e-02
      -1.3532185427938234e-01 1.2550724931000960e-02
      5.3757862538751741e-02 -4.8662541193494051e-02
      5.1061326510982656e-02 -1.8942842284802988e-02
      -3.4189307092811383e-03 -1.5444191200655172e-01
      -6.1110886046169870e-02 1.5324366556208089e-02
      2.2542293693620652e-02 -9.0744648966375074e-02
      -5.2912131152812604e-02 -3.3882861636746381e-01
      -7.2693627604893021e-02 -1.6610020849362160e-02
      7.1833772328314194e-03 1.3579366418046581e-02
      -3.2895649489455775e-01 -1.7645696675819413e-02
      -4.4292406367817368e-03 -7.4137034950378849e-02
      4.2179501894942482e-02 1.4187169577662199e-02
      2.2526679917588760e-01 -4.0335753956822755e-02
      1.7189361699021838e-01 -3.6987241522189429e-01
      1.0848027722257752e-02 3.5793183311216992e-01
      2.2264932574689192e-01 -1.4302195934481956e-02
      -2.4508729075613540e-02 -7.5262883915667281e-02
      -2.5736758540074973e-02 -7.1085700803430921e-02
      -3.8570159874724126e-02 -3.7924558854871188e-01
      9.8295864370756034e-02 5.5748778958547018e-02
      -1.1285197651561560e-01 -5.3210037439083327e-02
      5.9957713993414258e-03 -9.7976704273527643e-02
      1.0860977701732306e-01 2.8439580051603077e-03
      4.0762476145745394e-02 6.7774427971216272e-02
      1.1674919101003878e-01 6.3017269343909041e-02
      -1.1258973688821103e-01 -1.6215067900067399e-02
      -1.8317795518774920e-02 1.1024310601456876e-01
      4.3493682425922456e-02 2.5349453021295702e-02
      1.2690321331294711e-02 1.6221801896099847e-01
      -9.5080752492335233e-02 3.9555864960350358e-02
      -3.3656279963886003e-02 -1.1123695330743297e-01
      8.2135078603098807e-02 6.0426523598903673e-02
      3.3997781897923102e-02 -6.8803790639139870e-02
      -1.6785226781440302e-01 1.8971075705129131e-01
      -5.9340432323249009e-02 4.7601894721871006e-02
      5.2077234085710468e-03 -3.0106380190343021e-02
      1.1122440393267968e-01 -3.5892531793301756e-02
      3.9967501737073023e-02 -7.3770236352649454e-02
      -5.0270132093174928e-02 1.3879471468566615e-02
      6.0752754538337124e-02 3.5983150032194787e-02
      -1.1680220358453237e-01 -7.9049767743924929e-02
      1.2034525288444017e-03 -6.4150643190198545e-02
      -3.5099677035518660e-02 1.1537504309522295e-02
      3.6360522039495857e-02 8.6314629382720970e-02
      1.0581737751080693e-01 2.7085636518890691e-02
      -2.6211198335077157e-01 1.2952496780223227e-01
      1.5960354866243264e-02 2.0421146114977867e-01
      -3.0102241286273541e-02 2.8597940467021809e-02
      1.5923525905926491e-02 -2.4261686052919170e-02
      2.7631947832436388e-01 9.9824783041335380e-02
      -8.1673894423213954e-03 -1.3609742063733810e-01
      3.8232247238018387e-02 5.9082122238765897e-02
      -7.9368655839123559e-02 -4.7510321889229483e-02
      -1.0331672167102791e-01 3.9253023385039781e-01
      -5.9321442351565633e-02 4.6630025036528383e-02
      -1.5143935520021148e-01 1.6288074100255329e-01
      7.3220183866535378e-03 -3.3402267063277501e-02
      1.3809668284683502e-01 -1.2633402288592320e-02
      -1.7272297857562777e-02 9.4848709145635687e-02
      7.3379124695497011e-02 8.1426548775718643e-02
      -1.2804700625874063e-01 -4.2225585176371490e-02
      6.4213407603840811e-02 -5.0645086932813464e-02
      1.9647483584904268e-01 1.3263695693998300e-02
      9.4955289114141542e-02 1.4835077418886594e-01
      9.5536404810965425e-02 9.6184579919667473e-02
      -2.3553661613486399e-01 1.2413810705395407e-01
      -7.2444126041157367e-02 2.5120695707412877e-01
      3.7329416575656346e-02 3.1709281003357445e-02
      4.9773216259167953e-02 1.8524111001415677e-01
      2.2900878666093491e-01 4.2794249446292822e-02
      -2.9531854893644398e-02 -1.9096114484977378e-01
      6.2476691210752860e-02 7.6721418968596078e-02
      3.2496173571815869e-02 -3.6379727354643655e-02
      -3.9777603493688729e-01 2.2706852310853498e-01
      -5.3263797910686334e-02 -2.4452903229888582e-02
      -8.1581712266742393e-02 -5.8312716879234179e-02
      1.4424003027290558e-01 -7.9003750436396764e-02
      7.6842795298487115e-02 -3.5681386092621288e-02
      -4.6883741462054096e-02 4.5357529549181638e-02
      -9.6176518492546211e-03 1.0206362133921698e-01
      -7.2895674160642132e-02 -2.2088684896420126e-02
      6.4942548632121358e-02 -1.0844722957495126e-02
      6.0335395377695139e-02 -4.2783295101235755e-02
      7.0434051445163529e-02 1.1403583247388402e-01
      -2.0748484815922189e-02 4.9466917635065492e-02
      -1.7253284089061277e-01 -6.9105010224122548e-02
      -8.5576049322509576e-02 3.5291194259993780e-01
      -3.3550297338862958e-02 1.9867569936718513e-02
      8.5464783283504361e-02 3.6704389610839674e-02
      3.8898655773753171e-01 3.3496644242689479e-02
      -2.9963284995810635e-02 2.1840847063478771e-03
      3.7343807190149327e-02 5.1173778181862348e-02
      -1.1207505465895962e-01 -5.0765752015731733e-02
      -9.1998558686217195e-03 6.0984365657638283e-02
      -3.0351534748709830e-02 -4.5023417478778589e-02
      -4.9379142090746772e-02 2.0789758606208647e-01
      2.6472004527348901e-02 -2.0755087211531084e-01
      -6.1253626413711850e-03 -1.9042845260881847e-02
      -3.9828422625175580e-02 1.3306278458493914e-01
      9.8793979955825700e-02 1.3729805179205188e-02
      -4.4243503749665049e-02 -2.1692275502085665e-02
      8.8407833505606062e-02 -4.1816951810015976e-02
      6.9117497978317829e-02 1.0870027455791578e-01
      3.5599790700839670e-02 -4.9233530698240900e-02
      1.4242296905463611e-01 6.3399378354643168e-02
      -1.1323134660012253e-01 -9.4393596899454840e-02
      5.2458049392408883e-02 1.4162943352089646e-01
      6.3197398510415170e-02 -4.3822795043170576e-02
      -5.7934236613565102e-02 7.4517581420002518e-02
      -5.7654013220286815e-01 -3.4396717839242065e-02
      -1.0851002814392581e-01 -5.7103778361740028e-02
      1.2231177959612205e-01 -6.1311850966110104e-04
      1.5386798594374804e-01 -7.4517051804553092e-02
      -1.9063024853538241e-01 -1.5344022352783943e-01
      8.6437132757182667e-03 -5.9641411729065688e-02
      9.6658007066502294e-02 1.1812727947288241e-02
      9.7152305805045441e-02 -5.9271537383987043e-02
      6.8515658878314539e-02 -1.8115773158162107e-01
      -3.5341884156449482e-02 -1.7830702047810121e-01
      -4.9485354671933962e-02 -3.5632520743466123e-02
      -1.8598907098768921e-02 1.2159803455741715e-02
      1.4519693161127590e-03 2.3131913604364139e-02
      7.3586304347012660e-03 3.6774131074054715e-02
      -2.7418134045787235e-02 -2.5548830043248240e-02
      -5.7275607529538523e-02 -1.8170008512518036e-02
      -3.0449665294129430e-02 1.1157987940958440e-01
      3.9636306796617657e-02 -1.2928410665409246e-01
      5.6559135614071179e-02 -3.6532826998763021e-02
      -3.8285034413321789e-02 -3.3438969626652514e-02
      -1.4464089639500657e-01 -2.4315279772551639e-02
      1.8946778712042443e-02 -2.4351317382785947e-01
      -9.8532748823672509e-03 -2.5842591441474126e-02
      1.4740191992428531e-01 -1.8434821765879461e-02
      2.1238517198478270e-02 -2.7938637414589468e-01
      2.5604570127961447e-02 -3.7234707675043055e-02
      6.4927186247844978e-02 -3.2748173616441867e-01
      -5.0347101058115559e-02 1.9068116015005201e-02
      1.1528702698339005e-02 -1.8398060172996218e-03
      2.3001104468363190e-02 -1.8487803751276838e-01
      1.1889708512871159e-02 5.9603904723698233e-02
      -1.0094845696733154e-01 -6.9829366603958044e-03
      2.5653758929115596e-02 -5.7969276612121279e-03
      2.0091319107364011e-01 1.0587590820418510e-02
      8.5060788569461254e-03 2.6298988883756308e-01
      5.1726425671280987e-03 1.4395029466322233e-02
      -3.8725153553353442e-01 1.7122620030076086e-01
      9.7970568520663854e-05 3.1879057413431028e-01
      2.2089692979006034e-02 -3.6136687684509877e-03
      -1.9402553783961548e-02 1.9748572396889518e-03
      3.1251711898347734e-01 1.6694557433068608e-02
      1.8573676830464309e-02 -2.3369019966081736e-01
      4.1453458100324823e-02 8.6230311946825563e-03
      3.6922704984344683e-02 -5.0331602221538756e-02
      -3.4623979160949975e-01 8.5869550586077079e-02
      -1.7416823931872553e-02 -4.8969638507114577e-03
      -2.5733890451381908e-01 1.4707306408357390e-01
      1.3727750021096562e-02 -3.1670903796203638e-02
      6.9881848054080722e-02 -4.7337815699358618e-03
      -4.4718554460920646e-03 6.5884369351814465e-02
      8.0256990665142885e-02 8.2121039458827302e-02
      -1.2239444746212871e-01 -6.0134595830738186e-02
      8.8557762023235134e-02 -5.4187933394859181e-02
      1.4895213686418859e-01 -8.6300771542017943e-02
      1.1403637484214263e-01 1.3089073947312443e-01
      5.9390388765192891e-02 7.3755431783130057e-02
      -3.5486795460010484e-01 1.5710911292311613e-01
      -1.0821196037876891e-01 1.3807178189141625e-01
      -9.8620136448525075e-02 6.8900630255616241e-02
      1.1162609720547897e-01 5.7357333374459002e-02
      2.1382244150696533e-01 8.4488424442328403e-02
      -4.7979189520951336e-02 -2.4631312652674245e-01
      5.0792316351096781e-02 5.8094843467334484e-02
      6.8581220577979232e-02 -6.1624729984109977e-02
      -1.8701754069387291e-01 2.2016673265769844e-02
      -6.7846816499914600e-02 1.6209174093492956e-01
      -1.8934547428356299e-01 8.5858949897756512e-02
      6.5832580328104323e-02 -1.1489098097384538e-01
      1.1339695670036432e-01 -3.9485524766011054e-02
      -5.4104320304750764e-02 -5.4534199678440518e-02
      5.3122962758741163e-02 3.6250199312571008e-02
      -5.5996545014896072e-02 -3.4249471074599531e-02
      -6.1740764164147166e-03 -5.1215616684033474e-02
      7.2591593264581408e-02 -6.7178392866316912e-03
      -7.6447593998596039e-03 2.7747607882188252e-01
      3.4591888037338536e-02 6.3323332138965887e-03
      -2.5787926303240383e-01 1.0107694983490147e-01
      2.2665392503205269e-02 2.3343072101959478e-01
      -1.7730131002144676e-02 9.3087064179464361e-03
      -3.8055325461210073e-05 2.5864267566436281e-03
      2.9892585838232083e-01 3.7936285438787104e-02
      2.7563425668299048e-03 -1.4266124635618002e-01
      3.1728884726318914e-02 2.5794894083139845e-03
      -8.6055924406245266e-02 -4.5834608816838034e-02
      -1.4519322893590919e-01 3.7590058405708032e-01
      -4.2600182575272191e-02 3.9028261283257325e-04
      -2.5437996233271926e-01 2.3100066634182487e-01
      2.6930911366601654e-02 -5.6965952317156510e-02
      1.3710827742674592e-02 2.1163597908349457e-04
      -2.6874735029856465e-02 1.8399493149596147e-01
      -5.6591070009553310e-02 -3.0707289116542248e-03
      2.7905795160858837e-02 4.5170916853740722e-02
      4.2465383745592299e-02 3.0827736190464212e-02
      2.9087759408088832e-03 -6.3690043637862365e-03
      1.0147207810680448e-02 1.3103747647377026e-01
      -7.5827940140150041e-02 -1.9201090195106684e-04
      -1.1320664781386826e-01 1.1195749614468611e-01
      -4.0256137409128846e-02 1.7293774197214343e-01
      -2.2109339340473922e-02 -2.5951106706057159e-02
      -9.8672973009552613e-04 -1.2105544497741594e-02
      4.8639094892141710e-01 -4.6765790194002732e-02
      6.2467548522634475e-03 4.1310527177463266e-02
      -7.6354292593777736e-03 -5.7339915487951455e-02
      -1.0721075161315048e-01 -1.6115518418569300e-02
      8.4621980520020984e-02 1.9715043999275472e-01
      3.0892304040262799e-02 -7.0140182884633098e-02
      -1.5521028843689719e-01 1.2224549034940853e-01
      -1.4500460227526456e-02 -1.4888755846932680e-01
      -3.0443859879776776e-02 5.5781152345589450e-03
      3.0482524217168600e-02 1.5743935550599927e-01
      7.6561965175398053e-02 -1.4940905310599001e-01
      -2.6082948587774200e-03 -1.1446333828778665e-01
      9.0888326638665876e-02 -1.4302429747791878e-01
      4.7347502508576313e-02 3.6504679003961038e-01
      9.8186125241124467e-02 6.1994459528808528e-03
      4.7549390404521441e-01 6.9116900954936653e-02
      2.8807068476606910e-03 4.4107213323961551e-02
      2.2093289195284133e-01 -1.2134645835761373e-02
      1.1057952495703703e-01 -7.1716519796611908e-02
      2.5767442367827073e-03 -4.5980149994583129e-02
      3.4779684231378399e-01 -4.2026430841653986e-02
      -2.6579122815856071e-01 -9.8959891477560218e-03
      1.0322601471532213e-01 -8.0560520966956747e-02
      -8.5950714997056324e-02 -3.8391208454321306e-02
      6.6652882547915404e-02 1.7613300560049880e-01
      6.4233257453213607e-02 -1.8899483567282582e-01
      4.4672815019613385e-02 -1.2172669040059285e-01
      1.0339629592561078e-01 -1.5097102834622583e-01
      4.8802002071698262e-02 -3.4338252501108779e-01
      -5.5292532911764988e-02 -1.1246196711409961e-01
      -1.1444524658886439e-01 -1.3673039746622859e-01
      -7.5409837133680407e-02 6.5659074162983014e-02
      1.0152666589536478e-02 6.8889038371945238e-03
      -9.6161330050516858e-02 2.8960054875846830e-01
      -5.4358165469242957e-02 -2.1076336549263681e-02
      8.5218481969575696e-02 -3.4212882496223333e-02
      6.0043347856902345e-02 -1.0177594891857583e-01
      1.4194796058552880e-01 -6.4163820458371115e-02
      1.4847377126828137e-01 -1.2085886948153926e-01
      -1.3105132731924798e-01 -1.2893276871888096e-01
      2.3871017542537365e-01 -1.1661291244679427e-01
      1.4585258832821461e-02 2.0983321952205938e-01
      2.7073168288007748e-02 -1.2445891536208054e-01
      -8.6001445723690492e-02 2.4801168735474236e-02
      2.5451909434617448e-01 -1.8390480780702120e-01
      1.0379768798060229e-01 -2.2818890784518317e-01
      4.9619066638201086e-02 -7.1577351508689060e-02
      -4.3102375957633977e-02 1.2394640682227851e-02
      -6.0298689363876605e-02 -1.2805327574883199e-01
      8.9937777447961026e-02 6.8333064029057686e-02
      -1.2896574575641601e-01 -1.0573450335067025e-01
      1.0011824759862763e-01 5.4006350137610917e-02
      -3.2432272698243100e-02 1.1306412208414822e-01
      -1.8793381957772126e-01 1.4297824771913617e-01
      -7.7146164377731904e-02 3.8784395163125644e-02
      -2.2822659153851708e-02 -7.3575889014999757e-02
      2.0501198574230980e-01 1.1724563624312914e-01
      9.9811401701970559e-02 1.6013662039506590e-01
      1.3507704465358916e-01 -6.5705902515094006e-02
      -9.9967598824825865e-02 -1.0004299064777393e-01
      1.0175765878720990e-01 -7.5114365806226366e-02
      5.9019739229230088e-02 8.4576849412647231e-02
      -5.3462885658144776e-02 -1.1827060625082997e-01
      7.7216028365409958e-02 1.1654213005674019e-02
      4.1234517472501862e-02 8.3576466932956825e-02
      6.5083821805056077e-02 5.6047400920108105e-02
      4.8323762233890887e-03 -7.5143254331022716e-02
      -9.8747307910246038e-02 4.5251014607269768e-02
      -4.4254416470336885e-02 -3.3209026750041261e-02
      1.1831854948756501e-01 1.0641835183837312e-01
      7.3449812039276313e-03 -8.6055520385312986e-02
      8.8275614166570482e-02 -1.8034670181925154e-03
      -4.0908663066259912e-02 9.2804454445850199e-02
      -2.1281105852895030e-01 2.5963646069566015e-01
      -3.7156102648521469e-02 5.8042331007808645e-02
      1.8599919143152910e-01 -1.0011421714964498e-01
      1.3917223000715356e-01 1.2216635691875090e-01
      1.5559445596539842e-01 3.2544589389977036e-02
      7.8391522544337108e-02 -8.8363896667105118e-02
      -8.4898500572565386e-02 -2.1849690061090335e-01
      7.5756482932223410e-02 -7.0319020818264258e-02
      3.0635329417204184e-02 1.0066741995818206e-01
      -9.2318395867086553e-02 -1.5138751877241918e-01
      -2.8509523786966386e-02 3.9017936124082754e-02
      2.0128194286889070e-02 3.3981937804091589e-01
      1.1469609066451808e-01 -1.9206224056977991e-01
      -9.7757901849730058e-02 4.3205868062771900e-02
      -8.0959332196144720e-02 6.9910776645850548e-02
      -4.6686417375141488e-02 -7.7767121854261878e-02
      1.4505884056969148e-01 1.1685497169126033e-01
      2.1105267579553205e-02 -2.6368349454720286e-01
      1.3890438976534858e-01 -2.3426660281717273e-02
      6.1513594920693519e-02 -1.0354543366939005e-01
      1.4697815434165557e-02 -8.2656438166140683e-02
      8.3489258122173352e-02 -8.3832405926852802e-02
      1.3639585051296604e-01 5.9036780696621112e-02
      7.5172022913508135e-02 -7.4233777819559379e-02
      1.8715917859283018e-01 -1.3271524023346939e-02
      2.3986076071536011e-01 3.0679166717957264e-02
      1.1267242575532110e-01 2.9325565120835989e-01
      1.0580523431578351e-01 -7.1083751073055656e-03
      -3.9981812317756960e-01 8.5604817581162201e-02
      3.9195269636780307e-02 1.6508544323312307e-02
      -1.5425549373011804e-01 -3.1079851405439139e-02
      1.3284639834275769e-01 -2.9502772664458762e-02
      2.4544922738549330e-02 -7.1235168802022061e-02
      1.5013190561969220e-01 -1.1802922351798367e-01
      8.4923351255661167e-02 -1.5094456803323097e-01
      6.1792346329392983e-02 -1.0304671196595859e-01
      -3.2451159341403579e-01 -1.1750148740939795e-01
      -1.6750063430596376e-01 -1.4254741506066487e-01
      6.7652611983181718e-02 2.6649700006672793e-02
      -2.5833790159443717e-02 1.1076970515193701e-01
      -7.9805422474679394e-02 1.9106970816953137e-01
      -6.0298672097283831e-02 -1.5776269260225143e-02
      -9.8211442872306487e-02 -3.7728776313376192e-02
      -2.7783288559763485e-02 1.6852074476256035e-01
      1.1556929526132644e-01 -2.4541878374403546e-02
      1.2917227330260952e-01 -9.3205514481449037e-02
      -1.0614129141490278e-01 -1.7379749202673936e-01
      -1.2248496401661787e-02 -9.0155470819051606e-02
      5.4225092561288123e-02 5.5339167573509006e-02
      -3.8312945955767355e-02 -7.8979542129542335e-02
      1.0507810826973400e-01 1.0606639813838566e-01
      5.6292581856540333e-02 -3.3602592957355591e-02
      1.0883266979309658e-01 -8.4511733337373746e-02
      -1.8717034892857726e-02 1.9992819002565637e-02
      -1.1776569578497642e-01 6.8074426256785420e-02
      -1.0024318217754748e-01 8.1419860865578515e-03
      1.0205757023799268e-01 -5.6469406013870370e-02
      5.6124237976135805e-02 6.4371690909746843e-02
      -4.4089170607865678e-02 -5.2581662542121703e-02
      -3.0034763807316709e-02 -1.0062417369346824e-01
      1.6504679375650885e-01 -5.2061616663563383e-02
      2.0727490541973584e-03 7.2460049525977788e-02
      2.8137162765286716e-02 4.1346333797332060e-02
      3.5668217996142289e-02 -2.1401856410560660e-01
      -3.5167569175099155e-03 -7.3169968557251150e-02
      -6.4332703310664111e-02 3.6585690993831625e-02
      1.0670620917463666e-02 1.4291752650926551e-01
      -3.7625620669007503e-01 4.3970467929467127e-02
      -3.9526527964425968e-02 -3.3854057147642433e-02
      8.3140017730618521e-02 7.5915768995281283e-02
      7.1883626074626436e-02 -5.7100389988568527e-02
      -1.0254589738975442e-01 -8.5543685907212674e-02
      -8.2390173240599773e-02 8.0828971189762955e-02
      2.0121642147982777e-01 -8.8972308552306839e-02
      2.7558166944382484e-02 2.1017333293252009e-02
      6.4012439420707098e-02 -3.8990688374875355e-02
      -8.7524855522442088e-02 8.3540217603697200e-03
      2.3029348250081176e-02 1.5408136813284972e-02
      5.3031315285500896e-02 -5.0510685090752617e-03
      -5.0160096253079337e-02 1.4486270413658362e-02
      -7.7938006804963794e-02 1.8403396174811751e-02
      -7.7140022078003898e-02 6.7823410577741244e-02
      -6.6696173768417272e-02 -7.3160531150742059e-02
      1.1893217652667963e-01 -2.1980703428959972e-01
      5.1162684161968494e-02 2.2283881437052294e-01
      -2.5465100295843271e-02 -3.1641620838271899e-02
      -6.2372283761635623e-02 -4.1569902995960466e-02
      8.5341413186538109e-02 2.1885731728691987e-02
      3.0508638226526205e-02 1.3747457542167194e-01
      -3.2171938090678746e-02 -6.0531320369709228e-02
      -1.1028507931453051e-01 3.0763447387199681e-02
      1.6478396152350488e-01 1.9166143632840482e-01
      1.1789449645775356e-02 -6.8244326217193813e-02
      -3.0860119408802303e-02 2.9128854974417412e-01
      -7.3904751209935310e-02 -4.2448257682293537e-02
      -8.4205437005420644e-02 5.1652378004998410e-02
      4.8150304957801718e-02 7.3186547435100641e-02
      6.5257079944351579e-02 1.1639189826558757e-01
      -7.6725571550887994e-02 -4.5434502006460355e-02
      -3.5806537338757174e-02 -7.7175184185851953e-02
      -6.2854487886280022e-02 -7.2491054733629587e-03
      3.0959735503730889e-02 2.9540586268018515e-01
      8.8494445892507462e-02 4.3148421398779134e-02
      -4.6154616014941509e-02 -1.0031132308116314e-01
      -3.1360053878608289e-02 3.4857658341664249e-01
      1.6411446304980461e-02 2.1636598309414279e-02
      -6.3827617811939609e-03 1.5743624038782780e-01
      -6.6763543167660172e-02 4.5515982413995182e-02
      -2.6725018002170871e-02 -1.3032793000028794e-01
      5.4662074037048848e-02 8.3830967705840947e-02
      -1.8132513152459848e-01 -3.4456762472177174e-02
      -2.9026927566659938e-01 2.8002103210835494e-01
      -5.9288238434659905e-02 -2.8122351080258196e-02
      -1.0319826152762321e-01 9.2149812396595018e-02
      8.9455322400225842e-02 -1.9226899479934327e-02
      4.6575472972136940e-02 7.5654177758270325e-03
      -5.3284773786643300e-02 2.7827883909089807e-01
      -9.2097582077050516e-02 -7.0512085240662927e-03
      6.3205112874793495e-02 1.9517692001828377e-02
      -1.0017127961375127e-01 3.0688400067506307e-02
      -6.4200588899703606e-02 3.6876835482106622e-02
      -3.9989354658488629e-02 6.8343900394975149e-02
      -1.3471952554287642e-01 -6.7550819250141503e-02
      6.2689970977146570e-02 -1.9218813517030506e-01
      6.4089937568388586e-02 2.5010288395952579e-01
      7.7958041677172990e-02 -3.7783923839990553e-02
      -8.8341884182845679e-02 -3.3971392888999918e-02
      2.3229564730111940e-01 -3.5396929240375255e-02
      6.7685150188359980e-02 2.9851135368287249e-02
      -2.4051711965266481e-02 -4.3752236056031988e-03
      -1.9016252116537344e-01 4.8864437448477649e-03
      1.1487103224781113e-01 -3.9275244650460817e-01
      2.3439140580856321e-03 -1.3635440579109395e-01
      -1.1457988459595577e-02 9.1689257162145002e-02
      -5.3995908464047844e-02 7.9724598036358313e-02
      -5.1874182893435511e-02 9.7659673740457184e-02
      2.2261814756622974e-02 1.2464763050662649e-01
      4.8934712876416708e-02 -4.2460116096267542e-02
      8.0484706051261415e-02 -8.7710089772441047e-02
      3.1193698663282646e-02 -5.0063595645557603e-02
      -1.3230683975194038e-01 -9.4190739011788815e-02
      7.9495710630358096e-02 -4.8958482926132578e-02
      2.4357490055679651e-01 6.1258454510165254e-02
      1.9185218220269612e-02 -1.0527481658137658e-01
      -1.9715180011889457e-02 -1.6697835401778291e-03
      -1.0083996493526247e-02 5.2492270072568320e-02
      6.2124266159495532e-02 2.4020678085846520e-01
      -6.6634534975488036e-01 6.1767598739803330e-02
      -1.6128777421685031e-01 2.6161380980684001e-02
      8.7067126372695286e-02 8.7492421544551530e-02
      8.4275737804669862e-02 -5.8713135851635082e-02
      6.8079775227768841e-02 1.3922022211779653e-01
      -7.9749767189884885e-02 7.2038683025873740e-02
      1.4181014940158504e-01 -1.2393660924636572e-01
      6.0573371416052464e-02 -3.0704589898543352e-02
      9.0910924443189045e-02 -5.7651723117037437e-02
      -1.2045963041852474e-01 6.4503846109313610e-03
      -7.8168362399986674e-02 -1.0353282590259009e-01
      2.8581375448189159e-02 4.3041172955587362e-02
      -1.0826418850060545e-02 3.4676714264693972e-02
      3.6429141297603329e-02 4.8087497194132564e-02
      -5.4283504861778076e-02 8.1045121595668276e-02
      -1.2342858550401593e-01 -1.1694862182314785e-02
      -1.4446429044359596e-01 1.3726527398929203e-01
      1.1906572004560860e-01 -1.5453931951015804e-01
      1.1079713632202211e-01 -4.4868125183389396e-02
      -1.0017481317389512e-01 -6.3062471257443672e-02
      -1.0133996977263662e-01 -3.9631384797239141e-02
      1.8512677343376673e-02 2.2048131469223774e-03
      -1.9277548246353367e-02 -1.8833921970571675e-02
      3.4354358473429089e-02 8.5371718854106049e-02
      5.6779230923809453e-02 1.8071918307410595e-01
      4.5448965027909037e-02 2.1940670474214982e-02
      -1.1191361787887293e-01 1.2545189129144932e-01
      -7.9204890268662356e-02 4.6839817957510403e-02
      3.5393444033281520e-02 3.7131327142410304e-02
      1.1002712391659833e-02 7.2389134470491071e-02
      -1.6022347359855270e-02 -5.9820181625988199e-02
      -5.2204865040994315e-02 3.7697238952767378e-04
      5.9936510157247214e-02 -7.0246622369105921e-02
      1.7701867965399651e-01 1.1155898058532714e-02
      1.4213613159502578e-02 1.7204195660826097e-01
      6.8006231749609070e-02 3.6711886589676467e-02
      -3.5352002539338073e-01 2.1512290978620149e-01
      8.6522702896431491e-02 1.4649539445541812e-01
      6.4885856776508016e-02 -2.7137650103297831e-02
      -6.2265189220094812e-03 4.9209543010647158e-02
      6.7904368482466837e-02 -2.8957013276188395e-02
      -1.3394432680365229e-01 -1.3639342217631242e-01
      7.6055917335895784e-02 -1.5922141724725059e-02
      -2.7597760499103625e-02 -5.8646834148399857e-02
      -1.6608972844766715e-01 1.7254400975825035e-02
      2.1748986573356992e-02 -6.6991945108495529e-02
      -1.1970383804345874e-01 5.0230005713769017e-02
      3.1606169579807789e-02 -1.1278029964033072e-01
      8.1031104541572446e-02 -7.8873385710108324e-02
      -1.1035303957391611e-01 -1.2565682591301547e-01
      -7.9474199239158314e-02 1.0694529032694165e-02
      -4.8703151855561885e-03 5.7097382616610973e-02
      -1.9280264322076499e-02 7.3288363139945148e-02
      2.7382920519673121e-01 6.5046079529629153e-02
      -8.8875861204127563e-02 1.6540929512578190e-01
      -1.3096467940759360e-01 -6.5802070782369715e-02
      -5.3975710650955511e-01 1.8957484900491178e-01
      8.5044487949597389e-02 1.9208694957882427e-01
      5.6968050427075853e-02 -6.8822066972569859e-02
      -1.1339798062340985e-01 -1.1228235238206569e-01
      3.0608600352965953e-01 -7.1574502592588574e-02
      9.4519116775619236e-02 -3.2188227104191935e-01
      -2.8467013917389775e-02 -9.3632669651109474e-02
      2.2386415964205975e-01 -2.7613491224298009e-03
      -5.0980834764028904e-01 -3.1069563636674330e-01
      6.4073429716812458e-02 -8.3752725973085765e-02
      -2.0647625697165073e-01 7.9585040752469166e-02
      -7.5760002897282824e-02 4.2932672854931672e-02
      -4.1095342640215568e-02 4.4318346919161609e-02
      5.6041562864005523e-02 -1.8153848827968347e-01
      5.3934435194314973e-04 -1.4297254730455991e-02
      2.7936373918829287e-02 1.2449928846448277e-01
      -8.9500868625534913e-02 1.6483663751419797e-02
      -9.3877714456662542e-02 4.0971174373586633e-02
      -4.4816754870173059e-02 -9.3423538213809419e-03
      -2.0223445334354731e-02 -5.4289022919892495e-02
      3.0790804909650998e-01 -5.3391512547845754e-01
      1.5891885907557857e-02 1.9040591207177196e-01
      2.1622597783852258e-02 -4.3087911226945344e-02
      -3.8931036072628641e-02 -5.1546410102277361e-02
      -2.8592210285695718e-01 -8.3823079755693850e-02
      3.6964661864053262e-02 1.4391847367131433e-01
      -2.9324669382104242e-02 -8.5326948811272729e-02
      4.5092828484633439e-02 1.2801053079045726e-02
      2.4463688990236271e-01 -3.1209469143144836e-01
      9.3157052951472946e-02 -3.0604336766798723e-01
      1.2818633322762921e-01 1.6069662354859424e-01
      -2.8135503219885668e-02 4.8048893448313652e-02
      -6.2610832198809543e-02 -8.2883224452959241e-03
      7.6843661283157755e-02 -7.5179197036991649e-02
      -5.5680340949020975e-02 -4.1334517990665925e-02
      -3.4938575691611573e-02 8.6864344426355919e-02
      -1.1629666769434863e-01 -1.2368091152278783e-02
      3.3683557424573594e-02 1.2219657788636736e-01
      -1.3412021122445833e-01 1.4806392274780872e-01
      -4.5474325446996526e-02 -7.9956490056669438e-02
      -3.1295874544067442e-01 1.1175950296830510e-01
      1.4923653287301686e-01 1.8501128885305038e-01
      1.2562010897766518e-01 -7.6172940900969668e-02
      -1.4954287696084412e-01 -1.6575866949399967e-01
      4.5484067781249121e-01 -4.6113461788486194e-02
      1.0607373503929010e-01 -2.7448116004580009e-01
      -2.9840273621042260e-02 -8.3881298348890548e-02
      8.0287747651638958e-02 -3.0853621174268459e-02
      -3.8219244711829792e-01 9.7150438922079793e-02
      6.2079610697856856e-02 -1.1552213618659281e-01
      -1.2881731376660521e-01 1.1847593215381169e-01
      -6.3976070027776555e-02 1.3061552965433013e-01
      -7.8875554206838644e-02 5.2156736181191508e-02
      4.0891632660797241e-02 -1.7633243379520422e-02
      5.2241731391681603e-02 -2.1535241136515369e-02
      -1.3539423308799362e-01 -1.3974443343120074e-03
      -3.9901825333483645e-02 -1.5793545034181988e-01
      2.4414296411928374e-01 -8.1590372437914241e-02
      4.7134665313530678e-03 3.4819558576107195e-04
      2.9230179747612526e-03 3.3105381033823295e-02
      -4.0295553773653917e-02 -7.5669837124179615e-02
      -7.7301500419459740e-02 -2.9059020223942779e-02
      -4.5446385904058875e-02 3.3040256393125605e-02
      6.4427748236271634e-02 9.0099323547974050e-02
      8.4018675446850558e-02 2.4842855072212726e-02
      -2.7599814154221459e-02 -2.4153405808641032e-02
      8.1091474384227591e-02 4.9925758459396216e-02
      8.5089657177958564e-02 -5.4013916613525996e-02
      -3.4984242070925896e-02 -3.0644824749681226e-01
      -3.5723550608175746e-03 -6.5871584099900723e-02
      1.9233287927389139e-01 -1.0823151741540267e-01
      3.3846982934239718e-02 -6.8000972185872213e-02
      -1.8638346615998374e-02 -6.0187329640611992e-02
      -6.7831634999847096e-02 -2.8160533910582303e-01
      -5.3278051358216963e-02 -7.1989845019712635e-03
      -1.5956543043890065e-01 3.0106229459731695e-02
      -1.7867496417951451e-02 -4.1259994058513161e-02
      3.6541100629674489e-01 8.1229330650261170e-03
      -7.8943465277884178e-02 -1.2997335736367860e-02
      -5.8426887611057535e-02 -2.2626162217633972e-02
      -7.6530957829496288e-02 -3.6766807704395423e-02
      5.1573919628691088e-02 3.0513057198931739e-02
      3.3706003641834674e-02 -1.7604981625456088e-02
      -5.1350007428828573e-02 -6.6946145523111178e-02
      1.3447530586255124e-01 -2.1003831686255043e-02
      4.0882648037889720e-02 4.7465567517107912e-02
      2.0242128475349778e-02 -4.9283102886582162e-03
      1.3770234314452734e-01 -2.7933264432967245e-02
      -2.2277714069307827e-01 -5.5302276880091383e-01
      2.5081811189528059e-02 -1.5429987072150857e-02
      1.1437281503783850e-01 -1.7143178911909115e-01
      -4.8955258193941004e-02 1.6123983286225389e-02
      -3.6509334833396627e-02 -4.0328280233559874e-02
      -2.4384545373077274e-02 -2.1450780107776135e-01
      -5.7380353079668746e-02 -6.9345767921656004e-02
      1.1441305829729290e-01 7.5941387036124089e-02
      -7.7324988641172460e-02 1.0931277755772588e-01
      -1.4667471506382296e-01 4.5687642607288380e-02
      -7.5678344495538077e-02 5.9125886765600683e-02
      -8.7094740548655999e-02 -9.2843407321256566e-02
      4.4518004864645390e-02 -2.4438081586450078e-01
      4.5263454452009279e-02 2.6660506790249200e-01
      4.3507870872916216e-02 -4.8652936044152197e-02
      -4.7505007188574720e-02 -1.1564998036123476e-01
      4.6457882438778103e-02 -7.1373326371415621e-02
      9.3749762018361910e-02 5.1377390962676267e-02
      -1.3057609384173283e-01 -8.9853422246767456e-02
      -1.8453478062842865e-01 1.0467397339210237e-01
      2.6976559298321390e-01 1.3656304917604442e-01
      6.6430539036351779e-02 -1.5330196310179045e-01
      -1.4323976977352665e-01 1.9832838106449238e-01
      -5.8182840270843930e-02 6.5440419141277961e-02
      -8.1400780118527208e-02 1.0667666436820229e-01
      1.1576825514968800e-01 1.2886721628408807e-01
      -5.8031128774881070e-02 -8.0499899745521963e-02
      5.7842223075070930e-03 6.8521032402186544e-02
      -1.0119308172088927e-01 1.0641191298566260e-01
      -4.6868525833226822e-02 7.9952307077277920e-02
      -1.3286164121148736e-01 -5.7036237599245596e-03
      -1.2910505756092416e-01 -9.8373956456157124e-02
      5.7833005085164549e-02 -4.1698368200257921e-02
      9.9435397956116028e-02 -1.7980315878373399e-01
      7.0148714911388313e-02 -5.8496662609281727e-02
      -1.1149293086399718e-01 -1.2519828119003382e-01
      -2.0982047387654152e-02 -4.3247330627001881e-02
      1.1425829793070327e-01 -6.2203400454035128e-02
      -6.8412545075409170e-02 -6.3041309750268823e-02
      4.7687990653211373e-02 7.5844315103569829e-02
      1.2013630455905101e-01 1.2306236329521244e-02
      7.0867466986927752e-02 -5.1397193459575198e-02
      -8.0532257066303209e-03 -1.3438035552157626e-01
      -1.1537143691520962e-01 1.1640816456705547e-01
      -6.6215957780273865e-02 8.4285476973288198e-02
      1.1850910878184932e-01 1.9777140284164562e-02
      2.3592353156933385e-03 7.0322700991601941e-03
      -1.1658020882635972e-01 -2.8937396170998397e-02
      3.4868174150479971e-02 -1.0855894566659261e-02
      1.8230058461955678e-01 -4.8006414859253776e-02
      7.4228076677105709e-03 -8.6230240703095942e-02
      1.6921591288852639e-02 2.2131604013590798e-02
      2.3453062135416736e-01 -2.7637672068473712e-01
      -5.5668533225035663e-02 1.7934822736209582e-01
      -2.4327573364485038e-02 3.0315192224027836e-02
      3.9768507196471972e-02 4.9751167069711083e-02
      -4.5900065175206638e-02 3.4161026727785940e-02
      -8.6764844984149982e-04 6.0779014339136281e-02
      2.7335535262422550e-02 2.6124399841194804e-02
      -2.6880218209977130e-02 -5.0573111111880231e-02
      -5.1086101691433508e-03 -3.1719838768492931e-01
      -5.9403465054746113e-02 4.8574720125723218e-02
      1.0398649398099860e-01 -1.4184207169098512e-01
      2.1811374325961128e-02 -5.9360126431833339e-02
      1.7375575878564970e-03 -4.8126818839096801e-02
      -2.6696778439434649e-02 -1.5503672748765454e-01
      4.3795712668072605e-02 7.7484296223880339e-02
      -2.2106129325591034e-01 -4.7664780269552872e-04
      2.6958035504650733e-02 3.7168838389467926e-02
      2.5284541263042237e-01 -1.6194416993629720e-02
      -2.6371474412209769e-02 -9.1425666290321880e-02
      -2.1828385032064457e-02 1.2750141521510669e-02
      1.1050217136215244e-01 1.1658376952830106e-02
      -3.5226265189735695e-03 -4.4926696679308965e-02
      -3.8407993123037255e-02 1.0860893251878052e-03
      -1.4930506816646623e-02 -8.9839201974979178e-04
      -1.1847869573814309e-02 1.0279594162518847e-02
      8.9685947372067591e-03 7.4545019294506687e-02
      4.1912101360626002e-02 2.4954854984406288e-02
      1.8607099206594763e-01 -1.9348419440727849e-02
      1.1923167863332753e-02 -1.2124220675368473e+00
      3.5398089341920178e-03 4.0103142817519849e-01
      1.5210687309490342e-01 -1.6641627910434484e-01
      -7.5851524605487523e-03 3.8088205384755416e-03
      -1.9312122349203747e-02 -6.5799551957145375e-02
      3.0431363316955524e-02 -5.7773832412794524e-01
      1.1227797923153425e-01 1.7167050084474575e-01
      -9.4396805597736309e-03 -8.0737763215281699e-03
      1.0842959925465707e-01 5.5176659505236071e-02
      2.4802724456097108e-01 -1.4694444150498681e-01
      1.1794033873107797e-01 -1.5142790863400082e-01
      1.7662515063678684e-02 8.8341732065171680e-02
      2.5106218398538127e-01 -2.2872153274151161e-01
      -1.8015945583620363e-01 -1.1449326506828107e-01
      -1.5721011017120770e-01 6.2220903873116733e-02
      1.4995044997043186e-01 2.4190301030473899e-01
      -8.7748028624397933e-01 6.6175163344129352e-03
      -7.8315047814792330e-02 5.9629391612467442e-02
      4.4197321431066035e-02 2.5700471662240716e-02
      1.4210198817863637e-01 -1.3221734169843144e-02
      1.8744464853382822e-01 -3.6468070735264660e-02
      -2.2457420972711833e-02 1.1358080884520172e-01
      1.5173881959338695e-01 -2.7076141749034804e-01
      1.1896448069423952e-01 -1.6633694989825695e-01
      3.6632041438257670e-02 -9.2184276789210179e-02
      -1.7597929135250455e-02 -1.8139610650255630e-01
      -3.2622325477148599e-02 -2.4127760625815647e-02
      -2.7142580891465356e-02 3.4785490396715350e-02
      -5.7366292399370029e-02 2.2796167007089061e-02
      -1.4679245238673932e-01 2.9533728837470904e-03
      -3.2152795012364899e-02 -5.6147752576730298e-02
      -4.3472333434659637e-02 -5.6756066379681794e-02
      4.9115998862745297e-01 -3.5924812548451701e-02
      8.7895875115452000e-03 -1.6861330458667734e-01
      6.4790773420692815e-03 -1.7896402458053729e-02
      -1.7819570782650933e-02 -2.7543453977572682e-02
      -6.0894143527930461e-02 -1.8332976694077338e-02
      2.4700603039452578e-02 1.1841607012369147e-01
      -2.0799436700033445e-02 -6.5803255364254951e-02
      -8.0714693597229090e-02 -9.5354489599334992e-03
      1.9091743050095444e-01 2.0502689374176482e-02
      3.5168946929081575e-02 -2.1849397973766001e-02
      7.2986405091101103e-02 1.3611636463065466e-01
      -2.7027022656342027e-02 4.4891108808472399e-02
      -3.1508466436122165e-02 7.2876593505224255e-02
      1.9470037329956759e-02 5.8463872339733103e-02
      6.5389661837296276e-02 -4.6178774843957417e-02
      3.9918908537279772e-02 9.2547193573801288e-03
      -1.9881271397551709e-02 4.0006389313702956e-02
      1.9680943144837099e-01 -3.2704878301551617e-02
      3.4082859173633448e-02 6.6672130636753535e-02
      -7.2381312285245566e-02 3.2538720354883033e-02
      -1.6670250139421375e-02 8.2350475112263011e-02
      -9.4316941415984318e-02 1.8179046629712852e-02
      3.9407714614654636e-02 7.8341690934686063e-03
      7.2963367519929476e-02 1.4773542351282129e-01
      8.6241488890623830e-02 1.0461458471066427e-02
      9.9089748667226304e-03 -8.1117167424399270e-02
      6.0000962967237420e-02 -5.8880775429002042e-04
      4.7651589734915879e-02 -3.9698771732869828e-02
      -9.4214958613231259e-02 1.4112168287712748e-01
      1.0989989640419712e-02 -6.0674430801238501e-02
      -4.3496208972777908e-02 -1.6950469593462494e-01
      4.1818471561320375e-02 -6.2434276465547077e-02
      -2.8364571696639109e-02 -3.6869759989581766e-02
      4.3419206927921915e-02 -1.6033489555811870e-01
      -7.5154587214763993e-02 -1.1140712070403901e-01
      1.3257631890278765e-02 7.7642788351423395e-02
      -1.0994193119240496e-01 -3.6837568123244402e-02
      -7.9349710332573764e-02 6.9953035283125298e-02
      -1.3489801457565517e-01 4.2587411255146049e-02
      -1.0428137474976806e-01 -8.4108326662273955e-02
      1.4762129528110610e-01 -3.1984917592937273e-01
      7.0010146692930181e-02 2.8159364820167465e-01
      6.2070709807395590e-02 -6.8571587584280461e-02
      -6.5768516220483492e-02 -1.2041116405926888e-01
      1.5135169366719073e-01 -1.9633240797865374e-02
      9.0904534860708333e-02 1.1476448158868077e-01
      -8.5439709536048770e-03 -7.5674931093429043e-02
      -1.8146940000560258e-01 6.0316867117015983e-03
      5.8570515456562236e-03 -1.1831600479128848e-01
      7.6535520780998109e-02 -7.6441174047871305e-02
      -6.0459426944994095e-04 -1.6265388684741511e-01
      -1.1057486236459636e-01 8.0815336586572181e-02
      -1.2728466026556756e-01 3.2243993495559835e-02
      2.1639396065960780e-02 -6.9575323493312108e-02
      -8.9417890172826281e-02 3.4536388142144166e-02
      2.8992111936239091e-03 4.3778027858980849e-02
      4.8282094748330485e-02 3.4702527278110469e-02
      1.1749249821547342e-01 -5.9634774138029360e-02
      -4.0627318924823588e-02 -8.1920201645481722e-02
      -7.4990365345357107e-02 -5.0764266204899999e-03
      -1.8837715882086775e-01 -1.1072286709961646e-01
      -5.2810601933776090e-02 2.0987915748898256e-01
      -2.0867066253730471e-02 -1.5888379165146592e-02
      -4.3150499950750681e-02 2.4456207697522291e-02
      1.9542873728462978e-01 -4.4260087615756886e-02
      2.3060928268980350e-02 -4.7027705093521915e-02
      -3.7725930066721761e-03 -8.1921996208399201e-03
      6.1660655360851503e-02 1.4268540472324415e-02
      -2.7191284458744752e-01 1.1143833175803719e-01
      -6.3219633123590430e-03 7.5074084652777600e-03
      -4.7209410356279666e-02 2.3305663326299633e-01
      -2.3603258987863772e-02 -4.7606475806164991e-02
      -4.7268388781447727e-02 5.4192190785564545e-02
      -9.5014797731949822e-03 -4.0300127973966468e-02
      -2.5635301148654938e-02 -1.9174940460209695e-02
      -1.7129155092403429e-02 8.2709427016358084e-02
      -6.6443685356276136e-02 1.0937389194782043e-01
      9.1831751395254999e-02 6.4477176183703688e-02
      -1.2636926839049434e-01 -1.0251386738345886e-02
      -1.0574087484041179e-01 -8.5151670235035851e-02
      1.4526437239124115e-01 -2.1582085688854236e-01
      1.2212048957033594e-01 1.1028132429244979e-01
      6.2225760494764810e-02 -7.0439857399065428e-02
      -1.0015428555293159e-01 -1.0977040005633794e-01
      -1.0647556777356344e-01 -8.7374066023694144e-02
      9.6650089910298123e-02 -2.2621564974269436e-02
      -6.4654977242265904e-02 -8.8323432579904271e-02
      -1.6773816932492115e-02 6.2909180168956913e-02
      1.1697387698120049e-01 -5.9852014604309584e-02
      8.2394695303435253e-02 -1.7002138384477133e-01
      -2.2908514593637599e-02 3.2645704683718732e-02
      -7.7915738047674446e-02 9.7680407124807023e-02
      -9.0774780108778777e-02 1.7488081942419093e-02
      1.2008700500601061e-01 -9.0749328257350437e-02
      -4.3092852977725847e-03 2.5336187038914718e-02
      -6.7385490773447076e-02 -2.1893738901165600e-02
      2.2819847213848689e-02 -5.1516325103312589e-02
      1.0565295757060524e-01 -3.3787627283892847e-02
      4.7892666195331153e-03 -1.8018549638915742e-02
      1.7846469725583285e-02 2.1532754360373010e-02
      -1.4300570219980571e-01 1.0807904897160647e-03
      -4.9896857164711816e-02 1.6519707000639478e-01
      -4.7090794188027300e-03 1.6273336687596365e-02
      9.9269939743771157e-03 4.8281454555260402e-02
      2.4095286540539204e-01 2.8783372474069240e-02
      4.0827385246343930e-03 -5.3369677245401821e-02
      5.0887209210278651e-02 1.2300922131148348e-02
      -7.9899879294242082e-03 -4.2127844732808534e-02
      -2.1590881126246911e-01 1.8298970334845965e-01
      -4.5063195315159274e-02 1.5286713073049099e-01
      -4.7229653883153255e-02 1.0686531306553121e-01
      1.7274943164331948e-02 -3.2847399894896614e-02
      4.3954634469735359e-03 1.5143855593031601e-02
      -4.1292806967496959e-02 1.8164745747045468e-03
      2.4789622020605882e-02 1.5779648914767158e-01
      -1.1988964995226886e-01 -7.7022418555929908e-03
      5.1579424471983167e-02 -8.7109061535026403e-03
      1.9984411682232550e-01 -5.1876686788461468e-02
      1.8683220174607339e-02 -1.2091950947079619e-01
      -1.4844759629250514e-02 2.9039847834310337e-02
      1.9949308243690186e-01 -1.3396260623173536e-01
      -6.3453440465589483e-02 -8.4127269480100325e-02
      -1.1966463266666656e-01 1.8345861295121099e-02
      2.9455138152733575e-02 4.0629508772881275e-02
      5.1803327473480709e-02 1.1644095885147854e-02
      -1.8141428076737350e-02 8.3361574417596292e-03
      3.6140338492971935e-02 5.9047147244649747e-04
      6.0283491820010124e-02 -4.0641998369532951e-02
      -1.4763685319785447e-01 -4.9424725205157971e-01
      -1.7308497497146798e-02 5.2873886744467613e-01
      1.5553504100844437e-01 5.1991116317521444e-02
      2.9363311917750146e-02 -6.4075740469089676e-02
      5.8513397898492516e-03 -3.7389584280048606e-02
      -2.1796848783836923e-02 -2.2632366784059768e-01
      -1.9627289684547574e-02 -1.5441738100072681e-02
      1.9437329198346301e-02 7.9107652408651127e-03
      -1.0982383888191711e-02 -2.1587536595770920e-03
      -8.7177641701506048e-03 3.1370133460513844e-02
      -4.1173323086513926e-02 1.2956535065869637e-01
      1.6841303662902450e-02 -3.4960152303103779e-02
      -2.8342199433757431e-01 4.8377436749138025e-02
      4.1483219175555683e-02 2.0823769170460635e-01
      5.8584270777423279e-02 -1.6414359437474803e-02
      -4.4043499099951061e-02 -5.6372515577031532e-02
      1.7955688428204289e-01 8.7414489818469030e-03
      4.6986414028600654e-02 -2.2317383105551566e-01
      -1.2232558733720906e-02 -4.6142658008826345e-02
      1.1783690210586827e-02 -1.4470143025988598e-02
      -2.2205436986560104e-01 2.3464886758818720e-01
      -1.9807449177156232e-02 1.7205110531178600e-02
      -2.2242443233954542e-01 1.1608845733959387e-01
      -3.0000293647193300e-02 3.7701156602169390e-02
      -3.4578393902311981e-02 5.1128053719398839e-02
      1.3656377443686557e-02 1.1531621185302710e-01
      -1.1261554032670039e-01 -7.5738388406606363e-02
      6.7247863288387430e-02 1.1054574473346866e-01
      -8.2134522483173725e-02 9.8572117135062781e-02
      -6.0079763473226105e-02 8.4758517528182448e-02
      -1.1155300441400286e-01 1.1767054847815801e-01
      -1.4644558529136800e-01 -9.3882680913586120e-02
      -1.1194393479922900e-01 1.3628032508485466e-01
      1.1501741023454212e-01 -1.2328007482742244e-02
      1.0002437018956389e-01 -7.0610565148339882e-02
      -1.1802594960453489e-01 -1.2782612280447739e-01
      -3.2401887051850563e-02 -4.9596507430786002e-02
      1.0390999202458781e-01 -1.8752689858989363e-01
      -6.9491893894106746e-02 -7.8758030485988048e-02
      2.7405116078118084e-03 2.2582172723373903e-02
      -8.3105276718260554e-02 -3.0073335533886358e-02
      7.3110986523051660e-02 -1.0939940583108214e-01
      -1.2268325566438067e-01 -9.0394136832254043e-02
      -1.1653559750786754e-01 1.3748745879189556e-01
      -8.8814100008225885e-02 1.0498588832028273e-01
      8.4375410095612696e-02 -2.6985851825402914e-02
      -1.9421575604843460e-02 -6.4710433778901177e-03
      -1.8738942251250945e-02 -9.8222939894604150e-02
      -7.7037395700414136e-03 -2.7989683513131188e-02
      -4.2913788209479733e-02 -2.1314714738572015e-02
      -1.4504685240449171e-02 1.6618227163376167e-01
      8.3969568578760270e-02 -1.5364300596795444e-02
      -1.7182151933282580e-01 1.4856720716325372e-01
      1.7338513953233887e-02 2.8064503204491098e-01
      2.5374871467822663e-02 2.7405219591300253e-02
      -1.9847495149665054e-02 -5.4076936565282509e-03
      2.9551412387370513e-01 4.9858428107561102e-02
      2.4503069284843988e-02 -2.3319852193550517e-01
      1.3581477361624121e-02 2.8691481557225767e-02
      -1.7779910131628029e-01 -3.9509993426199021e-02
      -2.6034642306361860e-01 4.2261717688792488e-01
      -1.0088495425495816e-01 4.5851155417048095e-02
      -2.9022025288563769e-01 2.3130708924104587e-01
      1.0665580928091985e-03 3.4209505961659677e-02
      5.2991039635753662e-02 2.5992368566476787e-02
      -2.0562691748503656e-02 2.0260411062791125e-01
      -8.1274936796435701e-02 -7.9009923307104435e-02
      -2.0009232915109445e-02 1.0064687445193245e-01
      -1.5707403861753885e-01 9.7241048299608321e-02
      -1.2091096870095643e-01 1.2132845096058306e-01
      -1.4542983469354079e-01 8.8695983202473627e-02
      -1.2926968186202772e-01 -1.2390614723085697e-01
      -5.4899659161995233e-02 -1.4529952115088595e-02
      1.5677333230289861e-01 6.9612866444439994e-02
      1.4504186152095494e-01 -9.1085961358561188e-02
      -1.8467725929482884e-01 -1.8051299013651520e-01
      9.6605613958429204e-02 -5.5054455611830221e-02
      1.4371939692325958e-01 -1.4960209860111895e-01
      -9.8397899192496127e-02 -8.0184259885161660e-02
      -3.6830150036471471e-02 3.0355713004513504e-02
      -2.2064495351828098e-01 9.1655772693779915e-03
      9.1669633890082453e-02 -9.2867971087391588e-02
      -1.8879520392852880e-01 1.7684411090934241e-01
      -1.1419019896660140e-01 1.7910662195784416e-01
      -7.9394142409101823e-02 1.5311446664892378e-01
      1.0787923372345953e-01 9.3224884806755018e-02
      -1.0244301682476209e-01 -1.3388015723277685e-01
      1.1320042621353690e-01 7.5565788976733037e-02
      -8.7564314453257255e-02 1.0764529923380266e-01
      -1.2407787363508060e-01 6.7543790856834318e-02
      -1.0595269293988863e-01 7.7692824699039612e-02
      -1.1594856989151837e-01 -9.7558917379187607e-02
      1.8478178208780269e-01 -7.8966057419223926e-02
      9.8798447903506309e-02 3.3496589178616240e-02
      1.3051906343778996e-01 -4.9202168788658095e-02
      -8.3779563795482223e-02 -6.3503026759269693e-02
      1.0692436966160094e-02 -3.3526465379250733e-02
      9.2051349938696431e-02 1.5563643266266863e-01
      -5.5320392181951741e-02 -7.4146102673329634e-02
      -1.2745536238693711e-01 5.0773602292895403e-02
      1.8877214172840434e-01 -4.9053881055492472e-02
      4.2865711039719916e-02 -1.1045833410964788e-01
      -1.3202202112957040e-01 -3.1112258924033184e-02
      -1.0659728243257220e-01 1.0086471432390540e-01
      -8.1691208288239503e-02 1.4843338648401772e-01
      6.6687587156119707e-02 1.7129047546022028e-01
      -3.4819770739208535e-02 -8.7462912055513556e-02
      2.3890737266177638e-02 2.5002823645494648e-02
      -8.0989684702449757e-02 7.7023558903700745e-02
      -1.5150252483677196e-01 3.2939937173447642e-01
      -7.0878957082877003e-02 2.7776669380946875e-02
      1.3638373848803484e-01 -8.4524649735764651e-02
      2.0477055492091645e-01 -5.0249831028806903e-02
      2.1273831043301419e-01 4.5842012879335411e-02
      8.8263320252302213e-02 -1.0717564021315529e-01
      -1.3596113853662686e-01 -2.7743457824453960e-01
      8.5576406357777579e-02 -6.8805083637788297e-02
      4.6920773206705103e-02 5.7758804344121721e-02
      -7.6604561140538638e-02 -1.6001045625440155e-01
      1.0077692630750645e-01 7.8466364795057985e-03
      2.2328149441601539e-01 -5.6175998081137442e-02
      1.1160139761923375e-01 -2.0253623907695265e-01
      -9.3359685525858979e-02 -3.9742105246934903e-02
      -8.3447473331777697e-02 1.2866529526836670e-01
      -4.3815531200999847e-02 -5.5131995612537635e-02
      1.4668301672722608e-01 7.7694532782289361e-05
      -9.4730001676137446e-02 -1.1272107974376099e-01
      4.8921532123097538e-03 2.3112095517238009e-02
      -1.3190423869681911e-01 -1.3758575734845377e-01
      -1.3569309859457254e-01 -8.7821875310217703e-03
      -8.7958444117405193e-02 3.0966551449536844e-01
      -3.5340020456323548e-02 -7.4294378036108499e-02
      -2.0536543398202206e-01 5.2449702349833177e-02
      4.3923385100999211e-02 4.3189703314023115e-01
      6.4563590855443095e-02 -3.0358592249107585e-02
      -5.4766581100728767e-02 2.9926593287466590e-02
      6.4584121405074135e-01 -2.0622849571876937e-02
      1.8850498111927402e-02 -1.6566395843082884e-01
      5.6660059453578398e-03 -3.1236509655303394e-02
      -2.8769169005826079e-01 -1.2623776834333250e-02
      -2.4929177704791894e-01 1.9273648944721566e-01
      2.3138834309617889e-03 -4.7335847314221996e-02
      -9.8812566238436886e-02 2.0704659384773760e-01
      -5.1403230194880863e-02 1.0080371492689802e-01
      -1.7985686430994741e-02 1.0194308643459431e-01
      -1.0199472982965130e-01 1.4204444518435516e-01
      -1.4320750013275368e-01 -1.3760116983949153e-01
      7.9318536944678206e-02 1.3436422809480783e-01
      -7.9996326479750107e-02 1.6108065124439455e-01
      7.3250726117978834e-03 1.8164780027180841e-01
      -1.1196480726629889e-01 2.1345193589647440e-02
      -1.2486207960960227e-01 -6.8780960360724494e-02
      3.6807584065379384e-01 4.5345993041389587e-02
      1.7271179042720569e-01 -4.2942160534595762e-03
      1.8768773257701074e-01 -8.8449923291100255e-02
      -1.4483983579296952e-01 -1.4499209026311019e-01
      -1.7982916679116365e-02 -8.6361477670161529e-02
      9.2081092149677274e-02 2.4705038316575073e-01
      -1.2936480865360300e-01 -9.7245949983385621e-02
      -2.1374696211272834e-01 1.1676036939968805e-01
      2.2399736969487027e-01 1.5285267901204044e-01
      1.4679263537311246e-01 -6.7448006908106678e-02
      -4.0720551990158033e-02 7.0424097150066034e-02
      -1.0321655234004884e-01 1.4670069935571622e-01
      -1.1233363377509618e-01 9.3949075189520698e-02
      1.5303437983357771e-01 7.8914805314359751e-02
      2.1982484309723324e-01 3.9581978010664320e-01
      7.7706266987431161e-02 -1.5464474530980513e-01
      2.2440120442566527e-01 4.0297472217820256e-02
      1.7815103986268607e-01 -2.2605609321270725e-01
      2.7970302488479798e-01 -2.0375898567482376e-01
      2.9107347001624156e-01 1.6139487498083332e-01
      1.7355274946459431e-01 -4.6900009949297528e-01
      -3.3484912702750780e-01 1.0197498591885414e-01
      -4.1798657488966084e-01 1.9573339284605348e-01
      2.9986273829482046e-01 2.9323574034382843e-01
      -9.7269264096127028e-01 1.5936664958015248e-01
      -1.5808905451707839e-01 6.4968040614406766e-02
      4.5467953770955562e-02 1.1957281753810318e-01
      4.7284368427071413e-02 -3.2628476467459581e-02
      -9.3282583321039975e-02 2.0695273790377933e-01
      -2.0350316173281507e-01 2.6973120027250519e-01
      2.1481060287783765e-01 -6.3102554346697357e-02
      2.3808055564280808e-01 -2.1313924050505606e-01
      1.8082617777046456e-01 -9.5383271518712107e-02
      -7.2447940685419113e-02 6.6127166936267523e-02
      -1.3969697751695315e-01 -1.3549380548007353e-01
      5.2450149502203482e-02 1.2202543532337931e-01
      -6.9205764486181653e-02 9.9683814767899739e-02
      -1.5777468780726220e-01 1.1651052333280938e-01
      -1.4704415144275265e-01 -6.6373715907445702e-02
      -1.5692314515402864e-01 -9.6199609196062352e-02
      1.9221522104342420e-01 -2.6632714849803035e-02
      1.2986261870922372e-01 -2.9327558343849012e-02
      1.0989448865242199e-01 -9.1792182603910463e-02
      -1.4778434484226663e-01 -1.3821156717421379e-01
      -1.1607780060832333e-01 -7.7524698298880979e-02
      9.5607925161410146e-02 2.2358032419931209e-01
      -2.2329519119711195e-02 -1.2653704796449661e-01
      -6.0243844214796241e-02 2.8827733727949462e-02
      2.1596472328809257e-01 -9.9998560885682736e-02
      1.2810575156899501e-01 8.9092688018485144e-03
      -3.7431295440497205e-02 -3.9479820087673985e-02
      -1.5193422531506076e-01 1.1643624485646252e-01
      -1.5094886110426331e-01 1.2950605944058094e-01
      8.9830787066074391e-02 5.8556758995198403e-02
      -2.9912361863538899e-02 -1.0094701032114807e-02
      -3.2318912373750314e-02 4.4546417747473033e-02
      5.4641973015937444e-03 -3.7627619517878616e-02
      -4.4836206174859250e-03 -1.9640781364266464e-02
      -9.0129208984094013e-03 1.2898864477377178e-01
      -2.3731659959748578e-02 2.7770529694355469e-03
      -1.8587064210979370e-01 -1.7797971330275583e-01
      -1.1496659908975372e-02 4.2191126364780890e-01
      -8.8892461035973008e-03 -1.3586724227207986e-02
      -2.0738211390049117e-02 -1.2654916930748690e-02
      9.4728585731351234e-02 -1.7800020768371019e-02
      2.0442344027169438e-02 -1.5247566613211559e-02
      1.9264779857894980e-02 -8.9919702394070586e-03
      -1.8872397859828557e-01 9.3893468922494772e-03
      2.4087229277436780e-02 2.4642769872239417e-01
      -1.1399796646851749e-02 3.8994987489373814e-02
      -2.0391628373191004e-01 3.3653134801415135e-01
      -1.8246748184052232e-02 -3.1699447507576514e-02
      2.0863385111106257e-03 6.3381295227885381e-02
      -4.2845051789422869e-02 1.2562862126724189e-01
      -1.2766291713566338e-01 -1.2455230289140037e-01
      -2.4495461948619665e-02 7.8812740417484331e-02
      -9.0115291617475043e-02 1.1451304470439225e-01
      -7.0959675415979473e-02 8.3197206654231373e-02
      -1.3175805105763860e-01 6.4307677759217252e-02
      -1.8588764344410150e-01 -8.7625616121488836e-02
      2.6725897733348070e-01 -9.3761687454106624e-02
      1.2315895532995279e-01 1.0674228432335715e-01
      1.4437980474697748e-01 -7.8137347792762546e-02
      -1.3643034350881278e-01 -1.3727124226779128e-01
      7.4317899087453065e-02 -4.9903520574417951e-02
      1.2560598458809696e-01 1.0169663054644967e-01
      -9.0290306977653917e-02 -4.1624788877381219e-02
      -2.2602556938395643e-01 8.4420563689930395e-02
      2.0792348646049205e-01 -6.6568952467596712e-02
      7.8920760504091844e-02 -1.3555106538708375e-01
      -1.2824255081655173e-01 1.5550665757448406e-01
      -1.4119377392901017e-01 1.1648433698952966e-01
      -5.3568116902401944e-02 8.8721683958325859e-02
      1.0885996101430394e-01 1.5407489406178307e-01
      -2.0862637658125901e-03 8.9081715798273217e-02
      2.9866689351219761e-01 -1.9225947238706024e-02
      5.6826693845328721e-03 7.2769420476580221e-02
      -5.5065635356517956e-02 -1.3851133875557306e-01
      4.6108151234611087e-02 5.8136915730413949e-02
      7.4796031915236934e-04 3.9840416087556701e-02
      -1.1110796572355704e-01 -3.5838840646421207e-04
      -2.4502943175806244e-02 8.6221500617964797e-02
      -5.5444659317346046e-02 4.9158629528708829e-02
      5.9159741085288729e-02 1.9137331865092344e-01
      -8.8197835957478071e-02 4.5629051573480899e-02
      -1.1475136670257371e-01 -7.5158570810222175e-02
      1.0202925825080651e-02 6.2027004693512480e-02
      -1.0975876686544832e-02 -1.5455808183188993e-02
      -4.2633713802342754e-01 5.4890713151352660e-02
      -6.5562691308572604e-02 2.3643945642100395e-01
      4.3033274525216714e-02 -4.0300698202216774e-02
      4.2465314800016842e-02 8.9239911278053991e-03
      3.3460029862871089e-02 3.7531959070295144e-04
      -1.2913654393397372e-01 1.0826261796999004e-01
      -9.6360429642557061e-02 -7.1515787488715926e-02
      1.4439740706608828e-02 5.2679597705835364e-02
      -5.6235966480689480e-02 1.1684764211402875e-01
      -8.9322453913587299e-02 8.2584945421197209e-02
      -9.1043100465025964e-02 -5.0608673258371817e-02
      -1.5639610432940038e-01 -1.8187777462334940e-02
      1.8039743349928047e-01 -1.1658463065186404e-01
      1.0578361349246647e-01 -9.2274278673128027e-02
      7.6418214019363093e-02 -7.8752901916620710e-02
      -1.0205899864946405e-01 -1.1010588709359208e-01
      -5.5418857786617925e-02 -6.9868829529487420e-02
      8.3613093508619715e-02 1.4413615873617533e-01
      -1.1543306271867511e-01 -2.7745628877472756e-02
      -1.0312228348597698e-01 2.2242463137028975e-01
      2.2957700813277057e-01 2.3603971045368623e-02
      9.8215206157153401e-02 5.0808608211299018e-02
      2.5583726731596489e-02 1.4494226326610432e-01
      -1.1803776423119226e-01 1.0701370075525825e-01
      -7.1293376087196852e-02 1.2445489932100087e-01
      9.4416950705994818e-02 6.7278683586444121e-02
      -1.1908205982396367e-02 6.9154213111442516e-03
      7.1830294980030820e-03 -7.2799143746174091e-02
      -7.1938384437688222e-03 -6.0192823756386550e-02
      5.8994964650345323e-02 -4.8427048919230373e-02
      -6.3855739720291137e-03 1.6503772495624622e-01
      5.8979672022752991e-02 1.1048255630498299e-02
      -3.9527496530777256e-01 2.5046851765567141e-01
      -4.8024674386086767e-03 2.5364574645843491e-01
      5.6558436474298196e-03 2.8795161631909833e-02
      -5.8579326403427152e-03 7.7910267838845878e-03
      3.9862596785357540e-01 4.9301527094164507e-02
      1.2644898654172458e-03 -2.8632565728386844e-01
      3.5454023375188819e-02 6.0507125090821123e-02
      -6.1618484434008046e-02 -3.1355701554430432e-02
      -3.8885607450533782e-01 3.2515650424296250e-01
      -9.6647965563859350e-02 4.3321647271957163e-02
      -2.2025089872739187e-01 2.3184467388994770e-01
      1.9565744681256068e-02 2.0600932874513138e-02
      5.9892083535364272e-02 1.6227942841456379e-02
      -6.2591991267298114e-02 5.8266362433703547e-02
      -4.0484978685720582e-02 3.8048003846750812e-02
      -1.7786497487571488e-02 -2.9463627106541637e-03
      1.2549792658282939e-02 -9.4756370183079180e-03
      1.9135019449174766e-02 -6.7936444316734406e-03
      -1.8007247144020286e-02 -1.1654847779364038e-02
      -2.2979148883684592e-02 1.2452997437857790e-02
      -1.6932986258064092e-01 4.4842814979928161e-02
      -1.7264267969275562e-02 2.6724287495477406e-01
      -1.3983733828233881e-02 -7.8724644349903068e-03
      -3.1383214684954537e-02 -4.1918015902562668e-03
      2.9333773135778995e-01 1.9628467306442202e-02
      2.3855110037821065e-02 -5.3280959848817311e-02
      -1.8269010192827054e-04 2.0141604270002479e-02
      -1.1284809637682097e-01 3.3529365032897850e-02
      -1.8881871697692323e-01 1.7081735278480473e-01
      -5.3481023595091631e-02 5.6619509014863970e-02
      -7.3667298462974914e-02 2.3253167507399775e-01
      -8.4963186576065570e-03 1.8494991806364713e-02
      -3.9410799900641046e-03 7.8369023022742679e-02
      -2.9326244147679141e-02 7.3630811771030119e-02
      -1.4074451044847566e-01 -8.3314029188215358e-02
      4.0326070328637290e-02 1.1175507608822308e-01
      -5.3110740591033274e-02 2.8359942323259058e-02
      -1.8859437540434551e-01 1.0263220236794782e-01
      -9.8189147832081838e-02 -1.2427301002272347e-01
      -6.5087500841668949e-02 -7.8867666673986883e-02
      2.2011482000552146e-01 -5.0115194210000535e-01
      8.3077107650985096e-02 1.4594887882671936e-01
      1.1313819990821959e-01 -7.9313593229523111e-02
      -1.0938005332163139e-01 -7.6419677974800856e-02
      -1.2205613457237513e-01 -9.5086244095194380e-02
      6.7539763021421131e-02 2.7458265246813240e-01
      -2.8137161894154435e-02 -9.8232995594619510e-02
      -4.9335659861797443e-02 1.1702494757282612e-02
      2.7330830479815105e-01 -3.9839892971052038e-01
      6.9354719497146999e-02 -1.2704413044767560e-01
      9.8827826871960955e-02 1.2172504397484642e-01
      -9.2352716311392941e-02 7.9878347500374855e-02
      -4.0870189547722799e-02 5.8642416596860071e-02
      4.1071748454689506e-02 -8.0429943312592275e-02
      -1.1451545498812865e-01 -1.3027676656146792e-01
      7.1234967617084227e-02 8.0821525722923018e-02
      -1.2775929193313068e-01 1.1599080363277305e-02
      -1.5378098920135963e-01 2.5193435845651570e-02
      -1.0245206322709344e-01 8.7571067150166701e-02
      -1.5644958476468102e-01 -8.3504265401912539e-02
      -1.8366019293975213e-02 -9.2423590351242757e-02
      5.7708120601230019e-02 5.7857473485074688e-02
      9.2520888483307834e-02 -3.6619681555448771e-02
      -7.8597629950419523e-02 -5.4007712498899442e-02
      6.3804567286833244e-02 -5.1853170800950879e-02
      7.5081761924320659e-02 8.7030456724597582e-02
      -4.0745093024270151e-02 -8.1301633389348996e-02
      -1.4962927404806895e-02 7.5107243462374712e-02
      6.4884877931018228e-02 -2.1263621433596172e-01
      5.8070059029590330e-02 3.6738382146316299e-02
      -2.0517654822192071e-02 2.1364007620377892e-02
      -9.6913529526928791e-02 1.2118016424345301e-01
      -8.7963421839265282e-02 1.5835336997169502e-01
      1.4671034084265599e-02 7.6919785906361449e-02
      7.5738235440573190e-02 9.5232141491385841e-02
      -1.8953100136376375e-01 -1.3226737612005178e-02
      7.1094572384615279e-02 -9.0497309993210803e-02
      1.9469565332489205e-01 -1.2700145633898591e-01
      1.1824921503135644e-01 -1.1176612444005278e-01
      3.5167938401949699e-02 6.9411843403775167e-02
      -1.1866332570951744e-01 -5.5737721899802056e-02
      -1.5819476554107056e-01 -1.9583709635536367e-01
      -1.3554724348009803e-01 6.6462586859516670e-02
      1.4714767319086902e-01 1.1928799004937987e-01
      -1.0587926787958078e-01 1.2106532904318290e-02
      -7.5801882650252478e-02 -2.9629244557365979e-02
      5.0863136353058232e-02 3.8341509941918393e-02
      2.1784471946781842e-01 -4.8362963379665856e-02
      1.1312944470913085e-01 -1.4061598845520662e-01
      -2.3315789292422034e-02 4.8056467919994371e-02
      1.6548872100291712e-01 -2.0802654932849329e-01
      1.1164520914612455e-01 -1.2105317626160227e-01
      6.2537778425261911e-02 -3.7791631919201742e-02
      -8.2257227484513543e-02 -1.8672691818176548e-01
      1.0009239404554314e-01 1.2647598904427854e-01
      -1.8776723088355626e-01 -1.5339625683999842e-02
      1.6530184646145055e-01 -4.6347771712854299e-02
      2.7073316515039325e-01 -1.5477458190535023e-01
      1.5141977184423461e-01 -1.4937283630233827e-01
      4.5269001589556601e-02 7.8501186582619883e-02
      -2.1178763217740570e-01 -1.0629734768711968e-01
      -2.2668407591594200e-01 -1.7182014791191632e-02
      -2.0081470667176118e-01 1.0007995940675152e-01
      1.9613270653624537e-01 1.1772169809828155e-01
      -1.9177573434929449e-01 3.4929634233258504e-02
      -8.3476153160432748e-02 -8.2701971098664909e-02
      4.2991670264773879e-02 5.8630301981112446e-04
      1.8771903698020986e-01 -1.6983617941046827e-02
      -3.0167700943961918e-02 -1.3896778120604872e-01
      -2.1755055433773325e-02 8.8981374923579951e-02
      1.0977429174201514e-01 -3.5894338252214504e-02
      1.5086669957830054e-01 -2.6418209282594263e-01
      2.7074628562129329e-02 -3.8184496711760572e-02
      -5.3458479600568862e-02 -1.1921040504112740e-01
      5.8646664534275209e-02 4.0510731600360006e-02
      7.3478603081544566e-02 4.9711015102464923e-02
      1.2710946820872466e-02 1.2850767586682621e-01
      1.6715011829288276e-01 -2.9300546553682652e-02
      5.4422167885402717e-02 1.8293948271635930e-02
      -9.0432318406670712e-03 -8.0858582914867805e-03
      5.6933004732983633e-03 -1.6000074957585701e-02
      -7.6296260666771282e-02 8.9588864348820324e-02
