<?xml version="1.0"?>
<opencv_storage>
<opencv_ml_ann_mlp>
  <format>3</format>
  <layer_sizes>
    512 40 5</layer_sizes>
  <activation_function>SIGMOID_SYM</activation_function>
  <f_param1>1.</f_param1>
  <f_param2>1.</f_param2>
  <min_val>-9.4999999999999996e-01</min_val>
  <max_val>9.4999999999999996e-01</max_val>
  <min_val1>-9.7999999999999998e-01</min_val1>
  <max_val1>9.7999999999999998e-01</max_val1>
  <training_params>
    <train_method>BACKPROP</train_method>
    <dw_scale>1.0000000000000001e-01</dw_scale>
    <moment_scale>1.0000000000000001e-01</moment_scale>
    <term_criteria>
      <iterations>30000</iterations></term_criteria></training_params>
  <input_scale>
    4.7432703577064776e+00 -2.4690256263281287e+00
    2.1480214353975941e+02 -1.2351394343585946e+00
    8.5248351261767795e+01 -1.0181853519024802e+00
    3.2334934640053513e+02 -7.2388430833845230e-01
    7.3364603568787663e+02 -2.1120642213751148e+00
    2.7447284991960091e+03 -9.4527529383831876e-01
    2.8347536697145165e+02 -1.7530419751332194e+00
    2.1791576388405724e+02 -6.3525742912342309e-01
    6.4246359728906924e+01 -7.9154966529080062e-01
    4.5872678709882115e+02 -6.5932285159394877e-01
    1.1586749897669742e+02 -9.5324031677661580e-01
    1.3987553458683440e+03 -1.1148271453939833e+00
    4.9880189623025177e+02 -1.4617507467681154e+00
    1.6638707200772301e+03 -7.8787215460016091e-01
    6.0883779810900620e+01 -1.1867493707923393e+00
    5.6396402996827440e+01 -9.5959155211866942e-01
    2.0121674695083797e+02 -9.3196349110117394e-01
    1.2107476001690554e+03 -9.6878818807066547e-01
    1.4269401219615656e+03 -6.4815680596335312e-01
    5.9388302576371771e+03 -9.9834755467991043e-01
    3.7066867189931440e+03 -1.0311284103559677e+00
    1.0129625154239568e+04 -7.3315191703880001e-01
    1.2107621411519397e+03 -7.6523410853526164e-01
    3.3769025553222427e+03 -1.1799834870545880e+00
    3.4204186252146604e+02 -8.7842077321686252e-01
    3.1950117509292450e+03 -1.1525924729866885e+00
    7.9346729005079624e+02 -8.6738437240594835e-01
    3.3058066964411119e+03 -1.0221547164265905e+00
    4.2036528453382948e+02 -6.8679305370189458e-01
    3.4773924980085908e+03 -1.0967139880908423e+00
    6.3612059633359905e+01 -1.0140242242214244e+00
    1.9160508179649449e+02 -1.7392840118249393e+00
    2.1046692006062031e+01 -3.1279786494242603e+00
    1.9492665917226151e+02 -2.5091789076159055e+00
    1.1044096912908984e+02 -1.6421716792405614e+00
    2.4696465754397167e+02 -1.2428124853106504e+00
    4.2675036263911488e+02 -2.1284936965685448e+00
    1.3595976382917809e+03 -1.2365958775077608e+00
    2.3442240935782766e+02 -1.6544573356498000e+00
    1.9823784631183381e+02 -9.2292877710385501e-01
    1.1113213344246701e+02 -1.6277992770698122e+00
    7.9111311546786067e+02 -1.1910581614898446e+00
    2.3328867221766600e+02 -1.4125907569055736e+00
    1.3629238798803592e+03 -1.5773274263402992e+00
    3.9365844949366374e+02 -2.8099004572771897e+00
    1.3925304228917335e+03 -1.3888120719553660e+00
    7.4955309442244342e+01 -1.2203575333774488e+00
    1.2800169895920700e+02 -8.0895583213759559e-01
    2.1352733020239546e+02 -1.9899738396138817e+00
    8.1691551469492299e+02 -1.2178664389492897e+00
    3.8367270323005010e+02 -1.1631456047976401e+00
    2.2247069093886212e+03 -1.5991616681244289e+00
    1.4881087440702422e+03 -1.1067184702125277e+00
    4.9200347025718984e+03 -9.6137642428012815e-01
    7.7853313659601008e+02 -1.5422042180707238e+00
    2.1931950957067429e+03 -1.2331207636089840e+00
    3.2241796349472639e+02 -1.7367708206570309e+00
    1.9117717125114873e+03 -1.3478165287668222e+00
    7.0655881241290115e+02 -1.7331226225084368e+00
    2.2814265032225312e+03 -1.4728398230918207e+00
    3.7562365739325622e+02 -1.6697708703651368e+00
    2.2816566906173198e+03 -1.2219683037423033e+00
    2.2838765826212779e+01 -1.0495688254233901e+00
    2.5240229699876281e+02 -1.3798967171740755e+00
    1.9627304283745431e+01 -2.8948345098127022e+00
    2.1710629566140059e+02 -2.2011068149786435e+00
    8.9322503142023365e+01 -1.4433648801833154e+00
    2.4121542876882890e+02 -1.4874707139952337e+00
    3.6658426872910866e+02 -1.8403837265379912e+00
    1.3200335594943122e+03 -1.2149263756943538e+00
    1.8587745181182021e+02 -1.3044938744634027e+00
    1.7782414115190136e+02 -8.4843031588321083e-01
    1.2823509527887106e+02 -2.1838788385676544e+00
    8.5290459904431384e+02 -1.4329736831553992e+00
    2.3676291053216735e+02 -1.0522208240430473e+00
    1.2228870484388560e+03 -1.2651774130643094e+00
    4.8351471376651983e+02 -1.9323580682060664e+00
    1.6721756457234958e+03 -1.2539181819875311e+00
    8.0436026957889979e+01 -6.3356607317273217e-01
    1.3762364931962830e+02 -6.8259535556017581e-01
    2.6319127438628834e+02 -1.7104958875893526e+00
    9.8054190501238782e+02 -9.1288936370545648e-01
    7.7954595411691685e+02 -9.7958731595246984e-01
    2.3221738325018018e+03 -1.1920731152224637e+00
    1.3880410444999411e+03 -1.1891791051795804e+00
    4.1664420491277888e+03 -8.7318875328989309e-01
    9.5572935368716594e+02 -1.1739228914729509e+00
    1.9925468727744499e+03 -1.0251034855555794e+00
    2.9162103723825783e+02 -2.2815177158985565e+00
    1.7896718196142199e+03 -1.2974030798945846e+00
    9.0577800724173471e+02 -1.6354503509354654e+00
    2.3762928464510323e+03 -1.1722290728299489e+00
    3.2746308749289392e+02 -2.0979052808492216e+00
    2.1430683701327785e+03 -1.2408124428744822e+00
    7.7791434634313390e+01 -7.9561439756623864e-01
    6.6629851783826030e+02 -1.6002687957183841e+00
    4.3330401682622410e+00 -2.1769217609737561e+00
    3.1801577515022927e+02 -1.7193871257938274e+00
    8.4635761564579298e+01 -1.0115615261847279e+00
    2.7271236273236485e+02 -1.4895119900474092e+00
    1.9524921408860797e+02 -9.0740835148838761e-01
    3.0356626476613337e+03 -9.4052257703901765e-01
    2.0965040185727466e+02 -8.7220217869261374e-01
    2.4219959269343644e+02 -5.9444687635439675e-01
    1.0675046901471316e+02 -1.0659970296109529e+00
    2.4619590388106376e+03 -1.0643395490487544e+00
    2.1146646447273631e+02 -6.0292714273791459e-01
    1.7447928684625044e+03 -1.0323580039334102e+00
    3.7204463647116296e+02 -7.9313442440274862e-01
    2.9307210735428844e+03 -4.7963625952863986e-01
    1.0397048986708197e+02 -4.9098737969081407e-01
    1.6951387657174772e+02 -3.6817947287586067e-01
    6.3524341885154672e+02 -1.9138353800084935e+00
    3.0566667560385995e+03 -7.5565662170424630e-01
    1.0190144237696595e+03 -5.4990048313691620e-01
    6.1642223719381218e+03 -8.9685673545924371e-01
    4.5034172985967216e+03 -1.2915213295043695e+00
    1.4406704325975405e+04 -6.1080978508444150e-01
    1.4413135410472346e+03 -4.7291895405402312e-01
    5.6934178744776100e+03 -6.7323797353924997e-01
    2.9451516902206055e+02 -1.4049397594451329e+00
    4.5763976007090341e+03 -9.4127150437391238e-01
    8.4856965631326386e+02 -8.7502250816566673e-01
    4.2420443598866386e+03 -1.0771153913487534e+00
    3.7219545063143983e+02 -8.1821471827639891e-01
    5.1141746776704604e+03 -6.2106059266833169e-01
    8.8689852282156764e+01 -3.6235288079557104e-01
    6.8360775463599191e+02 -6.0794145312484382e-01
    2.3299529328377890e+01 -3.6041884962813868e+00
    2.9443491511138427e+02 -2.5920122488637367e+00
    7.9932987097082602e+01 -1.5698852169817050e+00
    2.2876488242757011e+02 -1.1839542801576470e+00
    3.6819699534626676e+02 -1.7713994835455378e+00
    1.3600608227089172e+03 -1.4569337583212820e+00
    2.1989872859598935e+02 -2.6360916648629100e+00
    1.8378603190717064e+02 -1.6769676521278476e+00
    9.8105014285676035e+01 -1.7782147419369694e+00
    2.4245144899721549e+02 -9.6498194730930387e-01
    2.5441350170024293e+02 -1.6593544814096752e+00
    1.0643191278071508e+03 -1.8105785045244920e+00
    4.6824458421239228e+02 -1.9158831827064930e+00
    4.3611433798956034e+02 -1.0084526863928018e+00
    9.9860492906674011e+01 -1.3979872707207919e+00
    2.6765340119811139e+01 -1.0422427145966098e+00
    2.6926059534894824e+02 -2.3289418754327884e+00
    1.1279303416310147e+03 -1.3378230424236466e+00
    1.3047127504959919e+03 -1.4573045308232258e+00
    2.7269722658213664e+03 -1.1674898960871933e+00
    1.7577886714113356e+03 -1.1606816888033027e+00
    4.9379448935763503e+03 -1.0705721904205949e+00
    1.0767721914513336e+03 -1.1334206433326104e+00
    1.8849331715725891e+03 -1.3034849609628294e+00
    2.1655866457055470e+02 -1.4515364086179658e+00
    1.5146852040269605e+03 -1.4991853895700828e+00
    9.3409191682312155e+02 -1.3625036086452673e+00
    2.3696674161507035e+03 -1.3412328195054528e+00
    3.8357735654392934e+02 -1.1028464359281867e+00
    2.1841183470335841e+03 -1.4574667666261407e+00
    1.0010043204741073e+02 -6.9835074426867949e-01
    3.7888176983542365e+02 -1.7163670598375889e+00
    3.1841113609862987e+01 -4.4589681477395340e+00
    2.2881667638017296e+02 -2.7058371183128300e+00
    7.1186961610281017e+01 -1.5426476874395343e+00
    1.8898223860198044e+02 -1.4773633143665974e+00
    1.9806777638703468e+02 -1.4781417381280957e+00
    7.4484827510880143e+02 -1.2224644160746534e+00
    1.9778185359565131e+02 -2.0304331049143762e+00
    1.5774162460445845e+02 -1.2420852681589842e+00
    8.6115800594418658e+01 -1.5650378189328451e+00
    6.6049104006781727e+02 -1.6220468402712516e+00
    1.8147511099886052e+02 -1.0067272999071475e+00
    1.1657064228240642e+03 -1.9187343736731737e+00
    4.7789077798455980e+02 -2.2758722353740746e+00
    1.0389984813194581e+03 -1.2472240423234842e+00
    8.0461930356510322e+01 -9.5826432053825528e-01
    9.9080335861483505e+01 -9.9580049658891301e-01
    2.0158815396466693e+02 -1.9432238164806666e+00
    4.9073185663266037e+02 -8.9859430690698217e-01
    7.2734774793549673e+02 -1.4880709303279989e+00
    1.6254834268222492e+03 -1.3050013043021598e+00
    1.0674924155822462e+03 -1.1471813162611102e+00
    2.1983004290771705e+03 -9.1572148192726477e-01
    8.7146144468649970e+02 -1.3186975608797575e+00
    1.3628118368025448e+03 -1.4566900560614431e+00
    2.4021063083966362e+02 -1.7001438985807218e+00
    1.2488593211736479e+03 -1.5824197214816795e+00
    8.7414736537205522e+02 -1.7387075206405485e+00
    1.5922159338854856e+03 -1.5123610712224826e+00
    3.8159505076369317e+02 -1.3224519059987268e+00
    1.4378509490322758e+03 -1.2695884966567417e+00
    8.7245197910408962e+01 -8.2678825021577995e-01
    2.0716301691671308e+02 -1.0086665817850604e+00
    3.0568821670160787e+01 -4.5246311035197921e+00
    1.8618222298170559e+02 -2.1685194545232735e+00
    6.8397237289091677e+01 -1.3553021437687727e+00
    2.3078351797241777e+02 -1.4899995373252466e+00
    2.7410211506967516e+02 -1.8585995073227286e+00
    9.6510135979138545e+02 -1.3241567164847652e+00
    1.8211229395784164e+02 -1.8085669017068273e+00
    1.8388366437176037e+02 -1.0322897764853511e+00
    8.2186940123993139e+01 -1.7083584741053810e+00
    4.3761019708597661e+02 -1.3678549675412983e+00
    1.4791048728804481e+02 -7.6996298080686099e-01
    9.4516661995630091e+02 -1.3647864955609299e+00
    3.6551062406154603e+02 -2.1078486575117505e+00
    1.0453038791750009e+03 -1.3335965928419820e+00
    6.5609885264740143e+01 -8.8186016405631173e-01
    1.0903052404846598e+02 -8.0333197760840647e-01
    2.0102898875272248e+02 -2.0692545395908910e+00
    5.8168542494366977e+02 -1.0536949547056864e+00
    5.2769908001112094e+02 -1.2443067366396294e+00
    1.6306539605390540e+03 -1.3573712562740938e+00
    1.2084093095001726e+03 -1.3767222710787770e+00
    3.1724616281353419e+03 -9.6709166319452122e-01
    6.8001499506326093e+02 -1.2607124552242623e+00
    1.5313381964194334e+03 -1.3930351124616416e+00
    2.5391046595548195e+02 -1.9791467926504211e+00
    1.1734067309449624e+03 -1.4592114455788252e+00
    8.3427237120451628e+02 -1.9909881558172107e+00
    1.9026732318098393e+03 -1.5639728462478442e+00
    3.5005480862041031e+02 -1.5178600894304786e+00
    1.7110066219869793e+03 -1.3638614654262253e+00
    7.9468941601990608e+01 -8.7046690750962319e-01
    2.9879448919411107e+02 -1.4266766378727711e+00
    2.4350689186047887e+01 -3.5938975016822283e+00
    1.9795232600202894e+02 -2.1537639653647891e+00
    7.5054873000408648e+01 -1.7012646153629556e+00
    2.0717268308049532e+02 -2.2945308371575770e+00
    2.6142006628528628e+02 -2.0562654794321524e+00
    8.4974820535310039e+02 -1.5903957521772427e+00
    2.4426176681698502e+02 -2.5676885195417150e+00
    9.3959342498290084e+01 -1.7738709162020969e+00
    1.0165143188493438e+02 -1.7060746566200387e+00
    7.7006979284378087e+02 -1.2396182507704092e+00
    1.9034456445201707e+02 -9.7296783311363910e-01
    9.6126016518921006e+02 -1.6120161064249205e+00
    3.9264798980113937e+02 -1.9671184449986459e+00
    1.1634206880205572e+03 -1.1624854844794972e+00
    6.7868184538190221e+01 -7.9899930836399624e-01
    8.1503309577834287e+01 -8.3814392196858967e-01
    3.1407904599263287e+02 -2.1069077744595743e+00
    1.1903020228294029e+03 -1.1311990188219703e+00
    9.1767132598143326e+02 -1.3671679290852958e+00
    2.5040654654771934e+03 -1.3416768610200085e+00
    1.5493327168166368e+03 -1.2426033782329697e+00
    3.3125939727613572e+03 -9.1337693319866531e-01
    1.1978002805133990e+03 -1.2621657907170218e+00
    1.6421044174287388e+03 -1.2939958868011971e+00
    2.9104379685898681e+02 -1.8615915038993534e+00
    1.6294210692461857e+03 -1.2709621925271892e+00
    8.3376742244446177e+02 -1.5992994914075294e+00
    1.9835192922301794e+03 -1.3701208130774420e+00
    3.9981000357826196e+02 -1.2413290715198322e+00
    2.0226143001677301e+03 -1.0767999134032034e+00
    1.0225362982537162e+02 -8.3024892586515753e-01
    4.6674993031974361e+02 -1.5957105642623879e+00
    2.0933380970674026e+01 -3.2798246021241195e+00
    2.8919043196396609e+02 -2.2502415158968292e+00
    6.8887893750410427e+01 -1.4402204769650513e+00
    3.2989863234637858e+02 -2.4403996376606707e+00
    3.2081372786759397e+02 -1.7272070484362496e+00
    1.1997277783393336e+03 -1.3427790429670647e+00
    2.6286972459365631e+02 -1.7844705876922826e+00
    1.5521335898406835e+02 -1.4925263175241059e+00
    7.6312296572903577e+01 -1.4868747166494156e+00
    7.9812084863025484e+02 -1.2114607426795241e+00
    2.0494930781107615e+02 -1.0696016403333617e+00
    1.2597766111661604e+03 -1.5607428938353149e+00
    2.1368594988800763e+02 -1.1397663401101072e+00
    1.4975704302981039e+03 -1.2149783280300421e+00
    6.3931470509666127e+01 -6.9647786720747229e-01
    1.0674035218650263e+02 -7.1454064928917804e-01
    2.3627126434326507e+02 -1.8741077925463334e+00
    1.2293717572507103e+03 -1.0780064224206902e+00
    1.0640748578239827e+03 -1.4145568829797213e+00
    2.3089435775582961e+03 -1.1558088423888002e+00
    1.5217172565738119e+03 -1.2323989260370463e+00
    4.9799810441439040e+03 -9.9821796849405775e-01
    1.3127989092922958e+03 -1.1094787831514759e+00
    2.0995957330467613e+03 -1.2403579698287390e+00
    1.9689558405969498e+02 -1.7734312979833098e+00
    2.0743624730102883e+03 -1.2385076200973630e+00
    6.3452146175904124e+02 -1.1970264782328126e+00
    1.9122354889597675e+03 -1.0149797292984593e+00
    3.0202052355529111e+02 -1.2834913629352820e+00
    2.6887418434138599e+03 -1.1578962288115697e+00
    8.2084020087018047e+01 -8.5601706239266429e-01
    6.5060074406437013e+02 -1.3532482441484406e+00
    2.8048627844275991e+01 -3.9186760844939887e+00
    2.1048724333200835e+02 -2.4133927674230664e+00
    7.7301036578171193e+01 -1.6089206967196732e+00
    2.6428874931256740e+02 -1.6583630207002393e+00
    2.2623813484348440e+02 -1.7636927000849483e+00
    8.3802201974637399e+02 -1.3258033712321335e+00
    1.6758827744438594e+02 -1.7126138197703737e+00
    1.4381780192886455e+02 -1.0213996130628380e+00
    7.0902000307621705e+01 -1.4580825774375974e+00
    5.7703186028273672e+02 -1.3943679270778411e+00
    2.0590759611171785e+02 -1.1174015630468175e+00
    9.7281164155950091e+02 -1.7278285866667151e+00
    2.7205217045984722e+02 -1.7914684062304422e+00
    1.1741946437844686e+03 -1.5678687554277175e+00
    5.8887594108444723e+01 -9.5984505286965482e-01
    9.3764210308937578e+01 -8.1556889311283565e-01
    1.9901198715843933e+02 -1.8690411731770313e+00
    5.7086536230383672e+02 -9.6214740079415018e-01
    6.7771676298579246e+02 -1.4956630439093388e+00
    1.2930802006335596e+03 -1.2551969227073969e+00
    1.1177286643203931e+03 -1.2501216276840941e+00
    2.1645581434917231e+03 -9.2891517329612616e-01
    8.8560533275388502e+02 -1.6970403695615823e+00
    1.4710131744050950e+03 -1.5908980839886242e+00
    1.6621566636435969e+02 -1.5796699532847485e+00
    1.1663560967611224e+03 -1.2953833113797406e+00
    7.5814125528980810e+02 -1.8509240402920815e+00
    1.6999866655198691e+03 -1.4661450705974266e+00
    3.9038546986907295e+02 -1.7726693433928107e+00
    1.6380949948179532e+03 -1.3191403927837604e+00
    5.8117513152286662e+01 -8.6710278497160032e-01
    3.0742706877391538e+02 -1.5750156832525037e+00
    2.2877866597762992e+01 -3.5159790901031784e+00
    1.9283101899722837e+02 -2.0003436853237342e+00
    8.9389689178908853e+01 -1.6062424890647213e+00
    1.9611460736138824e+02 -1.1417221967010822e+00
    1.7688995049853048e+02 -1.3360796043093588e+00
    8.9995065108231131e+02 -1.3940476713401500e+00
    1.7202023373210113e+02 -1.4445184673883598e+00
    1.3926062256744362e+02 -9.5448336695204983e-01
    5.5385363901293836e+01 -1.2566379064000697e+00
    7.3888022233726895e+02 -1.5375209564170520e+00
    1.9038189849604686e+02 -1.0619695852775257e+00
    1.0443067310925433e+03 -1.6096143585326974e+00
    4.0022920841533761e+02 -2.3930046828390150e+00
    1.3159869402988120e+03 -1.2734495102509342e+00
    6.0658505490952720e+01 -8.8157737687735604e-01
    6.1467291430778481e+01 -6.5655809948579646e-01
    2.4064925044644363e+02 -2.0283671338755433e+00
    7.3210822632477652e+02 -1.0864938531965735e+00
    7.8445015122883535e+02 -1.4751944181318155e+00
    1.6669574412088725e+03 -1.3212239740836151e+00
    1.1607673676048391e+03 -1.2072697832836601e+00
    3.0729842436280846e+03 -1.0318945359190932e+00
    9.1842977107362958e+02 -1.2555609762876907e+00
    1.6909695322873004e+03 -1.4074481159156398e+00
    1.5716425285587090e+02 -1.4285702627484553e+00
    1.2591980264586539e+03 -1.3332122005088216e+00
    6.7417849263539347e+02 -1.5456316011513160e+00
    1.9379486555086744e+03 -1.4782819044330138e+00
    3.2760998611303705e+02 -1.5688033706476527e+00
    1.5946817241567824e+03 -1.2273014938004012e+00
    6.0956267560266916e+01 -7.9323064738050308e-01
    1.9089462933036478e+02 -9.3294041582850140e-01
    2.6097234093798054e+01 -3.6866176644802460e+00
    2.2456175181302925e+02 -2.3991896885164663e+00
    8.3986340699165169e+01 -1.8654183697812532e+00
    2.2736265716252976e+02 -1.6017384563261263e+00
    2.1547189828496494e+02 -1.5528613937151978e+00
    7.1202013669340590e+02 -1.3788829308229646e+00
    1.5229992748791349e+02 -2.6507582768820770e+00
    7.9160010754668207e+01 -1.7857374473285070e+00
    6.0758777375208162e+01 -1.3311252725255662e+00
    2.8372583447919106e+02 -1.3673271830374978e+00
    1.5578796897550663e+02 -1.1260260497370072e+00
    7.1279435843080705e+02 -1.8221613611860814e+00
    1.4237666948023471e+02 -1.0911462277968405e+00
    6.5845701888348924e+02 -1.4554046143290649e+00
    5.0854911713980627e+01 -1.5293098564718708e+00
    1.8417256809997991e+01 -1.1964312972642699e+00
    3.2656672641618462e+02 -2.3411581592412465e+00
    1.1392350724313385e+03 -1.3436609167222675e+00
    1.0785649410722626e+03 -1.7116786486714108e+00
    1.9539786080386023e+03 -1.3904837840464346e+00
    1.5454284100639579e+03 -1.2523266703894651e+00
    3.0672824508186673e+03 -9.6507337134040128e-01
    9.5862946842498286e+02 -1.4351472691129252e+00
    1.1808402634578131e+03 -1.2980847786174297e+00
    1.5331292701400943e+02 -1.2033938881064081e+00
    1.3794581290475171e+03 -1.5735092846684600e+00
    6.6809852398212888e+02 -1.4670997813404534e+00
    1.4673943104274961e+03 -1.4332350745917679e+00
    2.0109824825035514e+02 -9.5117583833895458e-01
    1.2241280872459229e+03 -1.3111202109570095e+00
    7.0217014450527714e+01 -9.8426848385351906e-01
    2.4485845329684773e+02 -2.3064687076279022e+00
    4.4154214465305284e+00 -2.2298600001509516e+00
    2.0735677980146539e+02 -1.1847366480681629e+00
    7.8870613926673741e+01 -9.3600956117494627e-01
    3.9098838885152867e+02 -1.4284864258748187e+00
    3.3255564815699222e+02 -1.2462718968120514e+00
    2.6438037504056747e+03 -1.0039996003611720e+00
    2.6452898406458223e+02 -9.1508564715280849e-01
    2.4183806578080740e+02 -6.2060025439573996e-01
    1.0343387955069889e+02 -1.2632601739416518e+00
    2.3194467685875902e+03 -1.2816372622882395e+00
    1.2735603269796218e+02 -5.6200953879605053e-01
    1.3170229627215476e+03 -1.0269847986910126e+00
    2.5691611369883691e+02 -7.6751107757994563e-01
    3.7440598921589581e+03 -6.6912650492352510e-01
    4.9350751043771318e+01 -4.5997325017438567e-01
    1.4162674966622828e+02 -4.7557121886564252e-01
    5.8892313140565830e+02 -1.7846941705155983e+00
    3.2095246132689313e+03 -9.5259184813517417e-01
    1.1065036361474345e+03 -6.0129640123460604e-01
    5.9528611015905853e+03 -7.7550957717546753e-01
    3.6685890985589167e+03 -1.0858419630153076e+00
    1.4339246062834880e+04 -6.7920672149299666e-01
    2.1833236480580288e+02 -3.6115439642531494e-01
    5.5902087932777013e+03 -7.8834464935670867e-01
    2.1767215977892695e+02 -1.2959773511880748e+00
    4.2670504367497306e+03 -1.1283472146952420e+00
    6.5229102010875010e+02 -8.1613463599642544e-01
    4.4724484214411123e+03 -9.8322586986883598e-01
    2.5594992678892177e+02 -7.5437373054253498e-01
    5.7873997554261905e+03 -8.4948714518102919e-01
    2.1647507646777729e+01 -3.8540736239264417e-01
    3.5099152319406568e+02 -5.3961914368567465e-01
    2.0837181884717058e+01 -2.8619794957975788e+00
    2.6059879267594204e+02 -2.2679257147886847e+00
    1.1455276171740719e+02 -1.7467557116919390e+00
    3.8127014379347838e+02 -1.7429384547915538e+00
    2.9501388596462181e+02 -2.1183925827050167e+00
    1.4443573791875988e+03 -1.4856434382442456e+00
    1.7441183742913344e+02 -1.5099904147371963e+00
    1.4037344139688867e+02 -9.7885450939856422e-01
    6.9981224073511981e+01 -1.6720243852878773e+00
    8.2490313200889000e+02 -1.7289834055035096e+00
    2.0950212233373722e+02 -1.0632045576957145e+00
    1.2025779692703641e+03 -1.3902587884452480e+00
    2.7890494169239849e+02 -1.9166111840349691e+00
    1.7520739777518572e+03 -1.6356889210817194e+00
    7.2388336911279694e+01 -9.2295657799116093e-01
    1.2387270949404666e+02 -1.0505992335210979e+00
    1.9756199776613823e+02 -1.7898238676456382e+00
    1.0095927532048854e+03 -1.1318446616155442e+00
    7.6321231124387634e+02 -1.2076050993035488e+00
    2.5462714952372244e+03 -1.0933456427829822e+00
    9.9467902848825986e+02 -1.4934546992881741e+00
    3.7924334599220633e+03 -9.5366665136104067e-01
    8.0372922889910512e+02 -1.3682924044482976e+00
    2.0795420024924138e+03 -1.2664629222002770e+00
    1.8535784300271439e+02 -2.7125279495338841e+00
    1.4367007102641758e+03 -1.3342046713217905e+00
    4.3408910523931411e+02 -1.3501476361196900e+00
    1.9688914586063456e+03 -1.4052660778284249e+00
    1.8032168707294980e+02 -2.6338103415222314e+00
    1.9503062456901398e+03 -1.1830415491941630e+00
    5.6535300944558713e+01 -1.1554925896139023e+00
    5.4206350153977257e+02 -1.8454442280890624e+00
    2.4317877311138588e+01 -3.2254736399100592e+00
    2.8182082726417525e+02 -2.5183141510101161e+00
    8.0335479044378488e+01 -1.1287260919486819e+00
    2.4802314890961873e+02 -1.1365517345404605e+00
    2.6264635862186617e+02 -1.7107816569065601e+00
    1.2557211450995719e+03 -1.2721230863051403e+00
    1.5175576715454434e+02 -1.3974848701654219e+00
    1.5134885385444238e+02 -9.7803647411200489e-01
    8.9032606445542811e+01 -2.0525228801226598e+00
    7.6181182547809715e+02 -1.1811319635906337e+00
    1.7478801309945382e+02 -1.0521588052613662e+00
    9.2975941596330517e+02 -1.1477000807976361e+00
    2.2256103953995768e+02 -2.3204673161915936e+00
    1.3527801102030985e+03 -1.2925494180696540e+00
    5.5382740927800221e+01 -1.5323734960446684e+00
    8.9283565024224458e+01 -9.4950994453433690e-01
    2.7231128374519540e+02 -2.8086708540237257e+00
    1.1138607047254413e+03 -1.3610811900813269e+00
    5.0981991566462949e+02 -1.3827603132645916e+00
    2.0361560824119874e+03 -1.3456357020892522e+00
    9.9881303395652799e+02 -1.3184434273427319e+00
    2.4350866065909472e+03 -9.0295606824759389e-01
    7.6402646801351625e+02 -2.1017424288962867e+00
    1.4023565038153802e+03 -1.2679713143421376e+00
    1.8435741905721736e+02 -2.2781397958053278e+00
    1.7197067790976687e+03 -1.4823106487482727e+00
    3.3493063107722838e+02 -1.3800558290361611e+00
    1.5866258985481807e+03 -1.3369003890741535e+00
    1.5711109025781099e+02 -2.0246131768471574e+00
    1.5986965380171705e+03 -1.3752217846768677e+00
    2.0954714782446811e+01 -1.5330825271050716e+00
    1.5274883642872595e+02 -1.6613636570763042e+00
    4.5828652360499529e+00 -2.2417909446099880e+00
    1.9033325634142432e+02 -1.3122384009472126e+00
    5.3418651335459238e+01 -7.6294411707122045e-01
    1.3459648674654687e+02 -6.5119145566484782e-01
    7.3248130712693774e+02 -2.0284317892178008e+00
    1.8521694693471238e+03 -8.7513678066664458e-01
    1.5896200344463506e+02 -1.3798388356172013e+00
    8.3977233268710961e+01 -6.2189712791251384e-01
    9.2907967188463289e+01 -1.0547237243193135e+00
    4.4168970467210778e+02 -9.1750183007495956e-01
    1.9471159059162270e+02 -1.0519825064959476e+00
    1.2393034815358949e+03 -1.2786110236556505e+00
    4.4104020312154643e+02 -1.5444459772010144e+00
    9.0964727071085815e+02 -8.2321457151418309e-01
    5.3931192031359060e+01 -1.7442620300676419e+00
    5.2462387297176043e+01 -1.2264586628518777e+00
    1.3370789872476877e+02 -8.8541744359797048e-01
    4.7071905128553874e+02 -7.1286697768503438e-01
    1.4561232301212501e+03 -1.0041176398131715e+00
    4.8763747565925632e+03 -1.2509731156914565e+00
    3.9295359172677872e+03 -1.0694120762909534e+00
    6.9323823286694242e+03 -8.0802854323193229e-01
    1.9197482392108723e+03 -1.2706764685087455e+00
    2.6971794096316335e+03 -1.1167186244447498e+00
    2.5470005191843561e+02 -1.0131376502517075e+00
    1.4499412524504967e+03 -9.4017796529732767e-01
    8.8149163715646739e+02 -1.3167426001217162e+00
    2.4108467250720237e+03 -1.2541079098249248e+00
    4.3307904814237378e+02 -8.0629925230984767e-01
    1.7833702157545845e+03 -9.2045070881695412e-01
    5.5392052148573796e+01 -1.0750559727055884e+00
    2.1887496672005202e+02 -1.7726645492827449e+00</input_scale>
  <output_scale>
    5.2631578947368418e-01 4.9999999999999994e-01 5.2631578947368418e-01
    4.9999999999999994e-01 5.2631578947368418e-01 4.9999999999999994e-01
    5.2631578947368418e-01 4.9999999999999994e-01 5.2631578947368418e-01
    4.9999999999999994e-01</output_scale>
  <inv_output_scale>
    1.8999999999999999e+00 -9.4999999999999996e-01
    1.8999999999999999e+00 -9.4999999999999996e-01
    1.8999999999999999e+00 -9.4999999999999996e-01
    1.8999999999999999e+00 -9.4999999999999996e-01
    1.8999999999999999e+00 -9.4999999999999996e-01</inv_output_scale>
  <weights>
    <_>
      -1.2160835906442092e-02 -7.4643063599145784e-02
      1.0992455039836760e-01 5.6087820835879439e-02
      -8.9877266388411828e-02 8.4361554696131422e-02
      7.1861935322572304e-02 6.5038734048827956e-02
      3.2986546271026290e-02 1.7645997269898638e-02
      -8.8777683386054837e-02 -3.5330658850100144e-02
      -4.4191020638843385e-02 -5.3121152609243993e-03
      6.8237098152196710e-02 -4.0259121055091558e-02
      5.1112346388073873e-03 -5.0745502918987224e-02
      -7.8309946483635401e-02 -6.0992777515739754e-02
      6.9583822533563988e-02 -4.7248198466782465e-02
      5.1554328687753309e-02 -3.3818848105058572e-02
      -1.2394955452613980e-02 -7.1613830111592267e-02
      -1.2214381947884528e-02 -2.0104633586778140e-02
      -1.2209286019764279e-02 -4.1051306668668415e-02
      9.5789819685121499e-02 -6.9792838101092963e-02
      -4.6165788625179921e-02 6.7268378076428798e-02
      -6.6110116492830995e-02 6.5808527443990475e-02
      3.6079391702993902e-02 -4.9321709059721330e-02
      1.0012811645590194e-01 6.0168863028876668e-02
      -4.7843745874381081e-02 7.4899232784169045e-02
      -7.4825133881005326e-02 5.9638471207102320e-02
      -5.9507713558459178e-02 -6.2530196485528294e-02
      -6.7921162680448510e-02 -5.9700421032530274e-02
      1.0413551259925123e-02 3.3186397887971508e-02
      8.1679088066209007e-02 -3.9727283631091122e-03
      -1.3760718746488326e-01 1.0151981575487412e-01
      -5.1267838291029509e-02 1.0763567167866743e-01
      -2.4961191893236093e-02 4.4242601515314402e-02
      2.0907645630426918e-02 4.8789394919738611e-02
      1.4453167571308895e-01 4.1416099577645978e-02
      -3.3667566854489475e-02 -1.9064796150747489e-02
      1.6374542462505895e-01 4.7920533858413945e-02
      -6.6191393864912004e-02 -5.1756410679053851e-02
      -4.2916658978954525e-02 -1.3027164051234230e-01
      -1.0093150694581669e-01 3.3472595022440703e-02
      4.2653801847411014e-02 -9.6833789879424356e-02
      -1.5904859956084511e-02 3.1645122919185413e-02
      -3.5659978498253614e-02 8.3174309893666115e-02
      -1.0816282248519979e-01 -2.4000066160317905e-02
      4.3302956825339141e-02 8.3524534453788948e-02
      -7.2474441484068355e-02 3.7406140667406121e-02
      -2.9659379824254300e-02 -7.0208321906417251e-02
      -6.6031534696853453e-02 -8.9250299576455555e-02
      -1.9803967505572933e-02 6.9290893038892265e-03
      7.0536250538347139e-02 2.5114124416998788e-02
      -6.2513696991300341e-02 8.3241781192394934e-02
      -4.6698790988362333e-02 9.3000694887620930e-02
      -1.1688818248641514e-02 5.1938609884608848e-02
      3.0928471226481142e-02 8.1527627571942235e-02
      1.5569569590135146e-01 4.1115374135506810e-02
      -5.9747885614066951e-02 6.8194755657336147e-03
      8.8941209484679096e-02 9.3745513132286476e-02
      -7.0676393819296274e-02 -4.7083392062794847e-02
      1.6020538780520430e-02 -8.1985179067906463e-02
      -1.4085241428809206e-01 4.9895075154692096e-02
      3.8318293154011543e-02 -8.1014332324383792e-02
      5.7761346286374103e-02 -2.9047187175874071e-02
      -1.9243064124883576e-02 1.2727984196543879e-01
      -1.5271212780698420e-01 -3.4970388620732103e-02
      -6.9156706366507587e-03 6.4393951477558900e-02
      -5.8568800537412410e-02 -5.1557740100957997e-02
      4.4283142211953820e-02 -3.9944203540282136e-02
      -2.1726710722123812e-02 2.1405989143805648e-02
      -4.4461368501461429e-02 -6.3310268183760315e-02
      3.3395099790272963e-02 -1.6780396513115945e-02
      4.0617736604259803e-02 -2.8856599332331111e-02
      3.3859001583245152e-03 -2.8221727176687125e-02
      -1.1744804878868047e-01 6.3338330198661795e-03
      6.2336717381449802e-02 -2.0338988745837967e-02
      -7.1209752410428859e-02 1.4222411108082226e-02
      7.4774743909210113e-03 5.2295393946152305e-02
      -1.5187739538789437e-02 -3.3403466342720907e-02
      4.2366111476164016e-02 -3.1786298231621171e-02
      3.7766872506274175e-02 3.3702590925358211e-02
      4.3387789836754002e-02 8.6225700566631997e-03
      -2.1806003417034415e-02 5.2200309811120497e-02
      -1.7963847557338486e-02 -2.5597269727192774e-02
      6.9322831954143418e-02 -5.4046079372043573e-02
      5.0872781757461856e-02 -1.0037929377729311e-02
      1.3391171188208607e-02 6.0124098146867595e-02
      -1.0367239561644634e-02 -5.5569688543192372e-02
      4.0256136522654050e-02 5.5940570118158579e-04
      -6.4006294427974657e-04 4.9144527922030064e-02
      -5.2553668521073474e-02 -5.9980303727894875e-02
      -8.2884461864014339e-03 -4.6816336367462255e-02
      1.9339555021883444e-02 -6.7252320256246792e-02
      4.5717365985652222e-02 3.5904159210244938e-02
      -4.5531180778441538e-02 -1.7074618605650304e-02
      3.4505791034442831e-02 -6.5877435441933210e-02
      4.9009745560392873e-03 -5.6810196914945533e-03
      5.2916874867302503e-02 -4.5610103575338791e-03
      -1.1503624571135204e-01 -8.7960960812877784e-02
      5.6498665950002426e-03 -2.5760217182324843e-03
      -1.0911745576854134e-02 7.0721292098676102e-03
      7.8506664734710657e-02 4.2595902015049739e-03
      -2.2050584414150157e-02 -1.0355288131018316e-01
      3.2989826635611175e-02 4.5246638087751180e-02
      4.6744545044092277e-02 -4.9281584923079533e-02
      7.8391165243249974e-02 3.0864657442559437e-02
      -3.2855198341568775e-02 -1.9106484936360489e-02
      -6.6380569910992240e-02 -3.5252059246459466e-02
      -6.9276675882002682e-03 -1.9762936565120293e-02
      -4.2599994061239606e-02 3.1484427249642399e-02
      -2.8505384596311367e-02 -3.7915514522808842e-02
      3.2107623126885710e-03 -4.2406093227528988e-02
      1.6012148240418161e-02 -1.0336563737009025e-02
      1.1928009217084449e-02 -8.8049480069498313e-03
      -1.0915931027734650e-02 1.1883169765431249e-02
      1.7597376870378951e-02 -2.9144445841974127e-02
      2.6031707458768791e-02 2.5683910573862510e-02
      3.6725285864901404e-02 3.0075029301451495e-02
      -3.2852756594888483e-02 -4.3454254518106979e-02
      2.3822124013769884e-03 1.9112333065159259e-02
      1.8339991638374988e-02 2.5635018572279809e-02
      5.5826249938971492e-02 1.3218229925469884e-02
      -4.0995130717631091e-02 4.2812649518314198e-02
      -5.3817671042018567e-02 3.9154579314044265e-02
      4.9877449278008572e-02 -5.4441122901061657e-02
      7.0946878596052448e-02 2.6456586063347665e-02
      2.0761381959292748e-02 5.0601683455753034e-02
      -4.3325414776659167e-02 2.1820514836192382e-02
      5.6390089889076178e-02 -4.3195447214526415e-02
      -3.0305790483847666e-02 -7.5518532320051107e-04
      -1.0718106660375967e-02 -5.3982098930228740e-02
      2.6490754857709197e-02 -1.8638519157723760e-02
      -1.0586707784053172e-01 4.4294458095320968e-02
      -4.8484595362504929e-04 2.0557415907903269e-02
      3.7130031809842062e-03 1.3459328178261464e-02
      5.9799332210689483e-02 -1.2414929735254146e-02
      8.6567917330157423e-02 1.4729061661672064e-02
      1.1898346208534276e-02 -2.3680196032140347e-02
      9.5633347534848367e-02 -2.4197707969040458e-02
      -3.7165090256418828e-02 1.3223613450222434e-02
      -3.2620323615192411e-02 -7.6309302639425869e-02
      -9.1457430637131663e-03 1.7365315372384955e-02
      2.6457907407479154e-02 -1.6664570688409866e-01
      -6.0444655753494137e-03 -7.1552934166947066e-03
      -4.0849444549165975e-02 2.1928083010755835e-02
      -1.0571655371241679e-02 -2.5373070306774763e-02
      3.7070996211001450e-03 -2.7317515555799556e-02
      -3.5449855395930749e-02 -7.3443855910021963e-02
      2.1514815784268315e-01 -2.5700472211732169e-02
      6.1120539171554246e-03 9.8063270794961806e-03
      -2.8320774645167694e-02 -4.3495441328172658e-02
      3.8845402871750458e-02 5.8090544588697314e-02
      2.6896990447993568e-01 -5.4953851454022234e-02
      -3.6015600547860157e-03 -4.3744106334387210e-02
      -8.9329290958043206e-02 1.7168445110877697e-02
      7.0804474176164894e-02 1.8627689684793322e-03
      -2.3030227947338772e-01 2.6281593686991477e-02
      -2.6353296290948246e-02 3.0869619024479398e-03
      -1.3148854350752751e-01 1.1253494414295484e-02
      1.0058784166437704e-01 5.9060042153265407e-02
      -2.4319661005680854e-03 6.0892206039365383e-02
      3.7073213247386903e-02 -2.0757937884820891e-02
      3.7808998465839856e-02 3.5373273225975714e-02
      8.4773219911420630e-02 -2.1435574965596943e-01
      3.4077437810240092e-02 -9.2055041888657568e-02
      3.8187535212588851e-02 -1.1480924179050020e-01
      6.2898184039348867e-02 3.2806836201419547e-02
      -5.8624179501612625e-02 1.3579243002191037e-02
      -1.5156701656297827e-02 -9.0287935841046468e-02
      -7.7352746232001529e-02 -1.1147606816898598e-01
      1.4899764341419944e-02 -5.5366586177012806e-03
      9.4442016217829453e-02 4.8763510918544313e-02
      -8.4679497791219083e-02 1.0955632285532532e-01
      -6.8265460290293914e-02 1.1947040378750173e-01
      -1.1739921165708395e-02 6.5025432434470204e-02
      -5.2151198395885305e-03 1.0669219260951177e-01
      9.9551710073697619e-02 5.5676072178017393e-02
      -8.3957975084881870e-02 1.1711227248095103e-02
      1.4942244663995555e-01 1.3999693264534110e-01
      -7.9915964372914969e-02 -7.4338049169134904e-02
      1.5868689460116336e-02 -5.7252017846581904e-02
      -1.9324144399382745e-01 5.4517008459448395e-02
      8.6217421452860099e-02 -4.5491373719928570e-02
      5.9405322407120362e-02 -7.1707431432740443e-02
      -8.1108695748416913e-03 1.3852137411575227e-01
      -2.1050008675437085e-01 -4.5382446182243692e-02
      2.2376191367444186e-02 5.4098691454762753e-02
      -5.5516254236233381e-02 6.7322483685347864e-02
      -5.6408453278991258e-02 -8.6556642299557895e-02
      -3.4660567545854226e-02 -8.8000201712265719e-02
      3.2646913869834017e-02 4.1334840146666656e-02
      9.3947199126962241e-02 1.7957622971011108e-02
      -1.1189919859549945e-01 1.1018669352784492e-01
      -5.6303030112528837e-02 1.2830055406585966e-01
      7.3391607059818597e-03 5.3956951671353594e-02
      -5.6421209471882528e-03 7.0250806919840592e-02
      1.2482943073304481e-01 5.2018018834202109e-02
      -5.7328222598595553e-02 -4.7479125675974315e-02
      1.7511420708226136e-01 9.4542947590414553e-02
      -7.3865418143617481e-02 -3.5682285051426683e-02
      -6.8340548313493552e-02 -6.0836929365933247e-02
      -1.5125995155539904e-01 -2.4430803239905044e-03
      6.5826672624737848e-02 -6.0075858909750264e-02
      2.7837645680057130e-02 5.8049207232360365e-04
      -3.8186878284498016e-02 1.2586915221228812e-01
      -1.7272681747421187e-01 -2.6997700055529112e-02
      8.7709831136399005e-02 3.2170290484073973e-02
      -5.3940224242726147e-02 6.9550355224103119e-02
      -8.5988778391308959e-02 -8.8586674172641919e-02
      -5.4682541407141218e-02 -1.0031325720579479e-01
      2.9420732767872770e-02 2.5825606327268658e-02
      8.8233421168621234e-02 4.1641628425737688e-02
      -1.5820310719090169e-01 1.2823639817624327e-01
      -8.1654534922212196e-02 1.4962690161834644e-01
      3.5294835311322922e-02 5.7812702989942177e-02
      -6.5399388564324375e-03 8.3750141263895128e-02
      1.2330422039235156e-01 4.8258389113445078e-02
      -6.7020664962566479e-02 -6.4848882188435070e-02
      1.9658809756461146e-01 1.1311657268469329e-01
      -9.1253795103765800e-02 -4.4234709904491305e-02
      -1.8370430118103923e-02 -1.4296541064568508e-01
      -1.9160027601365540e-01 2.0957196760612144e-02
      9.7445855394061975e-02 -1.4451636017720751e-01
      6.0706766643786270e-02 -3.2495837156700402e-02
      -7.7021329545618605e-02 1.7186879286204496e-01
      -2.1141013726872360e-01 -4.6005403169131619e-02
      -2.3507743199163537e-02 3.4284976243869378e-02
      1.1682616252955099e-02 3.7507216323227906e-02
      -9.4888219920646999e-02 1.0388088561463574e-02
      -1.1937654647518357e-02 2.9578147338716752e-02
      2.4568460903724932e-02 -1.1251991221819378e-02
      -5.6130640372454681e-03 -3.9000884998863276e-02
      -7.7714047029516078e-02 7.8977423142654213e-02
      -1.9797087874979545e-02 4.8878870016835295e-02
      -6.8403824025868018e-02 -2.0201381544036567e-02
      3.8506844666159827e-02 -3.7267080042970642e-02
      1.2315495271146887e-01 -2.5651510459669558e-02
      2.4810455008558004e-02 -2.6466301381847811e-02
      8.1291736050175492e-02 -4.7176349242949812e-02
      -4.0026291846483958e-02 -4.7542793918156669e-02
      1.5043696452622938e-02 -7.5314716282904495e-02
      4.0458755999424896e-02 -2.3640830816072846e-03
      3.1126028285145824e-02 1.9528393962719250e-02
      -6.2812660694279529e-02 -2.2777269138770151e-02
      6.9913483695830905e-02 -8.2353209218078306e-03
      4.4786820184791916e-02 -9.9364778296592206e-03
      -1.4280443455522939e-02 8.8087168993256207e-02
      -3.0312638244467401e-02 -5.4283920020760455e-02
      6.0392783483663511e-02 1.8930903478440559e-03
      -1.1851200342592155e-02 -5.9176088288344954e-03
      -1.0430840782642101e-02 -3.4419126771695091e-02
      2.5559136285780569e-02 2.1930435142952523e-02
      -2.4137462549869492e-02 -1.9656631893645981e-02
      -3.4526852399866727e-02 -9.0061220374448858e-02
      -6.9983298320458867e-02 6.9459511998287322e-03
      4.0295035274473298e-02 2.8511189484173385e-02
      2.9116455150926326e-03 1.4894534963797865e-02
      -1.6895409890295855e-02 -2.2344572477152134e-02
      -2.1056146449764807e-02 4.5188980095950196e-02
      -7.2687148008754509e-03 -1.3909196922559618e-02
      -5.1742541107448213e-02 1.7655409767615617e-02
      -3.9655617952165803e-03 4.9096214587595430e-02
      -3.5305853651542977e-02 -3.9840707533677092e-02
      8.7558836572552440e-03 -4.1479260471394422e-03
      5.5052902885735264e-02 -5.4913316973191462e-02
      -8.0210220443427318e-04 -4.2268576295797888e-02
      -3.9852174883195932e-03 -1.9438507002371059e-03
      4.6624553712561433e-02 2.1149050375937086e-02
      -3.7056820492855372e-02 4.5837505631355809e-02
      3.8726638171232841e-02 4.6563784557696497e-02
      -2.2233348016949730e-02 2.5881611014507235e-02
      -3.3763839809464478e-02 -1.7457751151695497e-02
      -4.1305160286225617e-03 1.7794058459298673e-03
      4.4164433832505484e-02 -2.2109746832356739e-02
      7.9840654725860088e-03 -3.3382568928943319e-02
      -1.1490589864513243e-02 -5.1009628522605738e-02
      -2.6983621706935430e-02 -2.5494898598506198e-02
      3.4350748475284035e-02 -4.9687080950701859e-02
      1.1865154023000190e-03 -6.2075386826796239e-02
      -2.0845928651941910e-02 2.9388377864171339e-02
      -1.9246493996741842e-02 3.2659581597392004e-02
      7.3331524889937147e-02 -5.6043871771083581e-02
      -4.6834777510249117e-03 -3.2120143336562212e-02
      -1.7693341909921435e-02 1.8411728333986639e-02
      -1.7923186751524366e-03 -4.0633022732920493e-02
      7.7114777991910327e-02 1.5259090411902387e-02
      5.1316866061654316e-02 4.2393425213154007e-02
      -2.2054585253104116e-02 1.2570486845964776e-01
      1.6215821288562006e-02 -5.3884570669089478e-02
      -2.8415384063733059e-02 -5.8773301331063107e-02
      6.7297367948758902e-02 5.6310506204082901e-03
      5.5484793683083192e-02 2.7305183096919445e-02
      -1.3006550636921788e-01 1.2748174906053947e-01
      -5.6136818431030452e-02 9.1021592133270268e-02
      8.9630140122971033e-02 3.9269783430371186e-02
      -2.8380178655598939e-02 4.2381131490785734e-02
      1.3729042118494075e-01 2.8534465469597623e-02
      -4.1876907408427075e-02 -8.5262346355625504e-02
      1.5964982483308285e-01 6.1272747447356453e-02
      -7.9261893923290042e-02 1.9152939932045032e-03
      -1.0195788039446688e-01 -1.7853900789538021e-01
      -1.1988653776743961e-01 -4.6778070681759189e-03
      7.9094447994973657e-02 -2.4565018550181986e-01
      4.7711751829820244e-02 -1.6490517747898330e-02
      -1.3446581945783531e-01 1.0886787204040507e-01
      -1.3361399106655619e-01 -5.4460895653406061e-02
      8.9179313704793733e-03 2.2956491905172023e-02
      5.4732092390807471e-03 1.0973554821556335e-01
      4.8727337438615417e-02 -2.6120235877848681e-02
      1.3802287802608899e-02 -4.2944518765976207e-02
      4.7385449033011652e-02 -1.3227458367180650e-02
      3.2497111942409160e-02 2.2503610873573832e-02
      -1.0018338402454335e-01 1.1544164984190770e-01
      -5.1622301304540388e-02 5.8596802053956031e-02
      4.7851256948849133e-02 2.2412042571944072e-02
      -1.0088826180420922e-02 3.0164226081814165e-02
      9.6336348015716791e-02 9.3925056967048698e-03
      -3.1674299085996602e-02 -7.8040387467607206e-02
      1.4464588303254580e-01 3.9412859193218526e-02
      -5.2439108538555948e-02 2.0759844341729818e-02
      -8.0952218591632236e-02 -1.4868532628392467e-01
      -7.3005210819970953e-02 -3.6289949900916552e-02
      8.6338641134039884e-02 -1.6365774300316524e-01
      2.5045472457080723e-02 -4.8786453270909282e-02
      -9.7554662317862861e-02 7.2366017487939679e-02
      -8.7737397286556357e-02 -7.6305125868243215e-02
      3.1599119899169900e-02 6.8734815252814815e-02
      -3.5953598659133092e-02 1.2671065029533921e-01
      -5.9128955444090511e-02 -6.6059027140210461e-02
      -6.5463218595859449e-02 -8.6148029468274573e-02
      5.5662364612127278e-02 2.2008479430649538e-02
      8.2821158289757099e-02 1.6447438937070409e-02
      -1.0603424742546549e-01 1.3451008892807442e-01
      -1.9435106377087809e-02 1.5501510525758924e-01
      4.8420451411504126e-02 4.8631396270383272e-02
      -6.3231284426091508e-02 6.6559970867660315e-02
      1.6333055060353632e-01 4.1889000279830821e-02
      -5.0516778902670124e-02 -4.4572101493998366e-02
      1.3242222185430411e-01 8.8013188427139760e-02
      -8.9881833428032729e-02 -5.2054175987253766e-02
      -8.9567979959404118e-02 -1.5554367935952865e-01
      -1.5680594911574142e-01 -2.0421023904059792e-02
      6.4744629049255084e-02 -1.1556307970722318e-01
      6.2396749540955851e-02 6.9651994454617734e-03
      -8.1680739211852774e-02 1.3969195935732709e-01
      -1.7333498727327248e-01 -1.4525321170598373e-02
      -6.1235253490613435e-03 3.8010510168254165e-02
      2.9665541438832103e-02 9.8207390039084200e-02
      -2.1657292536523678e-01 1.4320281542642289e-02
      2.7171011176063492e-02 1.2148361240988901e-02
      6.1922362819273158e-02 1.2256669206255134e-01
      6.1413772686190367e-03 -2.2201451962613191e-02
      -4.8657522952092101e-02 9.2819540485762658e-02
      -2.5856604029495335e-02 3.3201053562771927e-02
      2.3593629027521417e-02 -3.3584159422093466e-03
      -3.5614830129266542e-02 -1.9065101509780653e-02
      4.0744400106103799e-02 -1.2323303509571167e-02
      1.6023414057045795e-02 -1.2667703692259996e-01
      4.9362136681677882e-02 -2.1981179082673191e-02
      -3.3488205757207061e-02 5.1685594028542232e-02
      -5.3654416584448993e-02 -1.4209997624504056e-01
      5.6953382715695684e-03 -4.7396179939214952e-02
      1.8379223597298794e-02 -5.1357503327269287e-02
      -2.5345320213481508e-02 4.1265527746095230e-02
      -6.5193509952064882e-02 -3.2829171084341319e-04
      6.3860374001726110e-03 5.4315769260905918e-03
      -1.3777084239063234e-01 4.3232088637138295e-02
      -6.2281726759581282e-02 5.5310785036430880e-02
      -1.0142107839484209e-01 3.1020398081412728e-02
      -1.4187387446733493e-01 -1.3955516680160700e-02
      1.2149836043178169e-03 9.0646509263723543e-02
      4.6587126109079745e-02 -5.0526344333153310e-03
      1.4788613392092045e-02 8.6846502822821622e-02
      -3.0585236682079568e-02 7.6224310919943250e-02
      4.3678985905982095e-03 1.2385041501667974e-02
      3.0045891804610668e-02 9.5487015980573690e-03
      1.4330237002126889e-01 3.6329104421626165e-02
      -6.2776799399953303e-03 5.0754233178289428e-02
      -9.1483258029989110e-03 6.8804157358020729e-03
      -5.1869035754204956e-02 -3.2835656591343639e-02
      -3.1787619271376411e-02 6.9063095820728953e-03
      -2.9164840641443271e-02 5.2909705517235645e-02
      -3.5939913905291020e-02 -2.8961507711636421e-02
      -2.1765195610181406e-02 4.4220727813039852e-02
      -1.9991673666584036e-02 7.1937847418902162e-02
      -4.2989444885286367e-02 -8.3743878562430683e-03
      4.7545715736905378e-03 -1.0303286010955835e-02
      2.6293469312818993e-02 -4.2938052235359861e-02
      -5.9595650276157722e-02 1.6034428838049068e-02
      1.6942221233475416e-02 5.9912160612949253e-02
      -1.7064098588221652e-02 -3.2277779861786891e-02
      -2.4687288562863251e-02 -2.4363038989708794e-02
      1.1426260690533388e-02 -2.1357361702510475e-02
      -3.8485465939580077e-02 -2.2130113357711850e-02
      -1.0341000516415906e-01 -3.3533500513987693e-02
      5.2637325734026977e-02 -5.3618146894550335e-02
      -5.3352818065031664e-02 -2.0365188947104762e-02
      3.8061963213063814e-02 -4.3431373268379980e-03
      -5.4627460271730738e-02 -7.9190200542113440e-02
      3.3792009324912609e-02 1.8288274699516424e-02
      5.4250988781368088e-02 1.9226687937472800e-02
      9.4223730761096053e-02 3.1852340737584618e-02
      -2.2993334415618544e-02 1.1048599911714682e-01
      -5.1495572907571716e-02 -1.1624080780315221e-02
      1.0222582768113918e-01 -4.9893041708252706e-02
      9.8488904807053274e-02 2.1079073033635234e-02
      1.6155506163407593e-02 -4.6306114306622348e-02
      -3.4589693855549657e-02 -5.5471842492828528e-02
      -5.2190600402751289e-03 8.0197969814318291e-03
      -1.8204416586123900e-03 3.8755816222523151e-02
      -1.1621963281166171e-02 -4.4448155887927339e-02
      -4.7249720968330234e-03 -2.1394915037553107e-02
      4.6548605893325642e-02 -4.0878940091421005e-02
      7.3530853067799795e-03 -3.4537412457158599e-02
      3.0750627016311937e-02 5.9185346898327747e-03
      -5.6522233579728359e-03 -3.7923930284550655e-02
      -1.2154523430867242e-01 2.2433704844552052e-02
      3.8214261559121283e-02 -2.9651707133291462e-03
      -1.1138119272100723e-01 -5.3085023035426039e-02
      4.6060049447232521e-02 1.4743772264619517e-01
      7.1318270593756661e-03 6.4797423133307053e-02
      6.6250706145612584e-02 2.8121350199635204e-02
      -6.9149984234307557e-02 4.8064174560583005e-02
      -1.8468806520642582e-02 1.2308030766618376e-02
      -6.1562015443674886e-03 -8.7722851442622610e-02
      7.9363794836229629e-02 3.1787709686976078e-02
      9.7420497546097887e-03 -3.4098156541324719e-02
      4.9725523157832789e-02 1.2866022503165490e-02
      -6.6261453813496601e-02 4.4937376657885927e-02
      2.2323436649800119e-02 5.6621691431374008e-02
      -2.6443836461572324e-02 3.0079658098476434e-03
      -4.6461690969494061e-02 -3.4258919691779278e-02
      3.9923682767001659e-02 -4.5024594390376878e-02
      5.8690255258303126e-02 -3.5008221253731660e-02
      3.2426884125294465e-02 -3.8133113793548903e-02
      -4.3613895316187902e-02 -5.2138891614358508e-02
      -7.8021899933959832e-02 -2.3236866043892235e-02
      4.5475678075135272e-02 -1.6513543280535083e-02
      -8.7602007837582818e-02 -5.8363589059898247e-02
      6.7353907491863822e-03 1.0907975152536936e-01
      -1.8717870150376351e-02 8.1218074305798110e-02
      7.4954739871145287e-02 -4.2263169465058342e-02
      -4.1675060597417928e-02 4.6629650242196279e-02
      -2.0750801031473427e-02 4.4348281194624382e-02
      -2.2272074600867848e-02 -4.4054837636358167e-02
      7.8165950824105934e-02 2.7889904669355182e-02
      -4.4233431700457260e-01 3.8336446245089854e-02
      -9.5863684397405943e-03 1.4319278851466288e-01
      7.0711557697566763e-02 2.6859750618685713e-01
      -7.3553586686377756e-03 -8.4477974245481702e-02
      -2.1939937413116367e-02 1.0881593335774736e-01
      2.1424080552604583e-03 1.1516543111783779e-01
      7.5068195964108388e-03 -1.4326772625052718e-02
      -6.5111889510654095e-02 -2.7862319343619152e-01
      -2.3725088532890615e-02 2.1451828778578236e-02
      7.0181072270350986e-04 1.4934478947424712e-01
      3.8456306974808840e-01 5.3710756786071887e-02
      -9.1645882284405747e-02 1.2996195649899434e-01
      -4.4357297420621979e-02 2.5890144830475587e-01
      2.3951091405060060e-03 -1.8453077962468046e-05
      -8.4149494071301678e-02 -9.3916413966516704e-02
      -1.1698426853824029e-01 7.6072630327180452e-02
      -1.2348652114653674e-01 -1.6131979820767531e-01
      -7.5545989954053872e-02 9.6633844931179880e-02
      -9.2782735886019527e-02 7.3104228165643589e-02
      -1.2300087298965717e-01 -5.4464152162849444e-02
      4.9052153863785489e-02 -2.9189156623443003e-02
      -2.0491894984794421e-03 -3.0325592433520274e-02
      -3.7136510338382243e-02 1.5385899056224440e-02
      6.6353595885809821e-03 6.5741060761218925e-02
      -7.9455283188463177e-03 4.5593479410410602e-03
      -3.7615760802310279e-02 -2.5239027374942147e-02
      1.0388586424239538e-02 -1.8306612322713304e-02
      8.0838249264982495e-02 1.3348618057623218e-03
      6.1296967900441514e-02 -2.5616608578580793e-02
      3.9491665684597771e-03 -6.6684860761094672e-02
      -8.1339648036104564e-02 -1.4034135249757329e-02
      5.5792548967585627e-02 5.6449480750670978e-03
      -7.8332455095724451e-02 -8.3733134651153729e-02
      -2.7431214369680085e-03 2.9444961471092383e-02
      -2.0418691416588423e-02 4.1870652770363823e-02
      9.7383030104416790e-02 -3.2961166231041110e-02
      -5.3137545781489368e-02 -3.0629791738436194e-02
      -1.2899038214316193e-02 6.8897852864092210e-02
      -2.5662258645430768e-02 -6.4773150210832922e-02
      1.0992528716744641e-01 5.6084633401133246e-02
      5.6637513104452870e-02 5.1299701596242996e-02
      -5.7850374977053295e-02 -4.0032712354057559e-02
      9.6234827591913610e-02 -4.7185777187337567e-02
      -7.8413249497547938e-02 -2.0301611038389497e-02
      -4.6042123954013157e-02 -1.3755498914140810e-01
      4.5804560829418459e-02 3.3161749502340368e-02
      1.4865849528033198e-01 -7.0584313874769281e-02
      -1.6400880629032246e-02 2.7173076942282461e-02
      -9.5309182739812232e-02 3.2412821627364634e-02
      3.1605155107770511e-02 1.8363251333207160e-02
      -5.3686313027042624e-02 3.0981955502749205e-02
      -2.8246741406178399e-02 6.4264724849626365e-02
      -1.1873575682527465e-01 1.8296176993262567e-02
      5.8599043599750947e-02 -8.5425146690389434e-02
      2.2568536351506074e-02 2.8129909670509157e-02
      -2.3611729230858320e-02 1.8049224762386722e-02
      2.5340304664933162e-02 3.9656858810129689e-02
      1.1474948600110381e-01 -1.0511462723342645e-01
      3.8844207696996369e-02 -9.7869818870741556e-03
      -2.5767173324239504e-02 -4.2436942382208249e-02
      -5.7345921844198317e-02 4.0514393232193691e-02
      5.2292336905518461e-02 9.0807421042149762e-03
      -1.3607639750979963e-01 2.7114561974090783e-02
      5.8434669263166227e-02 4.2146569567328943e-02
      4.1223374368999565e-03 3.0564196443451704e-02
      4.6328725266574326e-02 -1.9976206108001122e-02
      1.7283265426418809e-03 -4.9294537770528703e-04
      1.9710963597688889e-02 -7.1377270743765110e-04
      -8.3808608502078191e-02 -5.6584690751849669e-03
      -5.4546697156733438e-04 -4.6688486766772570e-02
      -1.3522180040737444e-01 -1.3147328175837372e-02
      2.3294534024396792e-02 -1.9944301151433558e-02
      -1.9981156375943232e-03 -4.5596434123022035e-02
      3.0125540263506261e-02 -2.0359157044729136e-02
      -3.8167580320126987e-02 3.6254753846834027e-02
      3.6995098548769527e-02 -1.1859965305055487e-01
      2.4535361998106874e-02 7.9578709991266414e-02
      -1.9408783680501068e-02 1.7561017450323364e-02
      3.7450414539339345e-02 -7.3545971361422671e-02
      3.6218362089145015e-02 1.1135683912961110e-02
      6.4715053689579194e-02 6.2099503927834740e-02
      -2.5036616290666214e-02 6.1441842063507647e-02
      -1.1733121028207082e-01 -5.8647899970987204e-02
      -7.4280654397015658e-02 -5.9701873877482388e-02
      4.9664417998203585e-02 -2.7534601744440352e-02
      5.2295012831954271e-02 1.3001459283856846e-02
      -1.0560143654249068e-01 7.9222624893950669e-02
      -1.5172757306139073e-02 1.3242594138605124e-01
      1.9464660115702716e-03 3.1598670685873707e-02
      -3.0414835873488071e-02 4.4978360237724870e-02
      1.6928434513948853e-01 2.9758711007887722e-02
      -3.7290398781587950e-02 -4.0376646965531171e-02
      1.2678493076145336e-01 6.5632133757993441e-02
      -7.8953926760955723e-02 -1.3379289714806628e-01
      -5.3073170151832660e-02 -7.3729895178170871e-02
      -1.1276584851838704e-01 -9.0388170759826102e-03
      5.3303431935537424e-02 -3.7488543236528941e-02
      4.0504045766986886e-02 1.9667666399457325e-02
      -1.7432247698570658e-02 1.0961549520431260e-01
      -1.2908834610456998e-01 9.5033779751635752e-03
      -1.0117398746599247e-02 9.6759448511856139e-03
      3.6817604695562854e-02 1.4396623459797427e-02
      -1.5615035690892837e-01 3.4981932552888756e-02
      3.3067676463872080e-03 2.9206709356674149e-02
      2.7443976008704657e-02 -3.7560632683159366e-02
      -5.2256587661445621e-03 -3.8086199278437934e-02
      -4.5686133951095304e-02 3.4166472133561283e-02
      1.5380413023652563e-02 5.3414888173802723e-02
      -6.5801131862268089e-02 -1.3109408294893724e-02
      -4.4248467042364618e-02 -3.3419578377265891e-02
      1.5870492200682898e-01 -1.5402816389644651e-02
      2.5130602544954035e-02 -2.6390728565860375e-02
      3.6315135979488683e-02 -3.4540612706658792e-02
      -2.3416598476504250e-02 -9.3906979327226955e-02
      1.5806872409593435e-02 -4.8596929537872383e-02
      2.3358386167433024e-02 -4.8504960913305459e-02
      -2.9120099893218555e-02 3.8372148420589211e-02
      -3.9740141615114404e-02 5.4121468192727555e-02
      6.0152696891551567e-02 -5.4222132080422062e-03
      2.9702821541069173e-02 3.8866385777135103e-02
      -1.1423022699397452e-01 5.6182533689678772e-02
      -4.6769149955779458e-02 -8.3332879007399219e-02
      6.9540548639946520e-02 3.5229248241225281e-02
      3.3569633578502220e-02 -3.5152309208922712e-02
      -3.8485338908593333e-02 -4.8750249435363963e-02
      4.7031766534108246e-02 5.0784320690343998e-02
      1.0389681719025638e-01 -1.4604656220471710e-01
      -5.3707455919832010e-02 -1.4992477184885203e-01
      -1.0914058270472972e-01 2.3936460328412363e-02
      1.0704890719020532e-01 6.3191270632734622e-02
      -9.8466236118214354e-02 3.5861900632079127e-02
      -4.5248723105027373e-02 1.3485884621723924e-02
      -1.4160364677898823e-01 1.0308937224176412e-01
      8.5215873831500796e-02 -9.1689826516934934e-03
      -1.1888518894210607e-02 6.0403786292243522e-02
      -3.1240931810135417e-02 4.5176998704128120e-02
      -3.4436545434537690e-02 3.4633654674583861e-02
      2.6654261747623555e-02 -4.9198851046550147e-02
      5.8744746194958154e-02 -8.0856789290371114e-02
      -3.4267734115277441e-02 -5.5392155809750605e-02
      -2.4583653667724505e-02 -3.9479243326371698e-02
      3.1826752028534695e-02 3.6458637204603954e-02
      -1.0149655737265000e-01 6.6356703181587040e-02
      1.9070242474311053e-02 5.2723809930431402e-02
      3.7319830312249086e-02 3.2366174545271416e-02
      -3.3192911669350865e-02 -1.4632131430680380e-02
      -3.0673967515336201e-02 -3.6150544057288430e-04
      8.0601958440662438e-02 -1.0109227989140202e-02
      2.0631097149815713e-02 -2.6129361556151139e-02
      -3.1446968601257591e-02 -5.9731972034705934e-02
      1.8710462027443392e-02 -1.8744535906201249e-02
      4.4481009842447863e-02 -7.6473358481509934e-02
      2.0435335001212244e-02 -7.9309445811793083e-02
      -1.2782153867987834e-02 -3.8435119212309556e-03
      -5.8262749832094791e-02 -2.2817561724778366e-02
      9.2217807918139078e-02 -4.7796554549964093e-02
      -2.9931689122832467e-02 -1.0921399951105965e-01
      -1.2311352173292297e-02 7.6118401385599915e-02
      -4.3409995087652122e-02 -5.0054686338174302e-02
      9.4987631613676557e-02 1.9940079660986723e-02
      -1.0932622498461785e-01 8.2214426968362897e-02
      1.7288391314520028e-02 1.4729801439735729e-01
      -1.0955248435311924e-02 8.0107497126484892e-02
      -1.8811908409853105e-02 -2.6974090966444361e-02
      2.9583752707960945e-02 5.8190013467600055e-02
      1.2073575817396952e-02 3.0114869421656119e-02
      -7.0891640732440434e-02 9.3601257095678153e-02
      -2.1746283772428314e-02 -5.7152086622396590e-02
      3.4592457618568884e-02 3.2997415854716808e-03
      -5.5309497938308479e-02 4.5331074029661564e-02
      1.8661971151885628e-01 7.9046349802578807e-03
      -3.3636884314083550e-02 -5.7202827354840828e-02
      4.2466066769692841e-02 7.9956534914949237e-02
      -4.7348986091089548e-02 1.4772385580184136e-02
      -1.1973305446143613e-01 -1.6790754284138648e-01
      -4.6960410106189433e-02 -1.1087641863889350e-03
      -7.6825817678642461e-03 -1.6870260448374921e-01
      -1.1831434302892519e-03 2.6609484009106871e-02
      -1.0752200293357791e-01 2.4507196327660977e-02
      -5.2751818834880400e-02 -5.0328273874013250e-02
      3.7548679181326379e-02 -1.5271231659633797e-02
      3.2175146336171807e-02 9.4064751943872163e-02
      1.5136080777258501e-01 6.4742043860722548e-03
      3.3464217235123224e-02 3.6279734503682245e-03
      7.4034714608166630e-02 -3.4910991478059011e-02
      -1.4924940872293506e-04 9.7413662131173636e-03
      -6.9727042178392137e-02 7.7899002760438832e-02
      4.6474965377114055e-02 4.8699000095783040e-02
      1.3768379487990901e-01 5.0806030562550696e-03
      -3.1968967584944601e-02 -1.8819456102707691e-02
      -8.7658110196940711e-03 -1.9972879503533446e-03
      6.1919766487436839e-03 -5.8324898653048456e-02
      8.7041273547038459e-02 -2.8552657817640558e-02
      -3.8027892699035108e-02 1.0550784747903175e-01
      -7.1624308344727883e-02 -1.4694093059875571e-01
      -1.3571002300991866e-02 -1.6824551221137744e-02
      5.9614251611132832e-02 -3.2328704443382106e-01
      1.5692303586481195e-02 1.2223589318356088e-02
      -1.8159790312864682e-01 2.8582536586721875e-02
      -1.8343823329494829e-02 -1.5871244664316709e-02
      -3.2501292196041295e-02 2.8864195813474620e-02
      8.9710123579871529e-02 -4.3603439596132755e-02
      1.1602314020979679e-02 7.4958287209425961e-02
      8.3057665115111742e-02 3.2828410304543608e-02
      2.3983657227926794e-03 -1.1369653833437458e-01
      -6.3530177269463986e-02 -1.1682205857621813e-02
      -6.1275320181572362e-02 -1.0438714537812108e-01
      2.0967312977018544e-02 -1.9563335991337427e-01
      -2.1080681776482010e-01 -4.0935546298292373e-02
      -4.6332986931369169e-02 5.7539638163309767e-03
      1.3729483049745483e-01 -4.0721559798293928e-02
      9.3014008826712465e-03 9.2390313917679476e-02
      -1.7578401379646422e-02 4.9093898467367683e-02
      3.5920987720978521e-02 -1.7998393300698393e-01
      1.7912876388498228e-02 -6.1739178749234458e-02
      5.7266618185117246e-02 -9.1674222638407875e-03
      -8.5424971073558106e-02 1.6078787450200901e-01
      -9.9466347386407944e-02 1.2099669345513047e-02
      1.9409071704595629e-01 -1.1672622341412033e-01
      7.3919351784855841e-02 4.3912605303216445e-02
      1.5049163245103754e-02 -5.6740704146985323e-02
      1.9680502217654008e-02 1.0141135734727282e-01
      3.1869179810183210e-02 -3.6317028204178682e-02
      -1.1425481969612019e-02 -6.2326190256415052e-02
      5.2012112685449488e-02 -3.8919120647587076e-02
      2.9885671623914208e-02 -3.1729617871206028e-03
      -1.4159289581243081e-01 1.0653867335627677e-01
      1.3477101918132301e-02 1.5232121521841480e-01
      1.6561118385844623e-02 3.0948254538116685e-02
      -9.7792301721204705e-02 4.1806031037662672e-02
      1.6078624002972539e-01 1.3795410670556899e-02
      -3.9211996933015858e-02 -6.7439664991213273e-03
      2.1594391284915201e-01 5.6395686642210598e-02
      -9.4089496324872679e-02 -3.0387257766767744e-02
      -4.5635869669540495e-03 -1.4113997332472286e-01
      -1.2496225114137463e-01 -4.3641603164239928e-02
      8.0473636589040512e-02 -1.4772289479929193e-01
      1.4330537523664434e-02 -3.1946927935508969e-02
      -4.4055486995283624e-02 1.3455287362189622e-01
      -1.4905160500680628e-01 -8.7090191011492245e-03
      2.2467845605054725e-02 5.9328983748844190e-02
      -2.4866956121270399e-02 -6.9695660612752119e-02
      -1.6137188519692492e-03 -5.3051982844615972e-02
      -7.1109843368184530e-02 -3.7747913478429686e-02
      -5.7806276696706585e-02 -1.2236372084735943e-02
      3.1921581227648967e-02 3.7966425247190037e-03
      -3.0159910946431834e-02 -3.2264799175713071e-03
      -4.6207265189948075e-02 -9.0455733569847260e-03
      -8.2771353670953077e-02 1.5484608639103087e-02
      9.5865927981631030e-02 3.1538921961915545e-02
      8.0064181582428836e-03 8.3365216998557059e-03
      -2.0431614174224778e-02 1.5735189412722239e-01
      1.7704081250842475e-02 5.2250976303878600e-02
      1.7262933490504956e-03 -2.3762210452928423e-02
      8.0843732152062781e-02 -2.2511911802960718e-02
      -5.8836152344562700e-02 1.1001976804150376e-01
      6.0268652456386705e-02 4.0756560240527637e-02
      6.0231194201822652e-03 -2.1398515519215917e-02
      5.3041535414662992e-02 3.7557919097506304e-02
      -6.4460349699221695e-02 -6.6904014475167584e-03
      2.7246585168748077e-03 4.0790217015246821e-02
      1.2098434566735839e-02 -1.2818653745827724e-01
      9.5313404180975531e-02 1.0577481673733173e-02
      6.8846289536754184e-03 1.3808854003339912e-02
      -4.9353776620040000e-02 -7.4504813114890475e-02
      -1.4202072549373087e-02 -5.1100947885755000e-03
      7.6903779247524784e-02 -7.6047229992650525e-02
      -5.0380841237948878e-02 -9.8492860505704591e-02
      -1.2223006269396448e-01 -1.0937393957105145e-02
      1.5396728241565705e-01 -9.0639187382411997e-03
      -1.3594620170317073e-01 -2.2420668241562931e-02
      9.8552664591945813e-03 1.7238570769546535e-01
      -1.0688538234011592e-01 -3.9316090967489708e-04
      5.3684301403624297e-02 1.7848298235699528e-02
      1.6640579133504399e-01 6.7092949985581185e-02
      3.0607520922489639e-02 1.3178834557331903e-01
      3.7558490543149844e-02 8.0208498882109416e-02
      -1.7489257034661528e-02 -6.4227414923894957e-02
      8.4964984637130203e-02 -2.6461932662769576e-02
      3.4257997196959704e-02 -2.3553691510629735e-02
      -4.1694446916303106e-02 -4.3552615903119901e-02
      6.2288012400668002e-02 5.7555065596605726e-02
      -6.9919953608182997e-02 4.9456731454652278e-02
      5.0197781450956130e-02 4.8502919839144877e-02
      2.3859868745788750e-02 -5.2992821445614464e-02
      -4.9115205127970483e-02 -5.5575935091033909e-02
      -7.0136803629759478e-02 5.9040632375736827e-04
      8.8513329094148135e-02 3.0269839325571583e-02
      -3.7280877360935938e-02 -3.1411024158221452e-02
      -7.5402493402564746e-02 -6.0801399709505127e-02
      1.2033739743989445e-01 -2.8202126547493656e-02
      4.3967174321538925e-02 -6.2255183048628482e-02
      2.2622021537088959e-02 -7.6760254514934387e-02
      -1.3715011918243713e-02 -5.9259472915136911e-02
      -3.7831996352052089e-02 -7.0773515813380608e-02
      6.2346510265994450e-02 -7.8632800650526621e-02
      -4.1279789861156713e-02 2.1126804782023223e-02
      -5.4826633510628553e-02 9.3265558200999785e-02
      2.9351796867478578e-02 -3.8552342551382394e-02
      7.0132865043932777e-02 6.7755286094900544e-02
      -2.2554377959725230e-02 -1.3324188104150683e-01
      5.2775524082672803e-02 -3.1438764139480810e-02
      1.0317114754063107e-01 3.0004681385168840e-02
      3.9139151806139034e-02 4.9133216919545614e-02
      -7.0697437686557179e-03 -2.9792170365795352e-02
      -2.8061915841013668e-02 1.9044185255195131e-02
      1.3033297945708186e-01 1.3052118033403179e-02
      1.3278834848850892e-02 -3.3260130256343896e-02
      -5.7580254122662274e-02 -2.0232838706449437e-02
      -3.0418332494962844e-02 -3.6853606280428948e-02
      -1.5364242190589311e-01 -1.5211612610046292e-02
      8.6507427932560679e-03 1.1280660632115356e-02
      -6.3310852426879421e-02 -3.1057149665447960e-02
      5.4596942397375933e-02 3.7003835502997656e-02
      -9.9150873555861087e-03 1.1668659406283474e-03
      7.3912959758931349e-02 -2.9677191560852752e-02
      -3.4548150564135570e-03 6.0876099935951132e-02
      -3.5713109005583831e-05 -1.0298508892759488e-01
      3.6104288607554991e-02 -8.5358043607655879e-02
      7.6856611005196099e-02 -5.2194992636606818e-02
      -1.9023429348690667e-03 1.7013828221143376e-02
      -7.7148310788042913e-03 -8.8250216351187113e-02
      -4.0400176435276811e-02 -3.1419808976433705e-02
      -1.2313559009984617e-02 -2.1059163195493957e-02
      -1.0565620765662191e-02 -4.9569453243525040e-02
      2.5841331899298894e-02 -2.1071631642943321e-02
      2.1293667954472420e-02 1.0518756813692227e-02
      -3.9893027294213956e-02 3.0114298344770897e-02
      -1.6502547244683655e-01 1.3892648858712440e-02
      1.1038904987393895e-01 7.8321242713242523e-03
      -4.8345358553285207e-03 4.8267143644855973e-03
      -9.3147181478737649e-03 1.1230772318482188e-01
      2.4872244270127283e-02 2.5692257069013635e-04
      -3.0827247767974417e-03 -6.1797680406746699e-02
      1.3598846292492667e-01 1.7586710245401847e-02
      -3.9749561194763021e-02 8.5574125329778816e-02
      6.9571276271257310e-02 9.8164531617606646e-02
      -3.1572555084388443e-02 -1.6827361778843079e-02
      1.3917450014534283e-01 5.4312525122202346e-02
      -4.8444985499427350e-02 1.1669820766543942e-02
      1.1060618534425897e-02 -8.3014978756145344e-02
      -1.0964617216258409e-01 -1.4281394744704889e-01
      1.3742844836128446e-01 -7.9376116634463506e-02
      -4.2693418551977592e-02 -4.2487600838481507e-02
      5.6380368289045742e-03 -1.0059993055753647e-01
      4.1938128429403566e-02 6.9390467353253105e-02
      2.2344609874856283e-01 -2.7528855594475859e-02
      -7.6166196956680365e-02 -5.0443664581282487e-02
      -1.4590237946823309e-01 4.7650185397770529e-02
      1.6211972733900845e-01 6.1789689480847294e-02
      -2.0088144768736130e-01 6.8273964038705837e-02
      -5.7066378145143717e-02 1.0003468339339212e-01
      -8.4249183744943654e-02 8.6969386727173373e-02
      4.6279078499813310e-02 -3.5421513939755254e-02
      7.7362939739044803e-02 1.1464805553050876e-01
      -4.2963033569753173e-02 1.5962272230146546e-01
      4.3794218896076660e-02 9.5187452962211247e-02
      2.4097177991340053e-02 -2.1170607788010518e-01
      1.0321558912323577e-01 -2.7479801891765014e-02
      -3.9813088822791533e-02 -1.1250462942175803e-01
      -2.0363105093302329e-03 5.6401557113189713e-02
      2.1436343543221300e-03 -6.4277587883926318e-02
      3.8381502308403342e-02 1.3646042628425545e-02
      1.3005770582475403e-02 1.4515647981542695e-03
      -2.3543033311265171e-02 -4.7515750794404232e-02
      -1.1573305332829529e-02 1.9235468834287898e-02
      9.4077612019279430e-02 -3.1007112402640487e-02
      -2.6485996459797611e-02 -1.0702432754490013e-01
      -1.2857655120173245e-01 -2.4191024670538546e-03
      6.5852200635814956e-02 1.6885266089375153e-02
      -3.0760823804811450e-02 3.6319771175053373e-03
      -9.1323216849775769e-03 7.6735890365078802e-02
      -9.9606186301667135e-02 2.8643130980455844e-02
      3.7159740466054240e-02 -7.2021738797601140e-02
      5.7580721062688509e-02 1.0424619798362409e-02
      1.8850838433005234e-02 5.0174905843103877e-02
      -2.7828794200912836e-03 1.0365013087738181e-01
      -1.0848084517647417e-02 -3.2510721795376556e-02
      1.2666106213278189e-01 -3.4303560606187014e-02
      2.0660901567482164e-02 -1.2432492107675554e-02
      -2.7206211805745385e-02 -7.2297116355351687e-02
      4.1130180200334654e-02 -7.5312096793664404e-03
      -1.1237593932523649e-03 3.9248332057516197e-02
      1.9913805610505347e-02 4.6051837657478660e-02
      3.1722425834693417e-02 4.1172880308164360e-04
      -1.9524480218750133e-02 6.2730876387144502e-02
      2.8322888450943141e-02 -9.0712790235728882e-03
      1.4358476806878776e-02 -6.9333265668848855e-03
      -4.4787989479105159e-02 -2.7638018278814555e-02
      -4.9564760878488059e-02 -4.4656236975779633e-02
      3.6435866940274820e-04 -2.1284361005820984e-02
      2.3487034508710817e-02 2.1405269359398592e-02
      8.3042092522862369e-03 -5.2751524381382760e-02
      2.2753402517114184e-02 -3.9666142771632114e-02
      1.3874107683567959e-02 3.0325613415743656e-03
      6.9501976142261987e-02 -6.2205645518766527e-02
      -2.0637371542649575e-03 3.0525480397468042e-02
      -8.0111539783486226e-03 2.3657170086778610e-02
      3.1676874800421882e-02 -4.6594229397738759e-02
      7.1214701892160434e-02 1.0992380680002344e-02
      3.9682043448736062e-02 3.5054315199982582e-02
      -4.5407556750651718e-03 -4.0821491857532533e-03
      -1.1139751096851645e-01 -5.3082970232978269e-02
      -3.9268945065870628e-02 -1.7577185015368164e-02
      -1.6792023080519688e-02 5.1355963192297648e-02
      8.6047577129654152e-03 -2.5187009606632373e-03
      -6.5244050837351117e-02 6.5765536790537607e-02
      -5.0891843506966759e-02 9.0046642222767620e-02
      -9.5306822028348520e-05 5.4838438313310556e-03
      6.0457196742986712e-02 1.9087631027857109e-03
      6.1779892856827827e-02 3.7555957710033841e-04
      -2.7370055605437146e-03 1.2401643923232498e-02
      4.6778294322551747e-02 -4.6176853387047420e-03
      -4.6983421151838713e-02 -6.2391455648518002e-02
      -2.9567382649383547e-03 -1.0618297853142489e-01
      -3.7481791864704461e-02 5.2793403174925896e-02
      7.4460279412690789e-02 -6.2964756039563002e-02
      1.6553310434734420e-02 9.6893823119402946e-03
      1.4774170049951576e-02 4.2868215268141899e-02
      -4.9348775860676521e-02 -1.4591886791921790e-03
      -4.2975850196351965e-02 -4.7193158246441047e-03
      3.1057161205134454e-02 -5.4079374216576236e-02
      -1.1601276676378539e-01 9.7983306447436396e-03
      -2.2786882030365604e-02 1.9262692216744294e-02
      1.8879777470938795e-02 1.2484984954386758e-02
      -1.8435118289287025e-02 -7.3997642906502972e-02
      3.9793222713869564e-02 2.1973813108324226e-02
      -9.0173392555833905e-03 -8.7841548834805012e-03
      -1.3462081577337653e-01 -1.8323249669102409e-02
      5.0163853500549672e-02 -3.4833764542351660e-02
      3.9997484941975803e-02 -1.7880787103769395e-02
      2.6584227206856288e-02 1.1773423771619386e-01
      4.4213743118868325e-02 -4.7929863688859389e-02
      -2.2964388202981211e-03 -1.5078407833419910e-02
      1.0770261989673485e-01 1.7681409821517866e-02
      2.2187851717831289e-02 5.3115130541914926e-02
      3.9819021674211141e-02 1.4479473559763967e-01
      -9.0056640720063821e-02 2.9077122914038824e-02
      1.1608567732375927e-01 2.8984325373461396e-03
      2.2782787362028881e-02 4.2758281861525332e-02
      -5.2875130529636749e-03 1.0835507870424167e-01
      2.1010331396664486e-02 -1.0224064900628400e-02
      3.6813898607659455e-02 -5.4712246497125531e-03
      4.0888392320992319e-02 5.5476298922667432e-03
      -1.2120536956166763e-02 -1.4629549116144236e-01
      -3.4291822602146744e-04 -5.1437329051981472e-02
      4.0156235547067921e-03 -8.9498478585961466e-02
      2.7931805494681244e-02 6.0188306801710535e-02
      -1.3631888960999111e-01 -9.2851717300299411e-04
      5.5616640983621691e-03 -2.6671652957363470e-02
      9.0843911640210065e-02 -1.5363284042698424e-02
      1.1116284885663979e-02 -4.3299933962615826e-02
      -5.5242548962911239e-02 -3.3489514264647774e-02
      5.1824043009086667e-03 -6.5031471596493237e-02
      1.3469816403467349e-02 -7.8892674969706131e-02
      -6.6431213689290940e-03 -3.8434683091010370e-02
      3.9151879732222998e-02 1.1760197703253798e-03
      2.4681892990481961e-02 3.7059807839286002e-02
      8.7675275577670575e-02 2.1126330437309691e-02
      -1.2713315653068831e-02 3.6827754328922074e-02
      -2.9338774115718304e-02 -5.8525737542398794e-02
      7.1189243975229369e-02 -2.3102334426622764e-02
      6.7485722276903637e-02 6.3587116848966285e-02
      5.6766745272652651e-02 6.2840435217029755e-02
      -4.5626326507920215e-03 -6.6920077616078918e-02
      -6.7722307349726243e-02 -1.5210497616676829e-02
      6.5923934620565630e-02 -4.5101251454467271e-02
      5.1310215117571147e-02 -3.9255232813258094e-02
      -1.0027649124904862e-01 -3.8339505251439476e-02
      -3.3980789033606615e-02 -5.5267226962753421e-02
      -1.4054528339846285e-02 -3.9440716828467094e-02
      3.8469153130049873e-02 4.4298570236068258e-02
      -7.4159857306772450e-02 -7.6252771084117557e-02
      2.8086520081603627e-02 -1.8342947030954137e-02
      1.8212617287071058e-02 -1.1256904757166591e-02
      1.1277598156045317e-01 -2.8181698001113701e-02
      -2.4052495621233842e-02 6.4832979753572689e-02
      -2.4002547891787646e-02 -2.1285562255271898e-02
      7.2772291635153322e-02 -1.0988641958579110e-01
      1.1311581212165879e-01 4.8489650551508919e-03
      4.2435273281092818e-02 3.0077457830939906e-02
      -3.7090281311617478e-02 4.1055269440630003e-02
      -7.5720257723594281e-02 -8.3776200671914658e-02
      -3.0803414662058787e-02 -9.9365576104184672e-02
      3.4214420298068773e-02 -3.1885311984044325e-02
      6.6330767074909119e-02 1.9295952823174832e-02
      -4.6243602783425326e-02 3.6560745210575556e-02
      -7.0419270004368317e-02 1.3860380837865152e-01
      -2.7092877984028183e-02 5.7830765466165973e-02
      1.0752752291635980e-02 7.8950584390331063e-02
      1.1144646706120340e-01 4.3833625697267467e-02
      -6.5084213777107935e-02 -3.7589833237195169e-02
      9.8853486876786884e-02 1.0118315669682926e-01
      -5.7164277635471016e-02 -6.9697240136076685e-02
      3.9818327996020289e-03 -8.2084675862030623e-02
      -1.7928972519922234e-01 3.0161352260220028e-02
      9.4930237501163306e-02 -4.7818609049205367e-02
      5.8156722731041034e-02 -2.0566149209341539e-02
      1.4545137807721733e-02 1.5640716875030833e-01
      -1.9769965879836310e-01 -2.1341419775514618e-02
      -6.6683315226038513e-03 -5.2201527627795626e-02
      -5.1240724802982682e-02 -4.0766323180234980e-02
      5.1636608188456647e-02 -4.2493523254885202e-02
      -8.0344366588612007e-03 -3.4185682362111898e-02
      2.6708884686219014e-02 -1.2890104884439740e-01
      2.5764719592468770e-02 8.1152864831197255e-02
      5.8864355679033233e-02 -6.2732833236241459e-02
      -4.4630175930948049e-02 9.3643830413701473e-03
      -9.4447101497783903e-02 3.4259631292401560e-02
      5.4477458731008531e-02 3.2913754713887022e-02
      -2.8847000691630813e-02 3.5160632651825452e-02
      -3.4662519300021490e-02 2.5833634583473257e-02
      7.7078410002685083e-03 4.1532332713509618e-02
      3.5383169537191943e-02 -5.8372552436303994e-02
      3.7570567993094023e-02 1.6221253669460742e-02
      -4.9116398416134167e-02 4.4911824609268042e-02
      6.0488308502425613e-02 1.8115222189260476e-02
      2.7193605693201291e-02 -5.1448513953329486e-02
      5.9976900085797480e-02 3.0524832736445049e-02
      -5.2868287103838597e-02 -4.4505182482428060e-02
      -2.8211855080062195e-03 -5.7435860607227975e-02
      2.7249059461332509e-02 1.1816012643463128e-01
      3.7879379262604963e-02 -1.9736980943941905e-02
      2.4289250613719535e-02 -4.5633951820215679e-02
      4.8427624767041856e-02 -3.0460119874659828e-02
      2.7832140811904875e-02 4.2224326719766166e-03
      -1.3668282546167829e-01 8.6681759442710241e-02
      1.0695747968865963e-02 1.3597236663980525e-01
      2.6142737308405457e-02 2.2761448400012759e-02
      -9.4890437190036786e-02 3.0089909484380974e-02
      1.4334185718495318e-01 1.5522770171516315e-02
      -3.1666001734142780e-02 -8.8221412680052486e-02
      1.9359917296687917e-01 3.7415596056972866e-02
      -7.3854596559292121e-02 -4.9298000524928019e-02
      -6.6898276952086319e-02 -1.6424680037381489e-01
      -9.7555974998831049e-02 -7.4941862112899896e-02
      5.3733722568718487e-02 -1.3559797117741954e-01
      7.5705636440625843e-03 -4.8484541583510878e-03
      -3.9322034279835445e-02 1.0518841482324892e-01
      -1.1279156965970175e-01 -8.3258577385961832e-03
      -2.4068013792511594e-02 -7.1359039167798663e-02
      8.5819591383648405e-02 4.5010956923681435e-02
      1.0698859959252408e-01 6.7873193538465312e-02
      7.3334773458419336e-02 7.1248404828722176e-02
      3.1375889671025228e-03 2.8098926693333687e-03
      -7.1867915909670510e-02 -3.5680657939145398e-02
      2.5196340961732271e-02 -2.4022838194621993e-03
      9.5025560316761112e-02 -1.1364613387518067e-02
      5.1847247010098622e-02 -4.7225760580402482e-02
      -5.5443034867629450e-02 -7.5200006472233308e-02
      -3.9325504960761912e-02 -5.1883040548516828e-02
      5.2660108672318302e-02 -1.6895186259677026e-02
      -3.4380495327999729e-02 -1.0401326285609719e-01
      -3.1838017903497323e-03 7.5129860109507882e-02
      -2.6926495585457406e-02 1.0580953098666253e-02
      1.1726150662965222e-01 -7.5367677397277885e-02
      -2.7456879541742463e-02 -8.5471682304515767e-02
      -1.8137910596414470e-02 5.0174800909091544e-02
      -5.0484289696453674e-02 -7.9336252755449907e-02
      1.1869032883773870e-01 3.1098328207216572e-02
      5.2017175795442336e-02 8.0763517218335849e-03
      -3.1403027255603004e-02 1.1423417179677847e-01
      -4.8968285533067396e-02 -5.4125349691917124e-02
      -3.6247509407961259e-02 -8.5640409382893634e-02
      5.2242269901410662e-02 7.4298056741146132e-02
      5.3322170492472953e-02 7.9680098570905147e-03
      -8.1937818799335232e-02 1.4340066735302984e-01
      -3.3146789170590330e-03 1.7803405529184405e-01
      9.2799579786052869e-02 4.8721273465914559e-02
      -7.8358388422131262e-02 5.9402336369945935e-02
      1.5128994584891109e-01 3.7937034925272971e-02
      -4.7729267348169041e-02 -7.4605992501595178e-02
      1.4880606637964874e-01 7.1696658349638051e-02
      -1.1641863515379805e-01 -5.7189731004245823e-03
      -5.2804197070333743e-02 -1.1788411486582336e-01
      -1.4896232756451169e-01 -2.8109807539454985e-02
      6.1672256558690568e-02 -1.3862507973627938e-01
      4.8625002777595232e-02 -1.1408476323360952e-02
      -7.4334854581713794e-02 1.3769133527895511e-01
      -1.6855248887927335e-01 3.4564098048726682e-04
      -2.2643433192302290e-02 -5.1984950005046451e-02
      2.1664829756410507e-02 6.3342941917370360e-02
      2.7191958758536826e-02 5.9824818340391463e-03
      2.3611622353516722e-02 -7.7562571497047600e-04
      5.8491671884196079e-02 -2.4011633530554074e-02
      -1.0457968656348089e-02 -4.9419701182278536e-02
      -6.0032027093721359e-02 9.9793294306882496e-02
      8.3649996091653120e-02 7.1047290034393085e-02
      6.9985505333482301e-02 -1.6342949520731301e-03
      -1.2676493109890311e-01 -1.2517058132696829e-02
      1.3635645272646424e-01 1.5230141314269763e-03
      1.3606957573016980e-02 -5.2583248731866653e-03
      1.2825122261034672e-01 -1.9785681898485001e-02
      -5.9917983491825547e-02 2.2859213611265441e-02
      -1.3422330976417955e-02 -1.8222712691436330e-02
      -7.2001655018135921e-03 -7.6971677912267139e-02
      -1.5544518003583949e-02 -6.6634096279637470e-02
      -3.5190229399786353e-02 4.0100673584239639e-02
      -1.3680465033512033e-02 2.6208635130622274e-02
      -1.4087562900761496e-02 4.2834112681769718e-02
      -3.8401614803484085e-03 -4.8952713950463335e-02
      3.7261199989276565e-02 6.3784778817796997e-02
      -9.2031176340204621e-02 4.2813407674674495e-02
      2.6813467402091052e-02 4.3537445649601152e-02
      -2.9582090226360257e-03 1.1738432300409192e-02
      -3.1645619350764979e-02 -2.9187537385066773e-02
      4.9714046999596595e-04 -1.7501161543768975e-02
      3.4453823589950396e-02 -3.7773644105738445e-04
      3.4720227674878514e-02 -2.0002989994560127e-02
      -7.1643517296627351e-02 -4.7925701123846649e-02
      6.0325272836049874e-02 -2.1888870121187155e-02
      4.1578210839221155e-02 -6.1588064174931158e-02
      -1.6474072045014838e-02 -6.5020886394773006e-02
      4.5160629065642136e-04 -3.9401467224634272e-02
      -5.0655014029122945e-02 -1.6125035572167625e-02
      6.2468953368310397e-02 -7.5519637037076565e-02
      -6.7944198925539795e-02 2.7655016490676018e-02
      -1.2420279720892755e-02 7.6855771541050402e-02
      -2.3949497446635187e-02 -3.7707174924370562e-02
      6.6211662193058546e-02 4.8871502338008160e-02
      -2.1764563998877318e-02 -8.1540497315116908e-02
      4.0124867388174994e-02 2.9406611183530915e-02
      -5.0702729110042859e-02 3.7602300422235967e-02
      2.3681281643357407e-02 5.3230734840197955e-02
      -2.3739128576046129e-02 1.6773132492457859e-02
      -4.2913078646200788e-02 -4.7286554100142958e-02
      -1.7611182670374158e-02 3.9193563590407737e-02
      2.3654003027959964e-02 -8.2594666919593909e-03
      7.5755445406573196e-02 -3.4974968209176012e-02
      -7.9855277870501840e-02 -5.1189497064712569e-02
      -1.4984621053052921e-02 -2.5345202459093233e-02
      4.5130814722833451e-02 -4.7132802388501427e-02
      -5.9278289947763034e-03 -7.2551997143866606e-02
      -7.3078917105928384e-03 8.0196756481910450e-02
      -3.8477063314390179e-02 6.9127375393134268e-03
      8.3524278979864863e-02 -3.8210485123064603e-02
      -4.1965903768195770e-02 -1.0612772975668113e-02
      -3.4617607704343807e-02 6.0631615597189263e-02
      -5.7429395367263408e-02 -5.5213765224539732e-02
      8.5461247384223338e-02 3.3752500380896618e-02
      -1.9681772886844671e-02 1.3072484634091439e-05
      3.1294004488624995e-02 2.1042564970223945e-01
      -1.5022986112323228e-01 4.5230208976867026e-02
      -2.4146582605305292e-02 -3.1673956288260224e-02
      6.0926992042659195e-02 7.2556931901860494e-02
      -4.1523249254178766e-03 7.4813428692244340e-03
      -1.8162562888886993e-01 9.7505448238445452e-02
      -8.2143529570121300e-04 4.1115367755805043e-02
      3.9181880512936910e-02 9.8702217507496796e-03
      -1.1283107995472041e-01 3.6407874067102733e-02
      2.3160383833582054e-01 4.3403107337215080e-03
      -2.4487745396837412e-02 -8.4097760395203114e-02
      1.4979074909922110e-01 5.6467866150615033e-02
      -1.0187140932538821e-01 -9.0842024533836913e-02
      -1.2121580198671922e-01 -2.2111224059458817e-01
      -5.4849060294294587e-02 -3.6657250419299910e-02
      2.3187939700398039e-02 -8.5484173121066431e-02
      -2.3409336308546341e-02 2.4320437262306292e-02
      -7.5159016798220790e-02 3.3807832941610404e-02
      -6.7431713486869965e-02 1.9231976582981616e-02
      -4.4530070313208395e-02 -5.7574109770375116e-02
      6.8015142685082436e-02 3.6102722928219290e-02
      -8.5806138232517357e-02 8.1107854354138309e-02
      3.2111008830661571e-02 8.7235855754327796e-02
      -1.9926428592800974e-03 4.4935735790269223e-02
      -8.1563538203701172e-02 -4.7833253929741811e-02
      5.4885556154788736e-03 9.7802657069578271e-03
      6.9933280070026818e-02 -1.9126862475153467e-02
      2.1769073412786329e-02 -5.0705159964879780e-02
      -6.5262964444871355e-02 -8.9562698884724137e-02
      4.0457687056119060e-02 -2.9641197352817426e-02
      6.4823475372572936e-02 -2.9817709248342487e-02
      -6.5491280959608475e-02 -7.7996635294710764e-02
      -3.7763401834878051e-02 -2.8355401123916286e-02
      -2.3373895520847350e-02 2.8700301862494455e-02
      1.1568603099392261e-01 -8.7236946394314618e-02
      -8.0569208968889583e-02 9.5912605180198368e-02
      -6.6670895642850891e-02 7.1793761397073594e-02
      -3.7384887099404366e-03 -5.2773987738064985e-02
      1.2694868198651574e-01 4.3169433172342717e-02
      -2.3080044133766014e-03 2.8630184391665106e-02
      4.2033658620287344e-02 -3.9685113334298493e-02
      3.9742533818170403e-02 9.8488335543065100e-03
      6.2457212684079721e-02 1.5993873878134571e-02
      -4.1594232094075520e-02 -1.3920409893085792e-01
      -7.4024321954399147e-03 -6.6844730239440011e-03
      7.4104275339346368e-02 -7.9815587294867013e-02
      -7.2373857873447430e-03 -3.6349427087213601e-02
      -1.5261243274343997e-01 -9.2174460231912256e-03
      5.5489042715731261e-02 -1.9008783381650733e-02
      -4.6818691100276200e-02 -9.8923019636895319e-03
      6.9973303276972014e-03 -1.8510268877373656e-02
      -5.7862456874802869e-02 -1.0698808808109191e-02
      5.5099008046374749e-02 -1.1067170257201341e-01
      6.5195280105943193e-02 1.1904995811512447e-02
      1.7319228613284162e-03 -3.8706182126910391e-02
      4.9960201677471831e-02 1.2040419516390775e-01
      1.7137937375639276e-02 -3.6013676092553654e-02
      1.6267814338254483e-01 1.6813257356429859e-02
      -5.3752954402388380e-03 -9.2861633404913348e-03
      -3.9896522008398050e-02 -8.0783721921663360e-02
      4.2782719405257075e-02 -3.5992036970605976e-02
      -4.2170294086097744e-02 4.5101347788198756e-02
      4.1944755675878832e-02 7.8019788918747279e-02
      -2.1860012768666563e-02 1.4462323829901603e-02
      -5.7774727597769339e-02 -5.7746672588224086e-02
      3.8428197822371030e-02 -4.4442198916812406e-02
      5.2281552132846271e-02 9.2863555601791908e-03
      -5.1572957178268484e-03 -4.5486010975842678e-02
      -1.1631141821694641e-02 -8.2318810054906752e-02
      -9.0834546227422635e-04 -3.5113446606501071e-02
      6.1667827341672386e-02 -2.7184957315262319e-02
      -5.6876082349195146e-02 -1.0812419444123560e-01
      7.9905798157326666e-03 -1.6583409428714307e-02
      3.0792610293009198e-02 1.1733458137939960e-01
      1.2455008840743095e-01 -3.2819386836016984e-02
      -7.6729034764865686e-02 8.2371440315875968e-02
      -4.7510978188594864e-02 6.3184507233648102e-02
      9.4177640345962224e-02 -8.1948228003368928e-02
      1.3022228277326950e-01 5.5692348153934555e-02
      2.9061884648945376e-02 1.6997505974440500e-02
      2.4925847866130679e-02 6.6326105394983972e-02
      -1.3047346650797556e-01 -5.2561187763252339e-03
      7.4566233083446058e-03 -1.2244209394254559e-02
      5.0605266190999781e-02 -7.2562066586576660e-03
      -4.7711466691424441e-03 -3.3106635746910480e-02
      -8.1066591260970655e-02 7.6060704673920537e-02
      1.3097657319181248e-02 9.0621281492854436e-02
      -2.4563751712601545e-02 6.2380702761070262e-03
      -5.5354679012009418e-02 -2.8384613403078605e-03
      2.0071433376379549e-01 3.6820266566671032e-03
      3.1069769601346312e-05 -8.1346361839146911e-02
      1.1260050350898869e-01 -9.4682794142109984e-03
      -7.0150020570878102e-02 -3.2816289519060508e-02
      -5.0459514977298656e-02 -8.5031271712751627e-02
      -3.7302854081061342e-02 -6.3623141135645211e-02
      2.0326460862381948e-02 -1.5071959457184696e-02
      -2.5169379268574901e-02 4.8824778452944098e-02
      5.7858228581503680e-03 6.0735015998613459e-02
      -3.9800658656164910e-02 5.6112028857567199e-02
      -1.9978370607118514e-02 -6.0987063424174148e-02
      4.2466989270749496e-02 -3.0583144426027366e-02
      -4.3457483684279145e-02 3.0148990919044938e-02
      1.9763956273549994e-02 5.7950929194585742e-02
      9.5236765708848741e-03 4.2683382656488481e-02
      -4.8165076145635768e-02 -6.7751638739817835e-02
      6.1594173579894169e-02 3.0810315816367520e-02
      5.3269320913001038e-02 3.0706198525164111e-02
      -1.6131679869854140e-02 -3.7436661724327185e-02
      -2.7971471090724280e-02 -6.5394022764606846e-02
      3.1205941034608633e-02 -3.2161481120800486e-02
      5.4884312647510314e-02 -1.0951122555820324e-02
      -8.2408865466162134e-03 -8.6879759627604414e-02
      -2.3063724963026559e-02 4.2150411978416132e-02
      2.3674587491318969e-02 4.7954130703542451e-02
      8.9714833888356493e-02 -3.1999480684247743e-03
      -5.0287316098686294e-02 9.5581199084586496e-02
      -6.9938790560930553e-02 7.9332306364143221e-02
      7.7747986483466494e-02 -4.0827020667058116e-02
      9.8213730041336378e-02 6.8132782875289247e-02
      -1.3809498603462583e-01 5.8222785219974064e-03
      1.9109736104019188e-02 3.4066384848833599e-02
      -4.1463730379426751e-02 8.1171615425421256e-02
      4.1440308626495143e-02 -3.3108330222462005e-02
      3.4842690538384978e-03 -6.2765242754780714e-05
      -1.7388548569007640e-02 4.0357819311259591e-02
      1.1678032825544934e-01 -1.2627540637819093e-01
      -2.2490742030075856e-02 -8.2563567082651695e-02
      -2.4932581947870732e-02 4.4369154561865283e-03
      3.0584416317688736e-02 5.1559893828709409e-02
      3.1797759176248972e-03 7.1473485403382728e-03
      -3.9107372394746383e-02 -1.0112163688543463e-01
      -1.1460140439414802e-01 9.6290368885716529e-02
      7.7275961788325270e-02 -6.6657208372643675e-02
      -2.5135980420372451e-02 -5.7260127730308752e-02
      -4.6523087177261349e-02 3.2028086590524793e-02
      2.1165047781343257e-02 -3.0493677484403809e-02
      2.7725416232395505e-02 -2.8701462758236106e-02
      -2.5093152139366933e-03 2.0874416607645996e-02
      -5.5207780648676569e-02 -4.0335704490911062e-02
      -6.4998224671676777e-02 -3.4073115665053305e-02
      1.9406825191474054e-02 -1.5572526780737470e-03
      1.1879990441750048e-02 4.2154655243877896e-02
      3.8290475456210504e-02 5.4485384864932547e-02
      -1.2764708251208588e-02 -4.2878729892214390e-02
      -3.0419309595623893e-02 -5.4024705816585632e-02
      -4.4766624397046349e-03 -1.1274944487913226e-02
      3.9946485551460971e-02 -4.6286760078651318e-02
      -5.8587511595267636e-02 -1.5468728254908951e-02
      -5.0949728497814158e-02 -5.5365146202646105e-02
      -1.6682721890142380e-04 -9.6472022877519270e-03
      5.1491031486827210e-02 2.4484086789153280e-03
      -9.2160967911883523e-02 -8.3688670330800186e-02
      3.1992352718489506e-02 7.4045413518706860e-02
      1.5176020518184423e-02 2.2556257577457498e-02
      9.7830144776570802e-02 -7.9683641492672347e-02
      -5.9058136411091387e-02 3.5681792667860306e-02
      -6.2342077077764707e-02 5.2382230758905753e-02
      5.1986235023671473e-02 -9.8199746042107447e-02
      1.0830221365766129e-01 4.4080755048381964e-02
      5.2393938229280429e-02 3.3028756928752366e-02
      -1.8133178171832555e-02 1.2859417475091781e-01
      -7.0575371337031928e-02 -4.8666593236890536e-02
      -2.7077952355683717e-02 -9.4389488555955442e-02
      4.3701174952190142e-02 5.5815825950294974e-02
      4.7597595133156999e-02 2.8960338717370387e-02
      -1.1410283657196500e-01 1.0338026259922649e-01
      -2.0088634229365007e-02 1.4985404395975899e-01
      9.4805245169962818e-02 4.3442615317878346e-02
      -5.9154437911185610e-02 7.2158573633192544e-02
      1.7128688058498046e-01 3.4719776997908285e-02
      -6.0684678055051192e-02 -1.0004296747345243e-01
      1.3932679468782930e-01 1.0177960815836797e-01
      -9.6215131150257580e-02 -2.0514656965278662e-02
      -8.1495495035422486e-02 -1.6955214633127208e-01
      -1.6167481790838342e-01 -1.0392235681305361e-02
      8.0223629940004579e-02 -1.7206167356259650e-01
      7.5733683610353306e-02 -2.0051922824100281e-02
      -1.0601111122327499e-01 1.3921652855661845e-01
      -1.8475857259033382e-01 -1.4770423028064448e-02
      -1.0739635804168009e-02 -3.4372504972504489e-03
      -1.1491347259055516e-02 6.5806108186437687e-02
      -8.9454040180353134e-02 -5.2604396111439980e-02
      1.5003104975000750e-02 -6.8478990692077302e-02
      4.0635158665518555e-02 -1.9768380165502655e-02
      4.5330247144226461e-02 -1.5747448786014862e-02
      -7.8482350875052981e-02 3.2450236147975688e-02
      7.5592802479117049e-03 1.3918214709468915e-01
      -5.7030196441388891e-03 3.9319899331233039e-02
      -3.9297603198883681e-02 4.9335114789657193e-02
      1.3594310767156179e-01 2.9041068708411052e-02
      -4.1198696581845128e-02 -1.3966010571248461e-01
      1.3659838202755423e-01 5.9929194443307500e-02
      -5.6871173848713867e-02 -6.9181125944100794e-02
      -6.2264980927601639e-02 -6.8507220466966737e-02
      -1.3821851943824523e-01 -3.0375434852212890e-02
      5.6250690742446700e-02 -6.2916803112120681e-02
      2.2827285783830326e-02 3.4560244352955703e-02
      -1.4301140439822019e-02 1.0177667586220336e-01
      -1.5523953393527221e-01 1.8728869172409179e-02
      -3.9749267065210592e-02 -3.2320160238823836e-02
      7.9358617138931498e-02 -4.7743169755383820e-02
      2.7251307654899422e-02 7.5563412299058677e-02
      7.5259869687692063e-02 6.8201093144080363e-02
      -5.9698967823716753e-02 -1.8291042868204055e-01
      -6.6111347838799822e-02 -4.0857054075727539e-02
      6.1194165786844397e-02 -1.2305116699621488e-01
      4.0773013436616372e-02 -6.0668898631570413e-02
      -2.5837441841044256e-01 -4.8371519191434828e-02
      -4.2672734796398930e-02 -5.4990000296096540e-02
      1.1680273503756901e-01 -5.3257492774601456e-02
      3.6092080155193697e-02 3.9261891896712371e-02
      -1.0308789997991312e-01 -7.5588286508029789e-02
      5.8854393911293573e-02 -1.9453247622809247e-01
      6.1110947218921997e-02 -3.4247546298278669e-02
      1.2301231786726187e-01 -6.2808732528874103e-02
      -5.7862263188798738e-02 1.6077723583394832e-01
      -4.9313959694324318e-02 -3.7308820820295921e-02
      2.1936052047361490e-01 -9.4048555367481454e-02
      1.2795789104659791e-01 1.7622479303609224e-02
      -8.6710112645640072e-03 -6.0026687306915689e-02
      6.4958962193870734e-02 3.8505544351204256e-02
      -7.8357213431488382e-02 7.2489410873260107e-02
      2.9121914473174665e-02 6.6316112460117607e-02
      -1.1630760449228552e-02 -6.0389733532827609e-02
      -6.7087608762402662e-02 -4.7442236022103755e-02
      -6.2181978372151572e-02 -7.9660604320477141e-02
      4.0457967110721700e-02 -4.2990299954355195e-02
      1.4557354730921943e-02 -3.4698501939403208e-02
      -6.0091742931962400e-02 -5.8575162684543776e-02
      1.0289387002134722e-02 -3.6560094727008739e-02
      4.8763708112844410e-02 -3.4121817966455012e-02
      -5.8157150075827321e-02 -7.2441797763324267e-02
      3.0983453359722028e-02 -3.6904929996497013e-02
      -6.0969265065096680e-02 -8.5443114273169002e-02
      9.5090196243486108e-02 -5.6449913287469268e-02
      -5.6396976694282813e-02 2.2907637129962775e-02
      -2.1421873455604874e-02 2.7334704203229317e-02
      -1.9099402106495626e-02 -7.5292858445641334e-02
      1.0353806735636371e-01 2.6432318508283599e-02
      3.3496604087791274e-02 8.3629442766106440e-02
      2.5769513104925770e-02 -6.4849509168125902e-02
      1.2777610177826898e-01 2.0950941666843439e-02
      -8.5571740360431336e-04 2.5953579200730145e-02
      -4.6779172996864682e-02 -6.6860978161109003e-02
      2.6387948354317185e-03 2.1163672933010743e-02
      8.6484832488828392e-02 -6.7603509901574224e-02
      -2.3876403060449407e-02 -7.2652448981171194e-02
      -8.7838100918652295e-02 -1.7940320813766196e-02
      6.4033173700115437e-02 -1.3260688116529648e-02
      -1.2468889037195170e-01 -1.4865670231073753e-02
      5.2697668933307110e-03 1.2558634356852022e-01
      -1.3144172942316651e-01 -5.5042758165092529e-03
      5.5875240288792413e-02 1.4887657100281313e-03
      7.2283491495668331e-02 3.1378214399381286e-02
      4.0468291048055230e-02 2.8639949003398937e-03
      1.3488378660891521e-02 3.1848301079114141e-02
      4.5961142928924545e-02 -6.7275195048102934e-02
      5.6086683160073890e-02 -3.9270103971329295e-02
      3.8388674443271736e-02 -3.4075371801701552e-02
      4.9352992902810880e-02 4.3614104819692752e-02
      8.3486301485200358e-03 -2.3796791470811138e-03
      8.2634471802775306e-02 -1.4923101872384258e-02
      1.2437330908960650e-02 -2.4701399990624904e-02
      -1.6139480388402611e-03 -3.7480447614941743e-02
      1.5627747171352964e-02 2.0059529139289670e-02
      -4.3858813465786654e-03 -1.2713110975748310e-03
      -4.9889176279488946e-02 -3.1708154120171981e-03
      -2.7715291508404367e-02 1.1978978124355489e-02
      5.1951657516978722e-02 2.3517492606940433e-02
      -2.2618660721234835e-02 9.9362011713841417e-03
      -1.6566328777526344e-02 5.4925516872424626e-02
      -2.0022333313458457e-02 5.0349294277766493e-02
      -6.6781640550363335e-03 -1.9617658232041851e-02
      4.2949654804223206e-02 -8.9087076157047376e-02
      -5.1167155921467630e-02 4.5013671739636080e-02
      4.4219033680673911e-02 -4.6780430871169967e-02
      3.5919271527790245e-02 -7.4179528878738812e-02
      2.2210792219829436e-02 4.5685135959066252e-02
      -5.5466980885328032e-02 -4.4391005310632080e-02
      -9.0276205632499919e-03 -2.5940815356268770e-02
      3.7941571295973565e-02 4.3315993500247799e-02
      -1.6169373065345129e-02 4.0385976033828978e-02
      4.2267711520023447e-02 6.1757344403243118e-02
      9.1185951044937819e-03 1.2949907858133604e-02
      -5.4824664819188851e-02 -3.2482679875047313e-02
      -5.2250131259475842e-02 -2.4247880101866553e-02
      9.9277258548265371e-02 -5.1767318949560721e-02
